digraph Tree {
node [shape=box, style="filled, rounded", color="black", fontname=helvetica] ;
edge [fontname=helvetica] ;
0 [label="club <= 0.5\ngini = 0.5\nsamples = 630\nvalue = [502, 498]", fillcolor="#e5813902"] ;
1 [label="would <= 0.5\ngini = 0.5\nsamples = 605\nvalue = [463, 494]", fillcolor="#399de510"] ;
0 -> 1 [labeldistance=2.5, labelangle=45, headlabel="True"] ;
2 [label="last <= 1.5\ngini = 0.45\nsamples = 272\nvalue = [151, 285]", fillcolor="#399de578"] ;
1 -> 2 ;
3 [label="credit <= 1.5\ngini = 0.43\nsamples = 256\nvalue = [127, 278]", fillcolor="#399de58b"] ;
2 -> 3 ;
4 [label="msnbc <= 0.5\ngini = 0.42\nsamples = 253\nvalue = [119, 278]", fillcolor="#399de592"] ;
3 -> 4 ;
5 [label="woman <= 0.5\ngini = 0.41\nsamples = 249\nvalue = [113, 278]", fillcolor="#399de597"] ;
4 -> 5 ;
6 [label="played <= 0.5\ngini = 0.39\nsamples = 234\nvalue = [97, 270]", fillcolor="#399de5a3"] ;
5 -> 6 ;
7 [label="replace <= 0.5\ngini = 0.37\nsamples = 228\nvalue = [86, 270]", fillcolor="#399de5ae"] ;
6 -> 7 ;
8 [label="pic <= 0.5\ngini = 0.35\nsamples = 222\nvalue = [76, 266]", fillcolor="#399de5b6"] ;
7 -> 8 ;
9 [label="crossed <= 0.5\ngini = 0.32\nsamples = 215\nvalue = [66, 264]", fillcolor="#399de5bf"] ;
8 -> 9 ;
10 [label="patriots <= 0.5\ngini = 0.31\nsamples = 213\nvalue = [63, 264]", fillcolor="#399de5c2"] ;
9 -> 10 ;
11 [label="host <= 0.5\ngini = 0.3\nsamples = 210\nvalue = [59, 264]", fillcolor="#399de5c6"] ;
10 -> 11 ;
12 [label="leadership <= 2.0\ngini = 0.28\nsamples = 199\nvalue = [52, 257]", fillcolor="#399de5cb"] ;
11 -> 12 ;
13 [label="flynn <= 1.5\ngini = 0.27\nsamples = 198\nvalue = [50, 257]", fillcolor="#399de5cd"] ;
12 -> 13 ;
14 [label="inauguration <= 1.0\ngini = 0.26\nsamples = 196\nvalue = [47, 257]", fillcolor="#399de5d0"] ;
13 -> 14 ;
15 [label="pick <= 0.5\ngini = 0.25\nsamples = 195\nvalue = [45, 257]", fillcolor="#399de5d2"] ;
14 -> 15 ;
16 [label="wanted <= 1.5\ngini = 0.25\nsamples = 194\nvalue = [43, 257]", fillcolor="#399de5d4"] ;
15 -> 16 ;
17 [label="return <= 0.5\ngini = 0.24\nsamples = 193\nvalue = [41, 257]", fillcolor="#399de5d6"] ;
16 -> 17 ;
18 [label="identified <= 0.5\ngini = 0.22\nsamples = 188\nvalue = [37, 256]", fillcolor="#399de5da"] ;
17 -> 18 ;
19 [label="cities <= 2.5\ngini = 0.2\nsamples = 185\nvalue = [33, 255]", fillcolor="#399de5de"] ;
18 -> 19 ;
20 [label="remarks <= 0.5\ngini = 0.19\nsamples = 184\nvalue = [31, 255]", fillcolor="#399de5e0"] ;
19 -> 20 ;
21 [label="officers <= 0.5\ngini = 0.18\nsamples = 181\nvalue = [28, 255]", fillcolor="#399de5e3"] ;
20 -> 21 ;
22 [label="celebrity <= 0.5\ngini = 0.17\nsamples = 178\nvalue = [26, 254]", fillcolor="#399de5e5"] ;
21 -> 22 ;
23 [label="appearance <= 1.5\ngini = 0.16\nsamples = 176\nvalue = [24, 254]", fillcolor="#399de5e7"] ;
22 -> 23 ;
24 [label="disney <= 0.5\ngini = 0.15\nsamples = 175\nvalue = [22, 254]", fillcolor="#399de5e9"] ;
23 -> 24 ;
25 [label="sen <= 0.5\ngini = 0.14\nsamples = 174\nvalue = [20, 254]", fillcolor="#399de5eb"] ;
24 -> 25 ;
26 [label="coverage <= 2.5\ngini = 0.13\nsamples = 173\nvalue = [19, 254]", fillcolor="#399de5ec"] ;
25 -> 26 ;
27 [label="moderate <= 0.5\ngini = 0.12\nsamples = 172\nvalue = [18, 254]", fillcolor="#399de5ed"] ;
26 -> 27 ;
28 [label="orange <= 1.5\ngini = 0.12\nsamples = 171\nvalue = [17, 254]", fillcolor="#399de5ee"] ;
27 -> 28 ;
29 [label="declined <= 0.5\ngini = 0.11\nsamples = 170\nvalue = [16, 254]", fillcolor="#399de5ef"] ;
28 -> 29 ;
30 [label="percentage <= 0.5\ngini = 0.11\nsamples = 169\nvalue = [15, 254]", fillcolor="#399de5f0"] ;
29 -> 30 ;
31 [label="son <= 3.0\ngini = 0.1\nsamples = 168\nvalue = [14, 254]", fillcolor="#399de5f1"] ;
30 -> 31 ;
32 [label="deaths <= 0.5\ngini = 0.09\nsamples = 167\nvalue = [13, 254]", fillcolor="#399de5f2"] ;
31 -> 32 ;
33 [label="hired <= 0.5\ngini = 0.08\nsamples = 165\nvalue = [11, 254]", fillcolor="#399de5f4"] ;
32 -> 33 ;
34 [label="confirmation <= 0.5\ngini = 0.07\nsamples = 164\nvalue = [10, 254]", fillcolor="#399de5f5"] ;
33 -> 34 ;
35 [label="pass <= 0.5\ngini = 0.07\nsamples = 163\nvalue = [9, 254]", fillcolor="#399de5f6"] ;
34 -> 35 ;
36 [label="square <= 0.5\ngini = 0.06\nsamples = 161\nvalue = [8, 252]", fillcolor="#399de5f7"] ;
35 -> 36 ;
37 [label="reaching <= 0.5\ngini = 0.05\nsamples = 160\nvalue = [7, 252]", fillcolor="#399de5f8"] ;
36 -> 37 ;
38 [label="chiefs <= 0.5\ngini = 0.05\nsamples = 159\nvalue = [6, 252]", fillcolor="#399de5f9"] ;
37 -> 38 ;
39 [label="girls <= 0.5\ngini = 0.04\nsamples = 158\nvalue = [5, 252]", fillcolor="#399de5fa"] ;
38 -> 39 ;
40 [label="remarkable <= 0.5\ngini = 0.03\nsamples = 157\nvalue = [4, 252]", fillcolor="#399de5fb"] ;
39 -> 40 ;
41 [label="good <= 0.5\ngini = 0.02\nsamples = 155\nvalue = [3, 250]", fillcolor="#399de5fc"] ;
40 -> 41 ;
42 [label="users <= 1.0\ngini = 0.03\nsamples = 138\nvalue = [3, 226]", fillcolor="#399de5fc"] ;
41 -> 42 ;
43 [label="website <= 0.5\ngini = 0.02\nsamples = 136\nvalue = [2, 224]", fillcolor="#399de5fd"] ;
42 -> 43 ;
44 [label="american <= 0.5\ngini = 0.01\nsamples = 127\nvalue = [1, 212]", fillcolor="#399de5fe"] ;
43 -> 44 ;
45 [label="hillary <= 0.5\ngini = 0.01\nsamples = 111\nvalue = [1, 189]", fillcolor="#399de5fe"] ;
44 -> 45 ;
46 [label="three <= 0.5\ngini = 0.01\nsamples = 94\nvalue = [1, 157]", fillcolor="#399de5fd"] ;
45 -> 46 ;
47 [label="staff <= 0.5\ngini = 0.01\nsamples = 83\nvalue = [1, 142]", fillcolor="#399de5fd"] ;
46 -> 47 ;
48 [label="read <= 0.5\ngini = 0.01\nsamples = 80\nvalue = [1, 133]", fillcolor="#399de5fd"] ;
47 -> 48 ;
49 [label="gini = 0.0\nsamples = 75\nvalue = [0, 129]", fillcolor="#399de5ff"] ;
48 -> 49 ;
50 [label="least <= 0.5\ngini = 0.32\nsamples = 5\nvalue = [1, 4]", fillcolor="#399de5bf"] ;
48 -> 50 ;
51 [label="make <= 0.5\ngini = 0.38\nsamples = 4\nvalue = [1, 3]", fillcolor="#399de5aa"] ;
50 -> 51 ;
52 [label="marine <= 0.5\ngini = 0.44\nsamples = 3\nvalue = [1, 2]", fillcolor="#399de57f"] ;
51 -> 52 ;
53 [label="social <= 0.5\ngini = 0.5\nsamples = 2\nvalue = [1, 1]", fillcolor="#e5813900"] ;
52 -> 53 ;
54 [label="gini = 0.0\nsamples = 1\nvalue = [1, 0]", fillcolor="#e58139ff"] ;
53 -> 54 ;
55 [label="gini = 0.0\nsamples = 1\nvalue = [0, 1]", fillcolor="#399de5ff"] ;
53 -> 55 ;
56 [label="gini = 0.0\nsamples = 1\nvalue = [0, 1]", fillcolor="#399de5ff"] ;
52 -> 56 ;
57 [label="gini = 0.0\nsamples = 1\nvalue = [0, 1]", fillcolor="#399de5ff"] ;
51 -> 57 ;
58 [label="gini = 0.0\nsamples = 1\nvalue = [0, 1]", fillcolor="#399de5ff"] ;
50 -> 58 ;
59 [label="gini = 0.0\nsamples = 3\nvalue = [0, 9]", fillcolor="#399de5ff"] ;
47 -> 59 ;
60 [label="gini = 0.0\nsamples = 11\nvalue = [0, 15]", fillcolor="#399de5ff"] ;
46 -> 60 ;
61 [label="gini = 0.0\nsamples = 17\nvalue = [0, 32]", fillcolor="#399de5ff"] ;
45 -> 61 ;
62 [label="gini = 0.0\nsamples = 16\nvalue = [0, 23]", fillcolor="#399de5ff"] ;
44 -> 62 ;
63 [label="chosen <= 0.5\ngini = 0.14\nsamples = 9\nvalue = [1, 12]", fillcolor="#399de5ea"] ;
43 -> 63 ;
64 [label="gini = 0.0\nsamples = 8\nvalue = [0, 12]", fillcolor="#399de5ff"] ;
63 -> 64 ;
65 [label="gini = 0.0\nsamples = 1\nvalue = [1, 0]", fillcolor="#e58139ff"] ;
63 -> 65 ;
66 [label="understand <= 0.5\ngini = 0.44\nsamples = 2\nvalue = [1, 2]", fillcolor="#399de57f"] ;
42 -> 66 ;
67 [label="gini = 0.0\nsamples = 1\nvalue = [1, 0]", fillcolor="#e58139ff"] ;
66 -> 67 ;
68 [label="gini = 0.0\nsamples = 1\nvalue = [0, 2]", fillcolor="#399de5ff"] ;
66 -> 68 ;
69 [label="gini = 0.0\nsamples = 17\nvalue = [0, 24]", fillcolor="#399de5ff"] ;
41 -> 69 ;
70 [label="closely <= 1.0\ngini = 0.44\nsamples = 2\nvalue = [1, 2]", fillcolor="#399de57f"] ;
40 -> 70 ;
71 [label="gini = 0.0\nsamples = 1\nvalue = [1, 0]", fillcolor="#e58139ff"] ;
70 -> 71 ;
72 [label="gini = 0.0\nsamples = 1\nvalue = [0, 2]", fillcolor="#399de5ff"] ;
70 -> 72 ;
73 [label="gini = 0.0\nsamples = 1\nvalue = [1, 0]", fillcolor="#e58139ff"] ;
39 -> 73 ;
74 [label="gini = 0.0\nsamples = 1\nvalue = [1, 0]", fillcolor="#e58139ff"] ;
38 -> 74 ;
75 [label="gini = 0.0\nsamples = 1\nvalue = [1, 0]", fillcolor="#e58139ff"] ;
37 -> 75 ;
76 [label="gini = 0.0\nsamples = 1\nvalue = [1, 0]", fillcolor="#e58139ff"] ;
36 -> 76 ;
77 [label="immigration <= 0.5\ngini = 0.44\nsamples = 2\nvalue = [1, 2]", fillcolor="#399de57f"] ;
35 -> 77 ;
78 [label="gini = 0.0\nsamples = 1\nvalue = [0, 2]", fillcolor="#399de5ff"] ;
77 -> 78 ;
79 [label="gini = 0.0\nsamples = 1\nvalue = [1, 0]", fillcolor="#e58139ff"] ;
77 -> 79 ;
80 [label="gini = 0.0\nsamples = 1\nvalue = [1, 0]", fillcolor="#e58139ff"] ;
34 -> 80 ;
81 [label="gini = 0.0\nsamples = 1\nvalue = [1, 0]", fillcolor="#e58139ff"] ;
33 -> 81 ;
82 [label="gini = 0.0\nsamples = 2\nvalue = [2, 0]", fillcolor="#e58139ff"] ;
32 -> 82 ;
83 [label="gini = 0.0\nsamples = 1\nvalue = [1, 0]", fillcolor="#e58139ff"] ;
31 -> 83 ;
84 [label="gini = 0.0\nsamples = 1\nvalue = [1, 0]", fillcolor="#e58139ff"] ;
30 -> 84 ;
85 [label="gini = 0.0\nsamples = 1\nvalue = [1, 0]", fillcolor="#e58139ff"] ;
29 -> 85 ;
86 [label="gini = 0.0\nsamples = 1\nvalue = [1, 0]", fillcolor="#e58139ff"] ;
28 -> 86 ;
87 [label="gini = 0.0\nsamples = 1\nvalue = [1, 0]", fillcolor="#e58139ff"] ;
27 -> 87 ;
88 [label="gini = 0.0\nsamples = 1\nvalue = [1, 0]", fillcolor="#e58139ff"] ;
26 -> 88 ;
89 [label="gini = 0.0\nsamples = 1\nvalue = [1, 0]", fillcolor="#e58139ff"] ;
25 -> 89 ;
90 [label="gini = 0.0\nsamples = 1\nvalue = [2, 0]", fillcolor="#e58139ff"] ;
24 -> 90 ;
91 [label="gini = 0.0\nsamples = 1\nvalue = [2, 0]", fillcolor="#e58139ff"] ;
23 -> 91 ;
92 [label="gini = 0.0\nsamples = 2\nvalue = [2, 0]", fillcolor="#e58139ff"] ;
22 -> 92 ;
93 [label="staff <= 1.5\ngini = 0.44\nsamples = 3\nvalue = [2, 1]", fillcolor="#e581397f"] ;
21 -> 93 ;
94 [label="gini = 0.0\nsamples = 2\nvalue = [2, 0]", fillcolor="#e58139ff"] ;
93 -> 94 ;
95 [label="gini = 0.0\nsamples = 1\nvalue = [0, 1]", fillcolor="#399de5ff"] ;
93 -> 95 ;
96 [label="gini = 0.0\nsamples = 3\nvalue = [3, 0]", fillcolor="#e58139ff"] ;
20 -> 96 ;
97 [label="gini = 0.0\nsamples = 1\nvalue = [2, 0]", fillcolor="#e58139ff"] ;
19 -> 97 ;
98 [label="full <= 0.5\ngini = 0.32\nsamples = 3\nvalue = [4, 1]", fillcolor="#e58139bf"] ;
18 -> 98 ;
99 [label="gini = 0.0\nsamples = 2\nvalue = [4, 0]", fillcolor="#e58139ff"] ;
98 -> 99 ;
100 [label="gini = 0.0\nsamples = 1\nvalue = [0, 1]", fillcolor="#399de5ff"] ;
98 -> 100 ;
101 [label="large <= 0.5\ngini = 0.32\nsamples = 5\nvalue = [4, 1]", fillcolor="#e58139bf"] ;
17 -> 101 ;
102 [label="gini = 0.0\nsamples = 4\nvalue = [4, 0]", fillcolor="#e58139ff"] ;
101 -> 102 ;
103 [label="gini = 0.0\nsamples = 1\nvalue = [0, 1]", fillcolor="#399de5ff"] ;
101 -> 103 ;
104 [label="gini = 0.0\nsamples = 1\nvalue = [2, 0]", fillcolor="#e58139ff"] ;
16 -> 104 ;
105 [label="gini = 0.0\nsamples = 1\nvalue = [2, 0]", fillcolor="#e58139ff"] ;
15 -> 105 ;
106 [label="gini = 0.0\nsamples = 1\nvalue = [2, 0]", fillcolor="#e58139ff"] ;
14 -> 106 ;
107 [label="gini = 0.0\nsamples = 2\nvalue = [3, 0]", fillcolor="#e58139ff"] ;
13 -> 107 ;
108 [label="gini = 0.0\nsamples = 1\nvalue = [2, 0]", fillcolor="#e58139ff"] ;
12 -> 108 ;
109 [label="president <= 1.5\ngini = 0.5\nsamples = 11\nvalue = [7, 7]", fillcolor="#e5813900"] ;
11 -> 109 ;
110 [label="african <= 0.5\ngini = 0.48\nsamples = 8\nvalue = [4, 6]", fillcolor="#399de555"] ;
109 -> 110 ;
111 [label="speech <= 2.0\ngini = 0.24\nsamples = 6\nvalue = [1, 6]", fillcolor="#399de5d4"] ;
110 -> 111 ;
112 [label="gini = 0.0\nsamples = 5\nvalue = [0, 6]", fillcolor="#399de5ff"] ;
111 -> 112 ;
113 [label="gini = 0.0\nsamples = 1\nvalue = [1, 0]", fillcolor="#e58139ff"] ;
111 -> 113 ;
114 [label="gini = 0.0\nsamples = 2\nvalue = [3, 0]", fillcolor="#e58139ff"] ;
110 -> 114 ;
115 [label="percent <= 0.5\ngini = 0.38\nsamples = 3\nvalue = [3, 1]", fillcolor="#e58139aa"] ;
109 -> 115 ;
116 [label="gini = 0.0\nsamples = 2\nvalue = [3, 0]", fillcolor="#e58139ff"] ;
115 -> 116 ;
117 [label="gini = 0.0\nsamples = 1\nvalue = [0, 1]", fillcolor="#399de5ff"] ;
115 -> 117 ;
118 [label="gini = 0.0\nsamples = 3\nvalue = [4, 0]", fillcolor="#e58139ff"] ;
10 -> 118 ;
119 [label="gini = 0.0\nsamples = 2\nvalue = [3, 0]", fillcolor="#e58139ff"] ;
9 -> 119 ;
120 [label="described <= 0.5\ngini = 0.28\nsamples = 7\nvalue = [10, 2]", fillcolor="#e58139cc"] ;
8 -> 120 ;
121 [label="gini = 0.0\nsamples = 6\nvalue = [10, 0]", fillcolor="#e58139ff"] ;
120 -> 121 ;
122 [label="gini = 0.0\nsamples = 1\nvalue = [0, 2]", fillcolor="#399de5ff"] ;
120 -> 122 ;
123 [label="modern <= 0.5\ngini = 0.41\nsamples = 6\nvalue = [10, 4]", fillcolor="#e5813999"] ;
7 -> 123 ;
124 [label="women <= 0.5\ngini = 0.28\nsamples = 5\nvalue = [10, 2]", fillcolor="#e58139cc"] ;
123 -> 124 ;
125 [label="gini = 0.0\nsamples = 4\nvalue = [10, 0]", fillcolor="#e58139ff"] ;
124 -> 125 ;
126 [label="gini = 0.0\nsamples = 1\nvalue = [0, 2]", fillcolor="#399de5ff"] ;
124 -> 126 ;
127 [label="gini = 0.0\nsamples = 1\nvalue = [0, 2]", fillcolor="#399de5ff"] ;
123 -> 127 ;
128 [label="gini = 0.0\nsamples = 6\nvalue = [11, 0]", fillcolor="#e58139ff"] ;
6 -> 128 ;
129 [label="jennifer <= 0.5\ngini = 0.44\nsamples = 15\nvalue = [16, 8]", fillcolor="#e581397f"] ;
5 -> 129 ;
130 [label="help <= 0.5\ngini = 0.4\nsamples = 14\nvalue = [16, 6]", fillcolor="#e581399f"] ;
129 -> 130 ;
131 [label="christian <= 0.5\ngini = 0.27\nsamples = 12\nvalue = [16, 3]", fillcolor="#e58139cf"] ;
130 -> 131 ;
132 [label="least <= 0.5\ngini = 0.2\nsamples = 11\nvalue = [16, 2]", fillcolor="#e58139df"] ;
131 -> 132 ;
133 [label="sure <= 0.5\ngini = 0.35\nsamples = 6\nvalue = [7, 2]", fillcolor="#e58139b6"] ;
132 -> 133 ;
134 [label="gini = 0.0\nsamples = 5\nvalue = [7, 0]", fillcolor="#e58139ff"] ;
133 -> 134 ;
135 [label="gini = 0.0\nsamples = 1\nvalue = [0, 2]", fillcolor="#399de5ff"] ;
133 -> 135 ;
136 [label="gini = 0.0\nsamples = 5\nvalue = [9, 0]", fillcolor="#e58139ff"] ;
132 -> 136 ;
137 [label="gini = 0.0\nsamples = 1\nvalue = [0, 1]", fillcolor="#399de5ff"] ;
131 -> 137 ;
138 [label="gini = 0.0\nsamples = 2\nvalue = [0, 3]", fillcolor="#399de5ff"] ;
130 -> 138 ;
139 [label="gini = 0.0\nsamples = 1\nvalue = [0, 2]", fillcolor="#399de5ff"] ;
129 -> 139 ;
140 [label="gini = 0.0\nsamples = 4\nvalue = [6, 0]", fillcolor="#e58139ff"] ;
4 -> 140 ;
141 [label="gini = 0.0\nsamples = 3\nvalue = [8, 0]", fillcolor="#e58139ff"] ;
3 -> 141 ;
142 [label="december <= 3.0\ngini = 0.35\nsamples = 16\nvalue = [24, 7]", fillcolor="#e58139b5"] ;
2 -> 142 ;
143 [label="information <= 0.5\ngini = 0.29\nsamples = 15\nvalue = [24, 5]", fillcolor="#e58139ca"] ;
142 -> 143 ;
144 [label="election <= 5.0\ngini = 0.08\nsamples = 12\nvalue = [23, 1]", fillcolor="#e58139f4"] ;
143 -> 144 ;
145 [label="gini = 0.0\nsamples = 11\nvalue = [23, 0]", fillcolor="#e58139ff"] ;
144 -> 145 ;
146 [label="gini = 0.0\nsamples = 1\nvalue = [0, 1]", fillcolor="#399de5ff"] ;
144 -> 146 ;
147 [label="opportunity <= 0.5\ngini = 0.32\nsamples = 3\nvalue = [1, 4]", fillcolor="#399de5bf"] ;
143 -> 147 ;
148 [label="gini = 0.0\nsamples = 2\nvalue = [0, 4]", fillcolor="#399de5ff"] ;
147 -> 148 ;
149 [label="gini = 0.0\nsamples = 1\nvalue = [1, 0]", fillcolor="#e58139ff"] ;
147 -> 149 ;
150 [label="gini = 0.0\nsamples = 1\nvalue = [0, 2]", fillcolor="#399de5ff"] ;
142 -> 150 ;
151 [label="com <= 1.5\ngini = 0.48\nsamples = 333\nvalue = [312, 209]", fillcolor="#e5813954"] ;
1 -> 151 ;
152 [label="facts <= 0.5\ngini = 0.47\nsamples = 321\nvalue = [311, 191]", fillcolor="#e5813962"] ;
151 -> 152 ;
153 [label="washington <= 0.5\ngini = 0.46\nsamples = 305\nvalue = [307, 166]", fillcolor="#e5813975"] ;
152 -> 153 ;
154 [label="interview <= 0.5\ngini = 0.48\nsamples = 225\nvalue = [213, 142]", fillcolor="#e5813955"] ;
153 -> 154 ;
155 [label="corruption <= 0.5\ngini = 0.49\nsamples = 182\nvalue = [158, 126]", fillcolor="#e5813934"] ;
154 -> 155 ;
156 [label="gone <= 1.5\ngini = 0.49\nsamples = 170\nvalue = [156, 110]", fillcolor="#e581394b"] ;
155 -> 156 ;
157 [label="risks <= 0.5\ngini = 0.48\nsamples = 167\nvalue = [156, 102]", fillcolor="#e5813958"] ;
156 -> 157 ;
158 [label="girl <= 0.5\ngini = 0.47\nsamples = 158\nvalue = [154, 91]", fillcolor="#e5813968"] ;
157 -> 158 ;
159 [label="emails <= 0.5\ngini = 0.45\nsamples = 151\nvalue = [151, 81]", fillcolor="#e5813976"] ;
158 -> 159 ;
160 [label="determine <= 0.5\ngini = 0.44\nsamples = 146\nvalue = [150, 72]", fillcolor="#e5813985"] ;
159 -> 160 ;
161 [label="whether <= 0.5\ngini = 0.43\nsamples = 142\nvalue = [149, 67]", fillcolor="#e581398c"] ;
160 -> 161 ;
162 [label="us <= 0.5\ngini = 0.45\nsamples = 124\nvalue = [123, 65]", fillcolor="#e5813978"] ;
161 -> 162 ;
163 [label="usa <= 3.0\ngini = 0.38\nsamples = 84\nvalue = [91, 32]", fillcolor="#e58139a5"] ;
162 -> 163 ;
164 [label="november <= 1.5\ngini = 0.37\nsamples = 83\nvalue = [91, 29]", fillcolor="#e58139ae"] ;
163 -> 164 ;
165 [label="mr <= 1.5\ngini = 0.35\nsamples = 81\nvalue = [91, 26]", fillcolor="#e58139b6"] ;
164 -> 165 ;
166 [label="energy <= 0.5\ngini = 0.46\nsamples = 48\nvalue = [45, 26]", fillcolor="#e581396c"] ;
165 -> 166 ;
167 [label="business <= 0.5\ngini = 0.44\nsamples = 45\nvalue = [45, 22]", fillcolor="#e5813982"] ;
166 -> 167 ;
168 [label="even <= 0.5\ngini = 0.48\nsamples = 38\nvalue = [33, 22]", fillcolor="#e5813955"] ;
167 -> 168 ;
169 [label="bad <= 0.5\ngini = 0.4\nsamples = 25\nvalue = [29, 11]", fillcolor="#e581399e"] ;
168 -> 169 ;
170 [label="unusual <= 0.5\ngini = 0.25\nsamples = 23\nvalue = [29, 5]", fillcolor="#e58139d3"] ;
169 -> 170 ;
171 [label="barriers <= 0.5\ngini = 0.21\nsamples = 22\nvalue = [29, 4]", fillcolor="#e58139dc"] ;
170 -> 171 ;
172 [label="sad <= 0.5\ngini = 0.17\nsamples = 21\nvalue = [29, 3]", fillcolor="#e58139e5"] ;
171 -> 172 ;
173 [label="represent <= 0.5\ngini = 0.12\nsamples = 20\nvalue = [29, 2]", fillcolor="#e58139ed"] ;
172 -> 173 ;
174 [label="says <= 0.5\ngini = 0.06\nsamples = 19\nvalue = [29, 1]", fillcolor="#e58139f6"] ;
173 -> 174 ;
175 [label="tell <= 0.5\ngini = 0.08\nsamples = 16\nvalue = [24, 1]", fillcolor="#e58139f4"] ;
174 -> 175 ;
176 [label="leadership <= 0.5\ngini = 0.09\nsamples = 14\nvalue = [20, 1]", fillcolor="#e58139f2"] ;
175 -> 176 ;
177 [label="iowa <= 0.5\ngini = 0.1\nsamples = 12\nvalue = [18, 1]", fillcolor="#e58139f1"] ;
176 -> 177 ;
178 [label="gini = 0.0\nsamples = 11\nvalue = [18, 0]", fillcolor="#e58139ff"] ;
177 -> 178 ;
179 [label="gini = 0.0\nsamples = 1\nvalue = [0, 1]", fillcolor="#399de5ff"] ;
177 -> 179 ;
180 [label="gini = 0.0\nsamples = 2\nvalue = [2, 0]", fillcolor="#e58139ff"] ;
176 -> 180 ;
181 [label="gini = 0.0\nsamples = 2\nvalue = [4, 0]", fillcolor="#e58139ff"] ;
175 -> 181 ;
182 [label="gini = 0.0\nsamples = 3\nvalue = [5, 0]", fillcolor="#e58139ff"] ;
174 -> 182 ;
183 [label="gini = 0.0\nsamples = 1\nvalue = [0, 1]", fillcolor="#399de5ff"] ;
173 -> 183 ;
184 [label="gini = 0.0\nsamples = 1\nvalue = [0, 1]", fillcolor="#399de5ff"] ;
172 -> 184 ;
185 [label="gini = 0.0\nsamples = 1\nvalue = [0, 1]", fillcolor="#399de5ff"] ;
171 -> 185 ;
186 [label="gini = 0.0\nsamples = 1\nvalue = [0, 1]", fillcolor="#399de5ff"] ;
170 -> 186 ;
187 [label="gini = 0.0\nsamples = 2\nvalue = [0, 6]", fillcolor="#399de5ff"] ;
169 -> 187 ;
188 [label="applying <= 0.5\ngini = 0.39\nsamples = 13\nvalue = [4, 11]", fillcolor="#399de5a2"] ;
168 -> 188 ;
189 [label="streets <= 1.0\ngini = 0.34\nsamples = 12\nvalue = [3, 11]", fillcolor="#399de5b9"] ;
188 -> 189 ;
190 [label="legal <= 0.5\ngini = 0.26\nsamples = 11\nvalue = [2, 11]", fillcolor="#399de5d1"] ;
189 -> 190 ;
191 [label="second <= 1.5\ngini = 0.15\nsamples = 10\nvalue = [1, 11]", fillcolor="#399de5e8"] ;
190 -> 191 ;
192 [label="gini = 0.0\nsamples = 9\nvalue = [0, 11]", fillcolor="#399de5ff"] ;
191 -> 192 ;
193 [label="gini = 0.0\nsamples = 1\nvalue = [1, 0]", fillcolor="#e58139ff"] ;
191 -> 193 ;
194 [label="gini = 0.0\nsamples = 1\nvalue = [1, 0]", fillcolor="#e58139ff"] ;
190 -> 194 ;
195 [label="gini = 0.0\nsamples = 1\nvalue = [1, 0]", fillcolor="#e58139ff"] ;
189 -> 195 ;
196 [label="gini = 0.0\nsamples = 1\nvalue = [1, 0]", fillcolor="#e58139ff"] ;
188 -> 196 ;
197 [label="gini = 0.0\nsamples = 7\nvalue = [12, 0]", fillcolor="#e58139ff"] ;
167 -> 197 ;
198 [label="gini = 0.0\nsamples = 3\nvalue = [0, 4]", fillcolor="#399de5ff"] ;
166 -> 198 ;
199 [label="gini = 0.0\nsamples = 33\nvalue = [46, 0]", fillcolor="#e58139ff"] ;
165 -> 199 ;
200 [label="gini = 0.0\nsamples = 2\nvalue = [0, 3]", fillcolor="#399de5ff"] ;
164 -> 200 ;
201 [label="gini = 0.0\nsamples = 1\nvalue = [0, 3]", fillcolor="#399de5ff"] ;
163 -> 201 ;
202 [label="lunch <= 0.5\ngini = 0.5\nsamples = 40\nvalue = [32, 33]", fillcolor="#399de508"] ;
162 -> 202 ;
203 [label="went <= 0.5\ngini = 0.49\nsamples = 37\nvalue = [24, 33]", fillcolor="#399de546"] ;
202 -> 203 ;
204 [label="might <= 1.5\ngini = 0.43\nsamples = 31\nvalue = [14, 31]", fillcolor="#399de58c"] ;
203 -> 204 ;
205 [label="competition <= 0.5\ngini = 0.39\nsamples = 29\nvalue = [11, 31]", fillcolor="#399de5a5"] ;
204 -> 205 ;
206 [label="fox <= 2.0\ngini = 0.3\nsamples = 26\nvalue = [7, 31]", fillcolor="#399de5c5"] ;
205 -> 206 ;
207 [label="keeping <= 2.0\ngini = 0.24\nsamples = 25\nvalue = [5, 31]", fillcolor="#399de5d6"] ;
206 -> 207 ;
208 [label="margin <= 0.5\ngini = 0.16\nsamples = 24\nvalue = [3, 31]", fillcolor="#399de5e6"] ;
207 -> 208 ;
209 [label="past <= 0.5\ngini = 0.11\nsamples = 23\nvalue = [2, 31]", fillcolor="#399de5ef"] ;
208 -> 209 ;
210 [label="broadcast <= 0.5\ngini = 0.16\nsamples = 16\nvalue = [2, 21]", fillcolor="#399de5e7"] ;
209 -> 210 ;
211 [label="urging <= 0.5\ngini = 0.09\nsamples = 15\nvalue = [1, 21]", fillcolor="#399de5f3"] ;
210 -> 211 ;
212 [label="gini = 0.0\nsamples = 14\nvalue = [0, 21]", fillcolor="#399de5ff"] ;
211 -> 212 ;
213 [label="gini = 0.0\nsamples = 1\nvalue = [1, 0]", fillcolor="#e58139ff"] ;
211 -> 213 ;
214 [label="gini = 0.0\nsamples = 1\nvalue = [1, 0]", fillcolor="#e58139ff"] ;
210 -> 214 ;
215 [label="gini = 0.0\nsamples = 7\nvalue = [0, 10]", fillcolor="#399de5ff"] ;
209 -> 215 ;
216 [label="gini = 0.0\nsamples = 1\nvalue = [1, 0]", fillcolor="#e58139ff"] ;
208 -> 216 ;
217 [label="gini = 0.0\nsamples = 1\nvalue = [2, 0]", fillcolor="#e58139ff"] ;
207 -> 217 ;
218 [label="gini = 0.0\nsamples = 1\nvalue = [2, 0]", fillcolor="#e58139ff"] ;
206 -> 218 ;
219 [label="gini = 0.0\nsamples = 3\nvalue = [4, 0]", fillcolor="#e58139ff"] ;
205 -> 219 ;
220 [label="gini = 0.0\nsamples = 2\nvalue = [3, 0]", fillcolor="#e58139ff"] ;
204 -> 220 ;
221 [label="schools <= 1.0\ngini = 0.28\nsamples = 6\nvalue = [10, 2]", fillcolor="#e58139cc"] ;
203 -> 221 ;
222 [label="gini = 0.0\nsamples = 5\nvalue = [10, 0]", fillcolor="#e58139ff"] ;
221 -> 222 ;
223 [label="gini = 0.0\nsamples = 1\nvalue = [0, 2]", fillcolor="#399de5ff"] ;
221 -> 223 ;
224 [label="gini = 0.0\nsamples = 3\nvalue = [8, 0]", fillcolor="#e58139ff"] ;
202 -> 224 ;
225 [label="missing <= 0.5\ngini = 0.13\nsamples = 18\nvalue = [26, 2]", fillcolor="#e58139eb"] ;
161 -> 225 ;
226 [label="signed <= 0.5\ngini = 0.07\nsamples = 17\nvalue = [26, 1]", fillcolor="#e58139f5"] ;
225 -> 226 ;
227 [label="gini = 0.0\nsamples = 16\nvalue = [26, 0]", fillcolor="#e58139ff"] ;
226 -> 227 ;
228 [label="gini = 0.0\nsamples = 1\nvalue = [0, 1]", fillcolor="#399de5ff"] ;
226 -> 228 ;
229 [label="gini = 0.0\nsamples = 1\nvalue = [0, 1]", fillcolor="#399de5ff"] ;
225 -> 229 ;
230 [label="service <= 0.5\ngini = 0.28\nsamples = 4\nvalue = [1, 5]", fillcolor="#399de5cc"] ;
160 -> 230 ;
231 [label="gini = 0.0\nsamples = 3\nvalue = [0, 5]", fillcolor="#399de5ff"] ;
230 -> 231 ;
232 [label="gini = 0.0\nsamples = 1\nvalue = [1, 0]", fillcolor="#e58139ff"] ;
230 -> 232 ;
233 [label="institute <= 0.5\ngini = 0.18\nsamples = 5\nvalue = [1, 9]", fillcolor="#399de5e3"] ;
159 -> 233 ;
234 [label="gini = 0.0\nsamples = 4\nvalue = [0, 9]", fillcolor="#399de5ff"] ;
233 -> 234 ;
235 [label="gini = 0.0\nsamples = 1\nvalue = [1, 0]", fillcolor="#e58139ff"] ;
233 -> 235 ;
236 [label="impact <= 0.5\ngini = 0.36\nsamples = 7\nvalue = [3, 10]", fillcolor="#399de5b3"] ;
158 -> 236 ;
237 [label="wrote <= 0.5\ngini = 0.28\nsamples = 6\nvalue = [2, 10]", fillcolor="#399de5cc"] ;
236 -> 237 ;
238 [label="gini = 0.0\nsamples = 5\nvalue = [0, 10]", fillcolor="#399de5ff"] ;
237 -> 238 ;
239 [label="gini = 0.0\nsamples = 1\nvalue = [2, 0]", fillcolor="#e58139ff"] ;
237 -> 239 ;
240 [label="gini = 0.0\nsamples = 1\nvalue = [1, 0]", fillcolor="#e58139ff"] ;
236 -> 240 ;
241 [label="benefit <= 0.5\ngini = 0.26\nsamples = 9\nvalue = [2, 11]", fillcolor="#399de5d1"] ;
157 -> 241 ;
242 [label="gini = 0.0\nsamples = 6\nvalue = [0, 10]", fillcolor="#399de5ff"] ;
241 -> 242 ;
243 [label="spend <= 1.0\ngini = 0.44\nsamples = 3\nvalue = [2, 1]", fillcolor="#e581397f"] ;
241 -> 243 ;
244 [label="gini = 0.0\nsamples = 2\nvalue = [2, 0]", fillcolor="#e58139ff"] ;
243 -> 244 ;
245 [label="gini = 0.0\nsamples = 1\nvalue = [0, 1]", fillcolor="#399de5ff"] ;
243 -> 245 ;
246 [label="gini = 0.0\nsamples = 3\nvalue = [0, 8]", fillcolor="#399de5ff"] ;
156 -> 246 ;
247 [label="mr <= 1.5\ngini = 0.2\nsamples = 12\nvalue = [2, 16]", fillcolor="#399de5df"] ;
155 -> 247 ;
248 [label="gini = 0.0\nsamples = 11\nvalue = [0, 16]", fillcolor="#399de5ff"] ;
247 -> 248 ;
249 [label="gini = 0.0\nsamples = 1\nvalue = [2, 0]", fillcolor="#e58139ff"] ;
247 -> 249 ;
250 [label="reason <= 0.5\ngini = 0.35\nsamples = 43\nvalue = [55, 16]", fillcolor="#e58139b5"] ;
154 -> 250 ;
251 [label="homes <= 0.5\ngini = 0.25\nsamples = 36\nvalue = [53, 9]", fillcolor="#e58139d4"] ;
250 -> 251 ;
252 [label="policies <= 1.5\ngini = 0.16\nsamples = 34\nvalue = [52, 5]", fillcolor="#e58139e6"] ;
251 -> 252 ;
253 [label="carefully <= 0.5\ngini = 0.13\nsamples = 32\nvalue = [51, 4]", fillcolor="#e58139eb"] ;
252 -> 253 ;
254 [label="years <= 3.5\ngini = 0.07\nsamples = 31\nvalue = [51, 2]", fillcolor="#e58139f5"] ;
253 -> 254 ;
255 [label="role <= 0.5\ngini = 0.04\nsamples = 26\nvalue = [46, 1]", fillcolor="#e58139f9"] ;
254 -> 255 ;
256 [label="point <= 0.5\ngini = 0.05\nsamples = 21\nvalue = [35, 1]", fillcolor="#e58139f8"] ;
255 -> 256 ;
257 [label="police <= 0.5\ngini = 0.09\nsamples = 15\nvalue = [21, 1]", fillcolor="#e58139f3"] ;
256 -> 257 ;
258 [label="gini = 0.0\nsamples = 10\nvalue = [16, 0]", fillcolor="#e58139ff"] ;
257 -> 258 ;
259 [label="daily <= 0.5\ngini = 0.28\nsamples = 5\nvalue = [5, 1]", fillcolor="#e58139cc"] ;
257 -> 259 ;
260 [label="response <= 0.5\ngini = 0.44\nsamples = 3\nvalue = [2, 1]", fillcolor="#e581397f"] ;
259 -> 260 ;
261 [label="gini = 0.0\nsamples = 1\nvalue = [0, 1]", fillcolor="#399de5ff"] ;
260 -> 261 ;
262 [label="gini = 0.0\nsamples = 2\nvalue = [2, 0]", fillcolor="#e58139ff"] ;
260 -> 262 ;
263 [label="gini = 0.0\nsamples = 2\nvalue = [3, 0]", fillcolor="#e58139ff"] ;
259 -> 263 ;
264 [label="gini = 0.0\nsamples = 6\nvalue = [14, 0]", fillcolor="#e58139ff"] ;
256 -> 264 ;
265 [label="gini = 0.0\nsamples = 5\nvalue = [11, 0]", fillcolor="#e58139ff"] ;
255 -> 265 ;
266 [label="fat <= 0.5\ngini = 0.28\nsamples = 5\nvalue = [5, 1]", fillcolor="#e58139cc"] ;
254 -> 266 ;
267 [label="gini = 0.0\nsamples = 4\nvalue = [5, 0]", fillcolor="#e58139ff"] ;
266 -> 267 ;
268 [label="gini = 0.0\nsamples = 1\nvalue = [0, 1]", fillcolor="#399de5ff"] ;
266 -> 268 ;
269 [label="gini = 0.0\nsamples = 1\nvalue = [0, 2]", fillcolor="#399de5ff"] ;
253 -> 269 ;
270 [label="absolutely <= 0.5\ngini = 0.5\nsamples = 2\nvalue = [1, 1]", fillcolor="#e5813900"] ;
252 -> 270 ;
271 [label="gini = 0.0\nsamples = 1\nvalue = [0, 1]", fillcolor="#399de5ff"] ;
270 -> 271 ;
272 [label="gini = 0.0\nsamples = 1\nvalue = [1, 0]", fillcolor="#e58139ff"] ;
270 -> 272 ;
273 [label="probably <= 0.5\ngini = 0.32\nsamples = 2\nvalue = [1, 4]", fillcolor="#399de5bf"] ;
251 -> 273 ;
274 [label="gini = 0.0\nsamples = 1\nvalue = [1, 0]", fillcolor="#e58139ff"] ;
273 -> 274 ;
275 [label="gini = 0.0\nsamples = 1\nvalue = [0, 4]", fillcolor="#399de5ff"] ;
273 -> 275 ;
276 [label="largely <= 2.0\ngini = 0.35\nsamples = 7\nvalue = [2, 7]", fillcolor="#399de5b6"] ;
250 -> 276 ;
277 [label="states <= 0.5\ngini = 0.22\nsamples = 6\nvalue = [1, 7]", fillcolor="#399de5db"] ;
276 -> 277 ;
278 [label="gini = 0.0\nsamples = 1\nvalue = [1, 0]", fillcolor="#e58139ff"] ;
277 -> 278 ;
279 [label="gini = 0.0\nsamples = 5\nvalue = [0, 7]", fillcolor="#399de5ff"] ;
277 -> 279 ;
280 [label="gini = 0.0\nsamples = 1\nvalue = [1, 0]", fillcolor="#e58139ff"] ;
276 -> 280 ;
281 [label="ask <= 3.5\ngini = 0.32\nsamples = 80\nvalue = [94, 24]", fillcolor="#e58139be"] ;
153 -> 281 ;
282 [label="threw <= 0.5\ngini = 0.3\nsamples = 79\nvalue = [94, 21]", fillcolor="#e58139c6"] ;
281 -> 282 ;
283 [label="iraq <= 2.5\ngini = 0.26\nsamples = 74\nvalue = [92, 17]", fillcolor="#e58139d0"] ;
282 -> 283 ;
284 [label="properties <= 0.5\ngini = 0.24\nsamples = 73\nvalue = [92, 15]", fillcolor="#e58139d5"] ;
283 -> 284 ;
285 [label="newspapers <= 0.5\ngini = 0.22\nsamples = 71\nvalue = [92, 13]", fillcolor="#e58139db"] ;
284 -> 285 ;
286 [label="latest <= 1.5\ngini = 0.19\nsamples = 70\nvalue = [92, 11]", fillcolor="#e58139e1"] ;
285 -> 286 ;
287 [label="abedin <= 0.5\ngini = 0.18\nsamples = 69\nvalue = [92, 10]", fillcolor="#e58139e3"] ;
286 -> 287 ;
288 [label="fact <= 3.5\ngini = 0.15\nsamples = 66\nvalue = [91, 8]", fillcolor="#e58139e9"] ;
287 -> 288 ;
289 [label="performed <= 0.5\ngini = 0.13\nsamples = 65\nvalue = [91, 7]", fillcolor="#e58139eb"] ;
288 -> 289 ;
290 [label="saudis <= 0.5\ngini = 0.08\nsamples = 62\nvalue = [88, 4]", fillcolor="#e58139f3"] ;
289 -> 290 ;
291 [label="woman <= 2.5\ngini = 0.06\nsamples = 61\nvalue = [88, 3]", fillcolor="#e58139f6"] ;
290 -> 291 ;
292 [label="road <= 0.5\ngini = 0.04\nsamples = 58\nvalue = [86, 2]", fillcolor="#e58139f9"] ;
291 -> 292 ;
293 [label="make <= 0.5\ngini = 0.02\nsamples = 55\nvalue = [84, 1]", fillcolor="#e58139fc"] ;
292 -> 293 ;
294 [label="made <= 0.5\ngini = 0.04\nsamples = 31\nvalue = [45, 1]", fillcolor="#e58139f9"] ;
293 -> 294 ;
295 [label="former <= 0.5\ngini = 0.09\nsamples = 15\nvalue = [20, 1]", fillcolor="#e58139f2"] ;
294 -> 295 ;
296 [label="obama <= 0.5\ngini = 0.22\nsamples = 8\nvalue = [7, 1]", fillcolor="#e58139db"] ;
295 -> 296 ;
297 [label="florida <= 0.5\ngini = 0.38\nsamples = 4\nvalue = [3, 1]", fillcolor="#e58139aa"] ;
296 -> 297 ;
298 [label="gini = 0.0\nsamples = 3\nvalue = [3, 0]", fillcolor="#e58139ff"] ;
297 -> 298 ;
299 [label="gini = 0.0\nsamples = 1\nvalue = [0, 1]", fillcolor="#399de5ff"] ;
297 -> 299 ;
300 [label="gini = 0.0\nsamples = 4\nvalue = [4, 0]", fillcolor="#e58139ff"] ;
296 -> 300 ;
301 [label="gini = 0.0\nsamples = 7\nvalue = [13, 0]", fillcolor="#e58139ff"] ;
295 -> 301 ;
302 [label="gini = 0.0\nsamples = 16\nvalue = [25, 0]", fillcolor="#e58139ff"] ;
294 -> 302 ;
303 [label="gini = 0.0\nsamples = 24\nvalue = [39, 0]", fillcolor="#e58139ff"] ;
293 -> 303 ;
304 [label="existence <= 0.5\ngini = 0.44\nsamples = 3\nvalue = [2, 1]", fillcolor="#e581397f"] ;
292 -> 304 ;
305 [label="gini = 0.0\nsamples = 2\nvalue = [2, 0]", fillcolor="#e58139ff"] ;
304 -> 305 ;
306 [label="gini = 0.0\nsamples = 1\nvalue = [0, 1]", fillcolor="#399de5ff"] ;
304 -> 306 ;
307 [label="various <= 0.5\ngini = 0.44\nsamples = 3\nvalue = [2, 1]", fillcolor="#e581397f"] ;
291 -> 307 ;
308 [label="gini = 0.0\nsamples = 2\nvalue = [2, 0]", fillcolor="#e58139ff"] ;
307 -> 308 ;
309 [label="gini = 0.0\nsamples = 1\nvalue = [0, 1]", fillcolor="#399de5ff"] ;
307 -> 309 ;
310 [label="gini = 0.0\nsamples = 1\nvalue = [0, 1]", fillcolor="#399de5ff"] ;
290 -> 310 ;
311 [label="others <= 1.0\ngini = 0.5\nsamples = 3\nvalue = [3, 3]", fillcolor="#e5813900"] ;
289 -> 311 ;
312 [label="gini = 0.0\nsamples = 2\nvalue = [0, 3]", fillcolor="#399de5ff"] ;
311 -> 312 ;
313 [label="gini = 0.0\nsamples = 1\nvalue = [3, 0]", fillcolor="#e58139ff"] ;
311 -> 313 ;
314 [label="gini = 0.0\nsamples = 1\nvalue = [0, 1]", fillcolor="#399de5ff"] ;
288 -> 314 ;
315 [label="discussing <= 0.5\ngini = 0.44\nsamples = 3\nvalue = [1, 2]", fillcolor="#399de57f"] ;
287 -> 315 ;
316 [label="gini = 0.0\nsamples = 2\nvalue = [0, 2]", fillcolor="#399de5ff"] ;
315 -> 316 ;
317 [label="gini = 0.0\nsamples = 1\nvalue = [1, 0]", fillcolor="#e58139ff"] ;
315 -> 317 ;
318 [label="gini = 0.0\nsamples = 1\nvalue = [0, 1]", fillcolor="#399de5ff"] ;
286 -> 318 ;
319 [label="gini = 0.0\nsamples = 1\nvalue = [0, 2]", fillcolor="#399de5ff"] ;
285 -> 319 ;
320 [label="gini = 0.0\nsamples = 2\nvalue = [0, 2]", fillcolor="#399de5ff"] ;
284 -> 320 ;
321 [label="gini = 0.0\nsamples = 1\nvalue = [0, 2]", fillcolor="#399de5ff"] ;
283 -> 321 ;
322 [label="cloud <= 0.5\ngini = 0.44\nsamples = 5\nvalue = [2, 4]", fillcolor="#399de57f"] ;
282 -> 322 ;
323 [label="across <= 1.0\ngini = 0.32\nsamples = 4\nvalue = [1, 4]", fillcolor="#399de5bf"] ;
322 -> 323 ;
324 [label="gini = 0.0\nsamples = 3\nvalue = [0, 4]", fillcolor="#399de5ff"] ;
323 -> 324 ;
325 [label="gini = 0.0\nsamples = 1\nvalue = [1, 0]", fillcolor="#e58139ff"] ;
323 -> 325 ;
326 [label="gini = 0.0\nsamples = 1\nvalue = [1, 0]", fillcolor="#e58139ff"] ;
322 -> 326 ;
327 [label="gini = 0.0\nsamples = 1\nvalue = [0, 3]", fillcolor="#399de5ff"] ;
281 -> 327 ;
328 [label="testimony <= 0.5\ngini = 0.24\nsamples = 16\nvalue = [4, 25]", fillcolor="#399de5d6"] ;
152 -> 328 ;
329 [label="gini = 0.0\nsamples = 14\nvalue = [0, 25]", fillcolor="#399de5ff"] ;
328 -> 329 ;
330 [label="gini = 0.0\nsamples = 2\nvalue = [4, 0]", fillcolor="#e58139ff"] ;
328 -> 330 ;
331 [label="research <= 3.0\ngini = 0.1\nsamples = 12\nvalue = [1, 18]", fillcolor="#399de5f1"] ;
151 -> 331 ;
332 [label="gini = 0.0\nsamples = 11\nvalue = [0, 18]", fillcolor="#399de5ff"] ;
331 -> 332 ;
333 [label="gini = 0.0\nsamples = 1\nvalue = [1, 0]", fillcolor="#e58139ff"] ;
331 -> 333 ;
334 [label="worker <= 0.5\ngini = 0.17\nsamples = 25\nvalue = [39, 4]", fillcolor="#e58139e5"] ;
0 -> 334 [labeldistance=2.5, labelangle=-45, headlabel="False"] ;
335 [label="status <= 0.5\ngini = 0.09\nsamples = 24\nvalue = [39, 2]", fillcolor="#e58139f2"] ;
334 -> 335 ;
336 [label="states <= 0.5\ngini = 0.05\nsamples = 22\nvalue = [37, 1]", fillcolor="#e58139f8"] ;
335 -> 336 ;
337 [label="son <= 3.5\ngini = 0.09\nsamples = 13\nvalue = [20, 1]", fillcolor="#e58139f2"] ;
336 -> 337 ;
338 [label="gini = 0.0\nsamples = 12\nvalue = [20, 0]", fillcolor="#e58139ff"] ;
337 -> 338 ;
339 [label="gini = 0.0\nsamples = 1\nvalue = [0, 1]", fillcolor="#399de5ff"] ;
337 -> 339 ;
340 [label="gini = 0.0\nsamples = 9\nvalue = [17, 0]", fillcolor="#e58139ff"] ;
336 -> 340 ;
341 [label="football <= 0.5\ngini = 0.44\nsamples = 2\nvalue = [2, 1]", fillcolor="#e581397f"] ;
335 -> 341 ;
342 [label="gini = 0.0\nsamples = 1\nvalue = [0, 1]", fillcolor="#399de5ff"] ;
341 -> 342 ;
343 [label="gini = 0.0\nsamples = 1\nvalue = [2, 0]", fillcolor="#e58139ff"] ;
341 -> 343 ;
344 [label="gini = 0.0\nsamples = 1\nvalue = [0, 2]", fillcolor="#399de5ff"] ;
334 -> 344 ;
}