digraph Tree {
node [shape=box, style="filled, rounded", color="black", fontname=helvetica] ;
edge [fontname=helvetica] ;
0 [label="last <= 1.5\ngini = 0.38\nsamples = 655\nvalue = [746, 254]", fillcolor="#e58139a8"] ;
1 [label="source <= 0.5\ngini = 0.42\nsamples = 509\nvalue = [537, 229]", fillcolor="#e5813992"] ;
0 -> 1 [labeldistance=2.5, labelangle=45, headlabel="True"] ;
2 [label="back <= 0.5\ngini = 0.4\nsamples = 478\nvalue = [521, 194]", fillcolor="#e58139a0"] ;
1 -> 2 ;
3 [label="five <= 0.5\ngini = 0.43\nsamples = 335\nvalue = [348, 158]", fillcolor="#e581398b"] ;
2 -> 3 ;
4 [label="free <= 0.5\ngini = 0.45\nsamples = 301\nvalue = [297, 154]", fillcolor="#e581397b"] ;
3 -> 4 ;
5 [label="rate <= 0.5\ngini = 0.43\nsamples = 272\nvalue = [279, 129]", fillcolor="#e5813989"] ;
4 -> 5 ;
6 [label="lesser <= 0.5\ngini = 0.45\nsamples = 259\nvalue = [257, 129]", fillcolor="#e581397f"] ;
5 -> 6 ;
7 [label="case <= 1.5\ngini = 0.44\nsamples = 255\nvalue = [257, 124]", fillcolor="#e5813984"] ;
6 -> 7 ;
8 [label="follow <= 0.5\ngini = 0.43\nsamples = 246\nvalue = [251, 112]", fillcolor="#e581398d"] ;
7 -> 8 ;
9 [label="al <= 0.5\ngini = 0.48\nsamples = 169\nvalue = [141, 99]", fillcolor="#e581394c"] ;
8 -> 9 ;
10 [label="religion <= 0.5\ngini = 0.47\nsamples = 161\nvalue = [140, 87]", fillcolor="#e5813961"] ;
9 -> 10 ;
11 [label="used <= 0.5\ngini = 0.47\nsamples = 158\nvalue = [140, 82]", fillcolor="#e581396a"] ;
10 -> 11 ;
12 [label="united <= 0.5\ngini = 0.48\nsamples = 139\nvalue = [113, 79]", fillcolor="#e581394d"] ;
11 -> 12 ;
13 [label="reporters <= 0.5\ngini = 0.5\nsamples = 112\nvalue = [81, 73]", fillcolor="#e5813919"] ;
12 -> 13 ;
14 [label="asked <= 0.5\ngini = 0.5\nsamples = 106\nvalue = [72, 72]", fillcolor="#e5813900"] ;
13 -> 14 ;
15 [label="nature <= 0.5\ngini = 0.5\nsamples = 92\nvalue = [58, 70]", fillcolor="#399de52c"] ;
14 -> 15 ;
16 [label="according <= 0.5\ngini = 0.49\nsamples = 87\nvalue = [53, 70]", fillcolor="#399de53e"] ;
15 -> 16 ;
17 [label="one <= 0.5\ngini = 0.45\nsamples = 69\nvalue = [34, 64]", fillcolor="#399de578"] ;
16 -> 17 ;
18 [label="see <= 0.5\ngini = 0.38\nsamples = 45\nvalue = [17, 51]", fillcolor="#399de5aa"] ;
17 -> 18 ;
19 [label="critical <= 0.5\ngini = 0.3\nsamples = 41\nvalue = [11, 50]", fillcolor="#399de5c7"] ;
18 -> 19 ;
20 [label="washington <= 0.5\ngini = 0.26\nsamples = 39\nvalue = [9, 50]", fillcolor="#399de5d1"] ;
19 -> 20 ;
21 [label="breitbart <= 1.0\ngini = 0.19\nsamples = 36\nvalue = [6, 49]", fillcolor="#399de5e0"] ;
20 -> 21 ;
22 [label="george <= 0.5\ngini = 0.17\nsamples = 35\nvalue = [5, 49]", fillcolor="#399de5e5"] ;
21 -> 22 ;
23 [label="still <= 0.5\ngini = 0.11\nsamples = 33\nvalue = [3, 48]", fillcolor="#399de5ef"] ;
22 -> 23 ;
24 [label="donald <= 0.5\ngini = 0.12\nsamples = 30\nvalue = [3, 42]", fillcolor="#399de5ed"] ;
23 -> 24 ;
25 [label="get <= 0.5\ngini = 0.16\nsamples = 26\nvalue = [3, 32]", fillcolor="#399de5e7"] ;
24 -> 25 ;
26 [label="crisis <= 0.5\ngini = 0.17\nsamples = 23\nvalue = [3, 29]", fillcolor="#399de5e5"] ;
25 -> 26 ;
27 [label="prosecutor <= 0.5\ngini = 0.18\nsamples = 21\nvalue = [3, 27]", fillcolor="#399de5e3"] ;
26 -> 27 ;
28 [label="extra <= 0.5\ngini = 0.13\nsamples = 20\nvalue = [2, 27]", fillcolor="#399de5ec"] ;
27 -> 28 ;
29 [label="part <= 0.5\ngini = 0.13\nsamples = 19\nvalue = [2, 26]", fillcolor="#399de5eb"] ;
28 -> 29 ;
30 [label="new <= 0.5\ngini = 0.07\nsamples = 18\nvalue = [1, 26]", fillcolor="#399de5f5"] ;
29 -> 30 ;
31 [label="paying <= 0.5\ngini = 0.08\nsamples = 16\nvalue = [1, 23]", fillcolor="#399de5f4"] ;
30 -> 31 ;
32 [label="controls <= 0.5\ngini = 0.08\nsamples = 15\nvalue = [1, 22]", fillcolor="#399de5f3"] ;
31 -> 32 ;
33 [label="gini = 0.0\nsamples = 14\nvalue = [0, 22]", fillcolor="#399de5ff"] ;
32 -> 33 ;
34 [label="gini = 0.0\nsamples = 1\nvalue = [1, 0]", fillcolor="#e58139ff"] ;
32 -> 34 ;
35 [label="gini = 0.0\nsamples = 1\nvalue = [0, 1]", fillcolor="#399de5ff"] ;
31 -> 35 ;
36 [label="gini = 0.0\nsamples = 2\nvalue = [0, 3]", fillcolor="#399de5ff"] ;
30 -> 36 ;
37 [label="gini = 0.0\nsamples = 1\nvalue = [1, 0]", fillcolor="#e58139ff"] ;
29 -> 37 ;
38 [label="gini = 0.0\nsamples = 1\nvalue = [0, 1]", fillcolor="#399de5ff"] ;
28 -> 38 ;
39 [label="gini = 0.0\nsamples = 1\nvalue = [1, 0]", fillcolor="#e58139ff"] ;
27 -> 39 ;
40 [label="gini = 0.0\nsamples = 2\nvalue = [0, 2]", fillcolor="#399de5ff"] ;
26 -> 40 ;
41 [label="gini = 0.0\nsamples = 3\nvalue = [0, 3]", fillcolor="#399de5ff"] ;
25 -> 41 ;
42 [label="gini = 0.0\nsamples = 4\nvalue = [0, 10]", fillcolor="#399de5ff"] ;
24 -> 42 ;
43 [label="gini = 0.0\nsamples = 3\nvalue = [0, 6]", fillcolor="#399de5ff"] ;
23 -> 43 ;
44 [label="war <= 0.5\ngini = 0.44\nsamples = 2\nvalue = [2, 1]", fillcolor="#e581397f"] ;
22 -> 44 ;
45 [label="gini = 0.0\nsamples = 1\nvalue = [2, 0]", fillcolor="#e58139ff"] ;
44 -> 45 ;
46 [label="gini = 0.0\nsamples = 1\nvalue = [0, 1]", fillcolor="#399de5ff"] ;
44 -> 46 ;
47 [label="gini = 0.0\nsamples = 1\nvalue = [1, 0]", fillcolor="#e58139ff"] ;
21 -> 47 ;
48 [label="neo <= 0.5\ngini = 0.38\nsamples = 3\nvalue = [3, 1]", fillcolor="#e58139aa"] ;
20 -> 48 ;
49 [label="gini = 0.0\nsamples = 2\nvalue = [3, 0]", fillcolor="#e58139ff"] ;
48 -> 49 ;
50 [label="gini = 0.0\nsamples = 1\nvalue = [0, 1]", fillcolor="#399de5ff"] ;
48 -> 50 ;
51 [label="gini = 0.0\nsamples = 2\nvalue = [2, 0]", fillcolor="#e58139ff"] ;
19 -> 51 ;
52 [label="trump <= 4.5\ngini = 0.24\nsamples = 4\nvalue = [6, 1]", fillcolor="#e58139d4"] ;
18 -> 52 ;
53 [label="gini = 0.0\nsamples = 3\nvalue = [6, 0]", fillcolor="#e58139ff"] ;
52 -> 53 ;
54 [label="gini = 0.0\nsamples = 1\nvalue = [0, 1]", fillcolor="#399de5ff"] ;
52 -> 54 ;
55 [label="wall <= 0.5\ngini = 0.49\nsamples = 24\nvalue = [17, 13]", fillcolor="#e581393c"] ;
17 -> 55 ;
56 [label="running <= 0.5\ngini = 0.5\nsamples = 20\nvalue = [12, 13]", fillcolor="#399de514"] ;
55 -> 56 ;
57 [label="time <= 2.5\ngini = 0.47\nsamples = 17\nvalue = [8, 13]", fillcolor="#399de562"] ;
56 -> 57 ;
58 [label="seems <= 0.5\ngini = 0.43\nsamples = 15\nvalue = [6, 13]", fillcolor="#399de589"] ;
57 -> 58 ;
59 [label="friend <= 0.5\ngini = 0.36\nsamples = 14\nvalue = [4, 13]", fillcolor="#399de5b1"] ;
58 -> 59 ;
60 [label="political <= 1.0\ngini = 0.23\nsamples = 13\nvalue = [2, 13]", fillcolor="#399de5d8"] ;
59 -> 60 ;
61 [label="york <= 1.0\ngini = 0.13\nsamples = 12\nvalue = [1, 13]", fillcolor="#399de5eb"] ;
60 -> 61 ;
62 [label="gini = 0.0\nsamples = 11\nvalue = [0, 13]", fillcolor="#399de5ff"] ;
61 -> 62 ;
63 [label="gini = 0.0\nsamples = 1\nvalue = [1, 0]", fillcolor="#e58139ff"] ;
61 -> 63 ;
64 [label="gini = 0.0\nsamples = 1\nvalue = [1, 0]", fillcolor="#e58139ff"] ;
60 -> 64 ;
65 [label="gini = 0.0\nsamples = 1\nvalue = [2, 0]", fillcolor="#e58139ff"] ;
59 -> 65 ;
66 [label="gini = 0.0\nsamples = 1\nvalue = [2, 0]", fillcolor="#e58139ff"] ;
58 -> 66 ;
67 [label="gini = 0.0\nsamples = 2\nvalue = [2, 0]", fillcolor="#e58139ff"] ;
57 -> 67 ;
68 [label="gini = 0.0\nsamples = 3\nvalue = [4, 0]", fillcolor="#e58139ff"] ;
56 -> 68 ;
69 [label="gini = 0.0\nsamples = 4\nvalue = [5, 0]", fillcolor="#e58139ff"] ;
55 -> 69 ;
70 [label="old <= 0.5\ngini = 0.36\nsamples = 18\nvalue = [19, 6]", fillcolor="#e58139ae"] ;
16 -> 70 ;
71 [label="opposing <= 0.5\ngini = 0.24\nsamples = 15\nvalue = [19, 3]", fillcolor="#e58139d7"] ;
70 -> 71 ;
72 [label="west <= 0.5\ngini = 0.17\nsamples = 14\nvalue = [19, 2]", fillcolor="#e58139e4"] ;
71 -> 72 ;
73 [label="first <= 1.5\ngini = 0.21\nsamples = 11\nvalue = [15, 2]", fillcolor="#e58139dd"] ;
72 -> 73 ;
74 [label="simultaneously <= 0.5\ngini = 0.12\nsamples = 10\nvalue = [15, 1]", fillcolor="#e58139ee"] ;
73 -> 74 ;
75 [label="gini = 0.0\nsamples = 9\nvalue = [15, 0]", fillcolor="#e58139ff"] ;
74 -> 75 ;
76 [label="gini = 0.0\nsamples = 1\nvalue = [0, 1]", fillcolor="#399de5ff"] ;
74 -> 76 ;
77 [label="gini = 0.0\nsamples = 1\nvalue = [0, 1]", fillcolor="#399de5ff"] ;
73 -> 77 ;
78 [label="gini = 0.0\nsamples = 3\nvalue = [4, 0]", fillcolor="#e58139ff"] ;
72 -> 78 ;
79 [label="gini = 0.0\nsamples = 1\nvalue = [0, 1]", fillcolor="#399de5ff"] ;
71 -> 79 ;
80 [label="gini = 0.0\nsamples = 3\nvalue = [0, 3]", fillcolor="#399de5ff"] ;
70 -> 80 ;
81 [label="gini = 0.0\nsamples = 5\nvalue = [5, 0]", fillcolor="#e58139ff"] ;
15 -> 81 ;
82 [label="center <= 0.5\ngini = 0.22\nsamples = 14\nvalue = [14, 2]", fillcolor="#e58139db"] ;
14 -> 82 ;
83 [label="flip <= 0.5\ngini = 0.14\nsamples = 11\nvalue = [12, 1]", fillcolor="#e58139ea"] ;
82 -> 83 ;
84 [label="gini = 0.0\nsamples = 10\nvalue = [12, 0]", fillcolor="#e58139ff"] ;
83 -> 84 ;
85 [label="gini = 0.0\nsamples = 1\nvalue = [0, 1]", fillcolor="#399de5ff"] ;
83 -> 85 ;
86 [label="woman <= 0.5\ngini = 0.44\nsamples = 3\nvalue = [2, 1]", fillcolor="#e581397f"] ;
82 -> 86 ;
87 [label="gini = 0.0\nsamples = 2\nvalue = [2, 0]", fillcolor="#e58139ff"] ;
86 -> 87 ;
88 [label="gini = 0.0\nsamples = 1\nvalue = [0, 1]", fillcolor="#399de5ff"] ;
86 -> 88 ;
89 [label="collection <= 0.5\ngini = 0.18\nsamples = 6\nvalue = [9, 1]", fillcolor="#e58139e3"] ;
13 -> 89 ;
90 [label="gini = 0.0\nsamples = 5\nvalue = [9, 0]", fillcolor="#e58139ff"] ;
89 -> 90 ;
91 [label="gini = 0.0\nsamples = 1\nvalue = [0, 1]", fillcolor="#399de5ff"] ;
89 -> 91 ;
92 [label="patrol <= 0.5\ngini = 0.27\nsamples = 27\nvalue = [32, 6]", fillcolor="#e58139cf"] ;
12 -> 92 ;
93 [label="season <= 0.5\ngini = 0.2\nsamples = 26\nvalue = [32, 4]", fillcolor="#e58139df"] ;
92 -> 93 ;
94 [label="explained <= 0.5\ngini = 0.16\nsamples = 25\nvalue = [32, 3]", fillcolor="#e58139e7"] ;
93 -> 94 ;
95 [label="get <= 3.5\ngini = 0.11\nsamples = 23\nvalue = [31, 2]", fillcolor="#e58139ef"] ;
94 -> 95 ;
96 [label="luck <= 0.5\ngini = 0.06\nsamples = 22\nvalue = [31, 1]", fillcolor="#e58139f7"] ;
95 -> 96 ;
97 [label="gini = 0.0\nsamples = 21\nvalue = [31, 0]", fillcolor="#e58139ff"] ;
96 -> 97 ;
98 [label="gini = 0.0\nsamples = 1\nvalue = [0, 1]", fillcolor="#399de5ff"] ;
96 -> 98 ;
99 [label="gini = 0.0\nsamples = 1\nvalue = [0, 1]", fillcolor="#399de5ff"] ;
95 -> 99 ;
100 [label="owns <= 0.5\ngini = 0.5\nsamples = 2\nvalue = [1, 1]", fillcolor="#e5813900"] ;
94 -> 100 ;
101 [label="gini = 0.0\nsamples = 1\nvalue = [1, 0]", fillcolor="#e58139ff"] ;
100 -> 101 ;
102 [label="gini = 0.0\nsamples = 1\nvalue = [0, 1]", fillcolor="#399de5ff"] ;
100 -> 102 ;
103 [label="gini = 0.0\nsamples = 1\nvalue = [0, 1]", fillcolor="#399de5ff"] ;
93 -> 103 ;
104 [label="gini = 0.0\nsamples = 1\nvalue = [0, 2]", fillcolor="#399de5ff"] ;
92 -> 104 ;
105 [label="economy <= 0.5\ngini = 0.18\nsamples = 19\nvalue = [27, 3]", fillcolor="#e58139e3"] ;
11 -> 105 ;
106 [label="rick <= 0.5\ngini = 0.13\nsamples = 18\nvalue = [27, 2]", fillcolor="#e58139ec"] ;
105 -> 106 ;
107 [label="addresses <= 0.5\ngini = 0.07\nsamples = 17\nvalue = [27, 1]", fillcolor="#e58139f6"] ;
106 -> 107 ;
108 [label="gini = 0.0\nsamples = 16\nvalue = [27, 0]", fillcolor="#e58139ff"] ;
107 -> 108 ;
109 [label="gini = 0.0\nsamples = 1\nvalue = [0, 1]", fillcolor="#399de5ff"] ;
107 -> 109 ;
110 [label="gini = 0.0\nsamples = 1\nvalue = [0, 1]", fillcolor="#399de5ff"] ;
106 -> 110 ;
111 [label="gini = 0.0\nsamples = 1\nvalue = [0, 1]", fillcolor="#399de5ff"] ;
105 -> 111 ;
112 [label="gini = 0.0\nsamples = 3\nvalue = [0, 5]", fillcolor="#399de5ff"] ;
10 -> 112 ;
113 [label="dismissed <= 0.5\ngini = 0.14\nsamples = 8\nvalue = [1, 12]", fillcolor="#399de5ea"] ;
9 -> 113 ;
114 [label="gini = 0.0\nsamples = 7\nvalue = [0, 12]", fillcolor="#399de5ff"] ;
113 -> 114 ;
115 [label="gini = 0.0\nsamples = 1\nvalue = [1, 0]", fillcolor="#e58139ff"] ;
113 -> 115 ;
116 [label="association <= 0.5\ngini = 0.19\nsamples = 77\nvalue = [110, 13]", fillcolor="#e58139e1"] ;
8 -> 116 ;
117 [label="ron <= 1.0\ngini = 0.15\nsamples = 76\nvalue = [110, 10]", fillcolor="#e58139e8"] ;
116 -> 117 ;
118 [label="name <= 3.5\ngini = 0.11\nsamples = 75\nvalue = [110, 7]", fillcolor="#e58139ef"] ;
117 -> 118 ;
119 [label="way <= 1.5\ngini = 0.08\nsamples = 74\nvalue = [110, 5]", fillcolor="#e58139f3"] ;
118 -> 119 ;
120 [label="eye <= 1.5\ngini = 0.04\nsamples = 70\nvalue = [108, 2]", fillcolor="#e58139fa"] ;
119 -> 120 ;
121 [label="felt <= 0.5\ngini = 0.02\nsamples = 69\nvalue = [108, 1]", fillcolor="#e58139fd"] ;
120 -> 121 ;
122 [label="gini = 0.0\nsamples = 68\nvalue = [108, 0]", fillcolor="#e58139ff"] ;
121 -> 122 ;
123 [label="gini = 0.0\nsamples = 1\nvalue = [0, 1]", fillcolor="#399de5ff"] ;
121 -> 123 ;
124 [label="gini = 0.0\nsamples = 1\nvalue = [0, 1]", fillcolor="#399de5ff"] ;
120 -> 124 ;
125 [label="even <= 0.5\ngini = 0.48\nsamples = 4\nvalue = [2, 3]", fillcolor="#399de555"] ;
119 -> 125 ;
126 [label="gini = 0.0\nsamples = 2\nvalue = [2, 0]", fillcolor="#e58139ff"] ;
125 -> 126 ;
127 [label="gini = 0.0\nsamples = 2\nvalue = [0, 3]", fillcolor="#399de5ff"] ;
125 -> 127 ;
128 [label="gini = 0.0\nsamples = 1\nvalue = [0, 2]", fillcolor="#399de5ff"] ;
118 -> 128 ;
129 [label="gini = 0.0\nsamples = 1\nvalue = [0, 3]", fillcolor="#399de5ff"] ;
117 -> 129 ;
130 [label="gini = 0.0\nsamples = 1\nvalue = [0, 3]", fillcolor="#399de5ff"] ;
116 -> 130 ;
131 [label="filed <= 0.5\ngini = 0.44\nsamples = 9\nvalue = [6, 12]", fillcolor="#399de57f"] ;
7 -> 131 ;
132 [label="month <= 0.5\ngini = 0.14\nsamples = 7\nvalue = [1, 12]", fillcolor="#399de5ea"] ;
131 -> 132 ;
133 [label="gini = 0.0\nsamples = 6\nvalue = [0, 12]", fillcolor="#399de5ff"] ;
132 -> 133 ;
134 [label="gini = 0.0\nsamples = 1\nvalue = [1, 0]", fillcolor="#e58139ff"] ;
132 -> 134 ;
135 [label="gini = 0.0\nsamples = 2\nvalue = [5, 0]", fillcolor="#e58139ff"] ;
131 -> 135 ;
136 [label="gini = 0.0\nsamples = 4\nvalue = [0, 5]", fillcolor="#399de5ff"] ;
6 -> 136 ;
137 [label="gini = 0.0\nsamples = 13\nvalue = [22, 0]", fillcolor="#e58139ff"] ;
5 -> 137 ;
138 [label="time <= 0.5\ngini = 0.49\nsamples = 29\nvalue = [18, 25]", fillcolor="#399de547"] ;
4 -> 138 ;
139 [label="victory <= 1.0\ngini = 0.48\nsamples = 14\nvalue = [13, 9]", fillcolor="#e581394e"] ;
138 -> 139 ;
140 [label="canada <= 0.5\ngini = 0.4\nsamples = 13\nvalue = [13, 5]", fillcolor="#e581399d"] ;
139 -> 140 ;
141 [label="facebook <= 0.5\ngini = 0.3\nsamples = 12\nvalue = [13, 3]", fillcolor="#e58139c4"] ;
140 -> 141 ;
142 [label="republican <= 0.5\ngini = 0.24\nsamples = 10\nvalue = [12, 2]", fillcolor="#e58139d4"] ;
141 -> 142 ;
143 [label="help <= 0.5\ngini = 0.14\nsamples = 9\nvalue = [12, 1]", fillcolor="#e58139ea"] ;
142 -> 143 ;
144 [label="last <= 0.5\ngini = 0.18\nsamples = 7\nvalue = [9, 1]", fillcolor="#e58139e3"] ;
143 -> 144 ;
145 [label="fact <= 0.5\ngini = 0.28\nsamples = 5\nvalue = [5, 1]", fillcolor="#e58139cc"] ;
144 -> 145 ;
146 [label="gini = 0.0\nsamples = 4\nvalue = [5, 0]", fillcolor="#e58139ff"] ;
145 -> 146 ;
147 [label="gini = 0.0\nsamples = 1\nvalue = [0, 1]", fillcolor="#399de5ff"] ;
145 -> 147 ;
148 [label="gini = 0.0\nsamples = 2\nvalue = [4, 0]", fillcolor="#e58139ff"] ;
144 -> 148 ;
149 [label="gini = 0.0\nsamples = 2\nvalue = [3, 0]", fillcolor="#e58139ff"] ;
143 -> 149 ;
150 [label="gini = 0.0\nsamples = 1\nvalue = [0, 1]", fillcolor="#399de5ff"] ;
142 -> 150 ;
151 [label="issue <= 1.5\ngini = 0.5\nsamples = 2\nvalue = [1, 1]", fillcolor="#e5813900"] ;
141 -> 151 ;
152 [label="gini = 0.0\nsamples = 1\nvalue = [0, 1]", fillcolor="#399de5ff"] ;
151 -> 152 ;
153 [label="gini = 0.0\nsamples = 1\nvalue = [1, 0]", fillcolor="#e58139ff"] ;
151 -> 153 ;
154 [label="gini = 0.0\nsamples = 1\nvalue = [0, 2]", fillcolor="#399de5ff"] ;
140 -> 154 ;
155 [label="gini = 0.0\nsamples = 1\nvalue = [0, 4]", fillcolor="#399de5ff"] ;
139 -> 155 ;
156 [label="song <= 6.0\ngini = 0.36\nsamples = 15\nvalue = [5, 16]", fillcolor="#399de5af"] ;
138 -> 156 ;
157 [label="strong <= 0.5\ngini = 0.32\nsamples = 14\nvalue = [4, 16]", fillcolor="#399de5bf"] ;
156 -> 157 ;
158 [label="half <= 0.5\ngini = 0.2\nsamples = 12\nvalue = [2, 16]", fillcolor="#399de5df"] ;
157 -> 158 ;
159 [label="gini = 0.0\nsamples = 10\nvalue = [0, 16]", fillcolor="#399de5ff"] ;
158 -> 159 ;
160 [label="gini = 0.0\nsamples = 2\nvalue = [2, 0]", fillcolor="#e58139ff"] ;
158 -> 160 ;
161 [label="gini = 0.0\nsamples = 2\nvalue = [2, 0]", fillcolor="#e58139ff"] ;
157 -> 161 ;
162 [label="gini = 0.0\nsamples = 1\nvalue = [1, 0]", fillcolor="#e58139ff"] ;
156 -> 162 ;
163 [label="contains <= 0.5\ngini = 0.13\nsamples = 34\nvalue = [51, 4]", fillcolor="#e58139eb"] ;
3 -> 163 ;
164 [label="presidential <= 1.5\ngini = 0.1\nsamples = 33\nvalue = [51, 3]", fillcolor="#e58139f0"] ;
163 -> 164 ;
165 [label="allegedly <= 0.5\ngini = 0.04\nsamples = 31\nvalue = [50, 1]", fillcolor="#e58139fa"] ;
164 -> 165 ;
166 [label="gini = 0.0\nsamples = 28\nvalue = [46, 0]", fillcolor="#e58139ff"] ;
165 -> 166 ;
167 [label="according <= 1.5\ngini = 0.32\nsamples = 3\nvalue = [4, 1]", fillcolor="#e58139bf"] ;
165 -> 167 ;
168 [label="gini = 0.0\nsamples = 2\nvalue = [4, 0]", fillcolor="#e58139ff"] ;
167 -> 168 ;
169 [label="gini = 0.0\nsamples = 1\nvalue = [0, 1]", fillcolor="#399de5ff"] ;
167 -> 169 ;
170 [label="informed <= 0.5\ngini = 0.44\nsamples = 2\nvalue = [1, 2]", fillcolor="#399de57f"] ;
164 -> 170 ;
171 [label="gini = 0.0\nsamples = 1\nvalue = [0, 2]", fillcolor="#399de5ff"] ;
170 -> 171 ;
172 [label="gini = 0.0\nsamples = 1\nvalue = [1, 0]", fillcolor="#e58139ff"] ;
170 -> 172 ;
173 [label="gini = 0.0\nsamples = 1\nvalue = [0, 1]", fillcolor="#399de5ff"] ;
163 -> 173 ;
174 [label="ruling <= 2.0\ngini = 0.29\nsamples = 143\nvalue = [173, 36]", fillcolor="#e58139ca"] ;
2 -> 174 ;
175 [label="discovery <= 1.5\ngini = 0.25\nsamples = 140\nvalue = [173, 30]", fillcolor="#e58139d3"] ;
174 -> 175 ;
176 [label="november <= 2.5\ngini = 0.24\nsamples = 139\nvalue = [173, 28]", fillcolor="#e58139d6"] ;
175 -> 176 ;
177 [label="cdc <= 7.0\ngini = 0.23\nsamples = 137\nvalue = [173, 26]", fillcolor="#e58139d9"] ;
176 -> 177 ;
178 [label="rigged <= 0.5\ngini = 0.21\nsamples = 136\nvalue = [173, 24]", fillcolor="#e58139dc"] ;
177 -> 178 ;
179 [label="pending <= 0.5\ngini = 0.19\nsamples = 131\nvalue = [171, 20]", fillcolor="#e58139e1"] ;
178 -> 179 ;
180 [label="violation <= 0.5\ngini = 0.17\nsamples = 130\nvalue = [171, 18]", fillcolor="#e58139e4"] ;
179 -> 180 ;
181 [label="machines <= 0.5\ngini = 0.15\nsamples = 127\nvalue = [170, 15]", fillcolor="#e58139e9"] ;
180 -> 181 ;
182 [label="retaliation <= 0.5\ngini = 0.12\nsamples = 125\nvalue = [169, 12]", fillcolor="#e58139ed"] ;
181 -> 182 ;
183 [label="safety <= 3.5\ngini = 0.11\nsamples = 124\nvalue = [169, 10]", fillcolor="#e58139f0"] ;
182 -> 183 ;
184 [label="uncle <= 3.0\ngini = 0.1\nsamples = 123\nvalue = [169, 9]", fillcolor="#e58139f1"] ;
183 -> 184 ;
185 [label="ok <= 0.5\ngini = 0.09\nsamples = 122\nvalue = [169, 8]", fillcolor="#e58139f3"] ;
184 -> 185 ;
186 [label="fbi <= 3.0\ngini = 0.08\nsamples = 120\nvalue = [168, 7]", fillcolor="#e58139f4"] ;
185 -> 186 ;
187 [label="chemicals <= 0.5\ngini = 0.07\nsamples = 119\nvalue = [168, 6]", fillcolor="#e58139f6"] ;
186 -> 187 ;
188 [label="refuse <= 0.5\ngini = 0.06\nsamples = 118\nvalue = [168, 5]", fillcolor="#e58139f7"] ;
187 -> 188 ;
189 [label="argument <= 0.5\ngini = 0.05\nsamples = 116\nvalue = [167, 4]", fillcolor="#e58139f9"] ;
188 -> 189 ;
190 [label="end <= 0.5\ngini = 0.04\nsamples = 112\nvalue = [163, 3]", fillcolor="#e58139fa"] ;
189 -> 190 ;
191 [label="thinking <= 0.5\ngini = 0.05\nsamples = 75\nvalue = [107, 3]", fillcolor="#e58139f8"] ;
190 -> 191 ;
192 [label="soon <= 1.5\ngini = 0.02\nsamples = 65\nvalue = [97, 1]", fillcolor="#e58139fc"] ;
191 -> 192 ;
193 [label="gini = 0.0\nsamples = 63\nvalue = [95, 0]", fillcolor="#e58139ff"] ;
192 -> 193 ;
194 [label="may <= 0.5\ngini = 0.44\nsamples = 2\nvalue = [2, 1]", fillcolor="#e581397f"] ;
192 -> 194 ;
195 [label="gini = 0.0\nsamples = 1\nvalue = [0, 1]", fillcolor="#399de5ff"] ;
194 -> 195 ;
196 [label="gini = 0.0\nsamples = 1\nvalue = [2, 0]", fillcolor="#e58139ff"] ;
194 -> 196 ;
197 [label="blue <= 0.5\ngini = 0.28\nsamples = 10\nvalue = [10, 2]", fillcolor="#e58139cc"] ;
191 -> 197 ;
198 [label="nothing <= 0.5\ngini = 0.38\nsamples = 7\nvalue = [6, 2]", fillcolor="#e58139aa"] ;
197 -> 198 ;
199 [label="gini = 0.0\nsamples = 5\nvalue = [5, 0]", fillcolor="#e58139ff"] ;
198 -> 199 ;
200 [label="taste <= 0.5\ngini = 0.44\nsamples = 2\nvalue = [1, 2]", fillcolor="#399de57f"] ;
198 -> 200 ;
201 [label="gini = 0.0\nsamples = 1\nvalue = [0, 2]", fillcolor="#399de5ff"] ;
200 -> 201 ;
202 [label="gini = 0.0\nsamples = 1\nvalue = [1, 0]", fillcolor="#e58139ff"] ;
200 -> 202 ;
203 [label="gini = 0.0\nsamples = 3\nvalue = [4, 0]", fillcolor="#e58139ff"] ;
197 -> 203 ;
204 [label="gini = 0.0\nsamples = 37\nvalue = [56, 0]", fillcolor="#e58139ff"] ;
190 -> 204 ;
205 [label="trash <= 0.5\ngini = 0.32\nsamples = 4\nvalue = [4, 1]", fillcolor="#e58139bf"] ;
189 -> 205 ;
206 [label="gini = 0.0\nsamples = 3\nvalue = [4, 0]", fillcolor="#e58139ff"] ;
205 -> 206 ;
207 [label="gini = 0.0\nsamples = 1\nvalue = [0, 1]", fillcolor="#399de5ff"] ;
205 -> 207 ;
208 [label="veto <= 1.0\ngini = 0.5\nsamples = 2\nvalue = [1, 1]", fillcolor="#e5813900"] ;
188 -> 208 ;
209 [label="gini = 0.0\nsamples = 1\nvalue = [1, 0]", fillcolor="#e58139ff"] ;
208 -> 209 ;
210 [label="gini = 0.0\nsamples = 1\nvalue = [0, 1]", fillcolor="#399de5ff"] ;
208 -> 210 ;
211 [label="gini = 0.0\nsamples = 1\nvalue = [0, 1]", fillcolor="#399de5ff"] ;
187 -> 211 ;
212 [label="gini = 0.0\nsamples = 1\nvalue = [0, 1]", fillcolor="#399de5ff"] ;
186 -> 212 ;
213 [label="arrives <= 1.0\ngini = 0.5\nsamples = 2\nvalue = [1, 1]", fillcolor="#e5813900"] ;
185 -> 213 ;
214 [label="gini = 0.0\nsamples = 1\nvalue = [0, 1]", fillcolor="#399de5ff"] ;
213 -> 214 ;
215 [label="gini = 0.0\nsamples = 1\nvalue = [1, 0]", fillcolor="#e58139ff"] ;
213 -> 215 ;
216 [label="gini = 0.0\nsamples = 1\nvalue = [0, 1]", fillcolor="#399de5ff"] ;
184 -> 216 ;
217 [label="gini = 0.0\nsamples = 1\nvalue = [0, 1]", fillcolor="#399de5ff"] ;
183 -> 217 ;
218 [label="gini = 0.0\nsamples = 1\nvalue = [0, 2]", fillcolor="#399de5ff"] ;
182 -> 218 ;
219 [label="end <= 0.5\ngini = 0.38\nsamples = 2\nvalue = [1, 3]", fillcolor="#399de5aa"] ;
181 -> 219 ;
220 [label="gini = 0.0\nsamples = 1\nvalue = [0, 3]", fillcolor="#399de5ff"] ;
219 -> 220 ;
221 [label="gini = 0.0\nsamples = 1\nvalue = [1, 0]", fillcolor="#e58139ff"] ;
219 -> 221 ;
222 [label="mass <= 1.0\ngini = 0.38\nsamples = 3\nvalue = [1, 3]", fillcolor="#399de5aa"] ;
180 -> 222 ;
223 [label="gini = 0.0\nsamples = 1\nvalue = [1, 0]", fillcolor="#e58139ff"] ;
222 -> 223 ;
224 [label="gini = 0.0\nsamples = 2\nvalue = [0, 3]", fillcolor="#399de5ff"] ;
222 -> 224 ;
225 [label="gini = 0.0\nsamples = 1\nvalue = [0, 2]", fillcolor="#399de5ff"] ;
179 -> 225 ;
226 [label="election <= 0.5\ngini = 0.44\nsamples = 5\nvalue = [2, 4]", fillcolor="#399de57f"] ;
178 -> 226 ;
227 [label="gini = 0.0\nsamples = 2\nvalue = [2, 0]", fillcolor="#e58139ff"] ;
226 -> 227 ;
228 [label="gini = 0.0\nsamples = 3\nvalue = [0, 4]", fillcolor="#399de5ff"] ;
226 -> 228 ;
229 [label="gini = 0.0\nsamples = 1\nvalue = [0, 2]", fillcolor="#399de5ff"] ;
177 -> 229 ;
230 [label="gini = 0.0\nsamples = 2\nvalue = [0, 2]", fillcolor="#399de5ff"] ;
176 -> 230 ;
231 [label="gini = 0.0\nsamples = 1\nvalue = [0, 2]", fillcolor="#399de5ff"] ;
175 -> 231 ;
232 [label="gini = 0.0\nsamples = 3\nvalue = [0, 6]", fillcolor="#399de5ff"] ;
174 -> 232 ;
233 [label="cut <= 0.5\ngini = 0.43\nsamples = 31\nvalue = [16, 35]", fillcolor="#399de58a"] ;
1 -> 233 ;
234 [label="reference <= 0.5\ngini = 0.38\nsamples = 29\nvalue = [12, 35]", fillcolor="#399de5a8"] ;
233 -> 234 ;
235 [label="news <= 7.0\ngini = 0.33\nsamples = 27\nvalue = [9, 35]", fillcolor="#399de5bd"] ;
234 -> 235 ;
236 [label="football <= 0.5\ngini = 0.18\nsamples = 25\nvalue = [4, 35]", fillcolor="#399de5e2"] ;
235 -> 236 ;
237 [label="martin <= 0.5\ngini = 0.15\nsamples = 24\nvalue = [3, 35]", fillcolor="#399de5e9"] ;
236 -> 237 ;
238 [label="ordered <= 0.5\ngini = 0.1\nsamples = 23\nvalue = [2, 35]", fillcolor="#399de5f0"] ;
237 -> 238 ;
239 [label="fill <= 0.5\ngini = 0.05\nsamples = 22\nvalue = [1, 35]", fillcolor="#399de5f8"] ;
238 -> 239 ;
240 [label="gini = 0.0\nsamples = 21\nvalue = [0, 35]", fillcolor="#399de5ff"] ;
239 -> 240 ;
241 [label="gini = 0.0\nsamples = 1\nvalue = [1, 0]", fillcolor="#e58139ff"] ;
239 -> 241 ;
242 [label="gini = 0.0\nsamples = 1\nvalue = [1, 0]", fillcolor="#e58139ff"] ;
238 -> 242 ;
243 [label="gini = 0.0\nsamples = 1\nvalue = [1, 0]", fillcolor="#e58139ff"] ;
237 -> 243 ;
244 [label="gini = 0.0\nsamples = 1\nvalue = [1, 0]", fillcolor="#e58139ff"] ;
236 -> 244 ;
245 [label="gini = 0.0\nsamples = 2\nvalue = [5, 0]", fillcolor="#e58139ff"] ;
235 -> 245 ;
246 [label="gini = 0.0\nsamples = 2\nvalue = [3, 0]", fillcolor="#e58139ff"] ;
234 -> 246 ;
247 [label="gini = 0.0\nsamples = 2\nvalue = [4, 0]", fillcolor="#e58139ff"] ;
233 -> 247 ;
248 [label="select <= 0.5\ngini = 0.19\nsamples = 146\nvalue = [209, 25]", fillcolor="#e58139e0"] ;
0 -> 248 [labeldistance=2.5, labelangle=-45, headlabel="False"] ;
249 [label="quite <= 4.0\ngini = 0.14\nsamples = 143\nvalue = [206, 17]", fillcolor="#e58139ea"] ;
248 -> 249 ;
250 [label="primarily <= 1.5\ngini = 0.11\nsamples = 141\nvalue = [206, 13]", fillcolor="#e58139ef"] ;
249 -> 250 ;
251 [label="publicly <= 2.5\ngini = 0.1\nsamples = 140\nvalue = [206, 11]", fillcolor="#e58139f1"] ;
250 -> 251 ;
252 [label="quote <= 0.5\ngini = 0.08\nsamples = 138\nvalue = [204, 9]", fillcolor="#e58139f4"] ;
251 -> 252 ;
253 [label="burn <= 0.5\ngini = 0.06\nsamples = 135\nvalue = [203, 6]", fillcolor="#e58139f7"] ;
252 -> 253 ;
254 [label="eight <= 2.5\ngini = 0.04\nsamples = 133\nvalue = [200, 4]", fillcolor="#e58139fa"] ;
253 -> 254 ;
255 [label="abedin <= 3.5\ngini = 0.02\nsamples = 132\nvalue = [200, 2]", fillcolor="#e58139fc"] ;
254 -> 255 ;
256 [label="college <= 0.5\ngini = 0.01\nsamples = 131\nvalue = [200, 1]", fillcolor="#e58139fe"] ;
255 -> 256 ;
257 [label="gini = 0.0\nsamples = 117\nvalue = [183, 0]", fillcolor="#e58139ff"] ;
256 -> 257 ;
258 [label="gave <= 0.5\ngini = 0.1\nsamples = 14\nvalue = [17, 1]", fillcolor="#e58139f0"] ;
256 -> 258 ;
259 [label="gini = 0.0\nsamples = 9\nvalue = [11, 0]", fillcolor="#e58139ff"] ;
258 -> 259 ;
260 [label="toll <= 0.5\ngini = 0.24\nsamples = 5\nvalue = [6, 1]", fillcolor="#e58139d4"] ;
258 -> 260 ;
261 [label="gini = 0.0\nsamples = 4\nvalue = [6, 0]", fillcolor="#e58139ff"] ;
260 -> 261 ;
262 [label="gini = 0.0\nsamples = 1\nvalue = [0, 1]", fillcolor="#399de5ff"] ;
260 -> 262 ;
263 [label="gini = 0.0\nsamples = 1\nvalue = [0, 1]", fillcolor="#399de5ff"] ;
255 -> 263 ;
264 [label="gini = 0.0\nsamples = 1\nvalue = [0, 2]", fillcolor="#399de5ff"] ;
254 -> 264 ;
265 [label="amount <= 0.5\ngini = 0.48\nsamples = 2\nvalue = [3, 2]", fillcolor="#e5813955"] ;
253 -> 265 ;
266 [label="gini = 0.0\nsamples = 1\nvalue = [0, 2]", fillcolor="#399de5ff"] ;
265 -> 266 ;
267 [label="gini = 0.0\nsamples = 1\nvalue = [3, 0]", fillcolor="#e58139ff"] ;
265 -> 267 ;
268 [label="appear <= 0.5\ngini = 0.38\nsamples = 3\nvalue = [1, 3]", fillcolor="#399de5aa"] ;
252 -> 268 ;
269 [label="gini = 0.0\nsamples = 2\nvalue = [0, 3]", fillcolor="#399de5ff"] ;
268 -> 269 ;
270 [label="gini = 0.0\nsamples = 1\nvalue = [1, 0]", fillcolor="#e58139ff"] ;
268 -> 270 ;
271 [label="furniture <= 1.5\ngini = 0.5\nsamples = 2\nvalue = [2, 2]", fillcolor="#e5813900"] ;
251 -> 271 ;
272 [label="gini = 0.0\nsamples = 1\nvalue = [2, 0]", fillcolor="#e58139ff"] ;
271 -> 272 ;
273 [label="gini = 0.0\nsamples = 1\nvalue = [0, 2]", fillcolor="#399de5ff"] ;
271 -> 273 ;
274 [label="gini = 0.0\nsamples = 1\nvalue = [0, 2]", fillcolor="#399de5ff"] ;
250 -> 274 ;
275 [label="gini = 0.0\nsamples = 2\nvalue = [0, 4]", fillcolor="#399de5ff"] ;
249 -> 275 ;
276 [label="roger <= 0.5\ngini = 0.4\nsamples = 3\nvalue = [3, 8]", fillcolor="#399de59f"] ;
248 -> 276 ;
277 [label="gini = 0.0\nsamples = 2\nvalue = [0, 8]", fillcolor="#399de5ff"] ;
276 -> 277 ;
278 [label="gini = 0.0\nsamples = 1\nvalue = [3, 0]", fillcolor="#e58139ff"] ;
276 -> 278 ;
}