digraph Tree {
node [shape=box, style="filled, rounded", color="black", fontname=helvetica] ;
edge [fontname=helvetica] ;
0 [label="manager <= 0.5\ngini = 0.36\nsamples = 641\nvalue = [231, 769]", fillcolor="#399de5b2"] ;
1 [label="afternoon <= 0.5\ngini = 0.34\nsamples = 617\nvalue = [212, 754]", fillcolor="#399de5b7"] ;
0 -> 1 [labeldistance=2.5, labelangle=45, headlabel="True"] ;
2 [label="shortly <= 0.5\ngini = 0.33\nsamples = 600\nvalue = [193, 749]", fillcolor="#399de5bd"] ;
1 -> 2 ;
3 [label="care <= 5.5\ngini = 0.32\nsamples = 590\nvalue = [181, 742]", fillcolor="#399de5c1"] ;
2 -> 3 ;
4 [label="week <= 0.5\ngini = 0.31\nsamples = 586\nvalue = [173, 742]", fillcolor="#399de5c4"] ;
3 -> 4 ;
5 [label="mr <= 1.5\ngini = 0.25\nsamples = 480\nvalue = [113, 646]", fillcolor="#399de5d2"] ;
4 -> 5 ;
6 [label="series <= 4.0\ngini = 0.19\nsamples = 438\nvalue = [74, 625]", fillcolor="#399de5e1"] ;
5 -> 6 ;
7 [label="goals <= 0.5\ngini = 0.18\nsamples = 436\nvalue = [71, 625]", fillcolor="#399de5e2"] ;
6 -> 7 ;
8 [label="run <= 4.5\ngini = 0.17\nsamples = 428\nvalue = [65, 618]", fillcolor="#399de5e4"] ;
7 -> 8 ;
9 [label="introduced <= 0.5\ngini = 0.17\nsamples = 427\nvalue = [63, 618]", fillcolor="#399de5e5"] ;
8 -> 9 ;
10 [label="tweeted <= 0.5\ngini = 0.16\nsamples = 420\nvalue = [58, 613]", fillcolor="#399de5e7"] ;
9 -> 10 ;
11 [label="supreme <= 6.0\ngini = 0.14\nsamples = 412\nvalue = [51, 607]", fillcolor="#399de5ea"] ;
10 -> 11 ;
12 [label="transparent <= 0.5\ngini = 0.14\nsamples = 411\nvalue = [50, 607]", fillcolor="#399de5ea"] ;
11 -> 12 ;
13 [label="dr <= 16.0\ngini = 0.13\nsamples = 409\nvalue = [44, 607]", fillcolor="#399de5ed"] ;
12 -> 13 ;
14 [label="stable <= 1.5\ngini = 0.12\nsamples = 407\nvalue = [42, 607]", fillcolor="#399de5ed"] ;
13 -> 14 ;
15 [label="mary <= 3.0\ngini = 0.11\nsamples = 405\nvalue = [39, 606]", fillcolor="#399de5ef"] ;
14 -> 15 ;
16 [label="extensive <= 1.5\ngini = 0.11\nsamples = 404\nvalue = [36, 606]", fillcolor="#399de5f0"] ;
15 -> 16 ;
17 [label="checks <= 2.5\ngini = 0.1\nsamples = 403\nvalue = [35, 606]", fillcolor="#399de5f0"] ;
16 -> 17 ;
18 [label="epic <= 1.5\ngini = 0.1\nsamples = 402\nvalue = [33, 606]", fillcolor="#399de5f1"] ;
17 -> 18 ;
19 [label="democrat <= 2.5\ngini = 0.09\nsamples = 401\nvalue = [31, 606]", fillcolor="#399de5f2"] ;
18 -> 19 ;
20 [label="season <= 3.5\ngini = 0.09\nsamples = 400\nvalue = [30, 606]", fillcolor="#399de5f2"] ;
19 -> 20 ;
21 [label="gorsuch <= 0.5\ngini = 0.08\nsamples = 399\nvalue = [28, 606]", fillcolor="#399de5f3"] ;
20 -> 21 ;
22 [label="budget <= 4.0\ngini = 0.08\nsamples = 398\nvalue = [25, 606]", fillcolor="#399de5f4"] ;
21 -> 22 ;
23 [label="friends <= 5.0\ngini = 0.07\nsamples = 397\nvalue = [24, 606]", fillcolor="#399de5f5"] ;
22 -> 23 ;
24 [label="big <= 4.5\ngini = 0.07\nsamples = 396\nvalue = [23, 606]", fillcolor="#399de5f5"] ;
23 -> 24 ;
25 [label="country <= 9.5\ngini = 0.07\nsamples = 395\nvalue = [22, 606]", fillcolor="#399de5f6"] ;
24 -> 25 ;
26 [label="broad <= 0.5\ngini = 0.06\nsamples = 394\nvalue = [21, 606]", fillcolor="#399de5f6"] ;
25 -> 26 ;
27 [label="debut <= 1.5\ngini = 0.06\nsamples = 393\nvalue = [20, 606]", fillcolor="#399de5f7"] ;
26 -> 27 ;
28 [label="refugees <= 0.5\ngini = 0.06\nsamples = 392\nvalue = [19, 606]", fillcolor="#399de5f7"] ;
27 -> 28 ;
29 [label="channel <= 2.5\ngini = 0.05\nsamples = 384\nvalue = [16, 597]", fillcolor="#399de5f8"] ;
28 -> 29 ;
30 [label="york <= 0.5\ngini = 0.05\nsamples = 383\nvalue = [15, 597]", fillcolor="#399de5f9"] ;
29 -> 30 ;
31 [label="crazy <= 1.5\ngini = 0.02\nsamples = 351\nvalue = [6, 558]", fillcolor="#399de5fc"] ;
30 -> 31 ;
32 [label="chose <= 0.5\ngini = 0.02\nsamples = 349\nvalue = [5, 557]", fillcolor="#399de5fd"] ;
31 -> 32 ;
33 [label="suspicion <= 0.5\ngini = 0.01\nsamples = 347\nvalue = [4, 555]", fillcolor="#399de5fd"] ;
32 -> 33 ;
34 [label="mess <= 0.5\ngini = 0.01\nsamples = 344\nvalue = [3, 550]", fillcolor="#399de5fe"] ;
33 -> 34 ;
35 [label="residence <= 0.5\ngini = 0.01\nsamples = 342\nvalue = [2, 549]", fillcolor="#399de5fe"] ;
34 -> 35 ;
36 [label="home <= 0.5\ngini = 0.0\nsamples = 340\nvalue = [1, 548]", fillcolor="#399de5ff"] ;
35 -> 36 ;
37 [label="must <= 0.5\ngini = 0.0\nsamples = 297\nvalue = [1, 471]", fillcolor="#399de5fe"] ;
36 -> 37 ;
38 [label="push <= 0.5\ngini = 0.0\nsamples = 269\nvalue = [1, 431]", fillcolor="#399de5fe"] ;
37 -> 38 ;
39 [label="gini = 0.0\nsamples = 263\nvalue = [0, 425]", fillcolor="#399de5ff"] ;
38 -> 39 ;
40 [label="rice <= 1.0\ngini = 0.24\nsamples = 6\nvalue = [1, 6]", fillcolor="#399de5d4"] ;
38 -> 40 ;
41 [label="gini = 0.0\nsamples = 5\nvalue = [0, 6]", fillcolor="#399de5ff"] ;
40 -> 41 ;
42 [label="gini = 0.0\nsamples = 1\nvalue = [1, 0]", fillcolor="#e58139ff"] ;
40 -> 42 ;
43 [label="gini = 0.0\nsamples = 28\nvalue = [0, 40]", fillcolor="#399de5ff"] ;
37 -> 43 ;
44 [label="gini = 0.0\nsamples = 43\nvalue = [0, 77]", fillcolor="#399de5ff"] ;
36 -> 44 ;
45 [label="denied <= 0.5\ngini = 0.5\nsamples = 2\nvalue = [1, 1]", fillcolor="#e5813900"] ;
35 -> 45 ;
46 [label="gini = 0.0\nsamples = 1\nvalue = [1, 0]", fillcolor="#e58139ff"] ;
45 -> 46 ;
47 [label="gini = 0.0\nsamples = 1\nvalue = [0, 1]", fillcolor="#399de5ff"] ;
45 -> 47 ;
48 [label="crimea <= 1.0\ngini = 0.5\nsamples = 2\nvalue = [1, 1]", fillcolor="#e5813900"] ;
34 -> 48 ;
49 [label="gini = 0.0\nsamples = 1\nvalue = [0, 1]", fillcolor="#399de5ff"] ;
48 -> 49 ;
50 [label="gini = 0.0\nsamples = 1\nvalue = [1, 0]", fillcolor="#e58139ff"] ;
48 -> 50 ;
51 [label="dress <= 0.5\ngini = 0.28\nsamples = 3\nvalue = [1, 5]", fillcolor="#399de5cc"] ;
33 -> 51 ;
52 [label="gini = 0.0\nsamples = 2\nvalue = [0, 5]", fillcolor="#399de5ff"] ;
51 -> 52 ;
53 [label="gini = 0.0\nsamples = 1\nvalue = [1, 0]", fillcolor="#e58139ff"] ;
51 -> 53 ;
54 [label="counsel <= 0.5\ngini = 0.44\nsamples = 2\nvalue = [1, 2]", fillcolor="#399de57f"] ;
32 -> 54 ;
55 [label="gini = 0.0\nsamples = 1\nvalue = [1, 0]", fillcolor="#e58139ff"] ;
54 -> 55 ;
56 [label="gini = 0.0\nsamples = 1\nvalue = [0, 2]", fillcolor="#399de5ff"] ;
54 -> 56 ;
57 [label="claims <= 1.0\ngini = 0.5\nsamples = 2\nvalue = [1, 1]", fillcolor="#e5813900"] ;
31 -> 57 ;
58 [label="gini = 0.0\nsamples = 1\nvalue = [0, 1]", fillcolor="#399de5ff"] ;
57 -> 58 ;
59 [label="gini = 0.0\nsamples = 1\nvalue = [1, 0]", fillcolor="#e58139ff"] ;
57 -> 59 ;
60 [label="sean <= 0.5\ngini = 0.3\nsamples = 32\nvalue = [9, 39]", fillcolor="#399de5c4"] ;
30 -> 60 ;
61 [label="department <= 0.5\ngini = 0.28\nsamples = 31\nvalue = [8, 39]", fillcolor="#399de5cb"] ;
60 -> 61 ;
62 [label="stuck <= 0.5\ngini = 0.37\nsamples = 23\nvalue = [8, 25]", fillcolor="#399de5ad"] ;
61 -> 62 ;
63 [label="state <= 0.5\ngini = 0.32\nsamples = 21\nvalue = [6, 24]", fillcolor="#399de5bf"] ;
62 -> 63 ;
64 [label="existence <= 0.5\ngini = 0.44\nsamples = 11\nvalue = [6, 12]", fillcolor="#399de57f"] ;
63 -> 64 ;
65 [label="lives <= 0.5\ngini = 0.5\nsamples = 10\nvalue = [6, 7]", fillcolor="#399de524"] ;
64 -> 65 ;
66 [label="supporters <= 0.5\ngini = 0.42\nsamples = 9\nvalue = [3, 7]", fillcolor="#399de592"] ;
65 -> 66 ;
67 [label="incident <= 1.0\ngini = 0.35\nsamples = 8\nvalue = [2, 7]", fillcolor="#399de5b6"] ;
66 -> 67 ;
68 [label="could <= 0.5\ngini = 0.22\nsamples = 7\nvalue = [1, 7]", fillcolor="#399de5db"] ;
67 -> 68 ;
69 [label="quick <= 0.5\ngini = 0.38\nsamples = 4\nvalue = [1, 3]", fillcolor="#399de5aa"] ;
68 -> 69 ;
70 [label="gini = 0.0\nsamples = 3\nvalue = [0, 3]", fillcolor="#399de5ff"] ;
69 -> 70 ;
71 [label="gini = 0.0\nsamples = 1\nvalue = [1, 0]", fillcolor="#e58139ff"] ;
69 -> 71 ;
72 [label="gini = 0.0\nsamples = 3\nvalue = [0, 4]", fillcolor="#399de5ff"] ;
68 -> 72 ;
73 [label="gini = 0.0\nsamples = 1\nvalue = [1, 0]", fillcolor="#e58139ff"] ;
67 -> 73 ;
74 [label="gini = 0.0\nsamples = 1\nvalue = [1, 0]", fillcolor="#e58139ff"] ;
66 -> 74 ;
75 [label="gini = 0.0\nsamples = 1\nvalue = [3, 0]", fillcolor="#e58139ff"] ;
65 -> 75 ;
76 [label="gini = 0.0\nsamples = 1\nvalue = [0, 5]", fillcolor="#399de5ff"] ;
64 -> 76 ;
77 [label="gini = 0.0\nsamples = 10\nvalue = [0, 12]", fillcolor="#399de5ff"] ;
63 -> 77 ;
78 [label="podesta <= 2.5\ngini = 0.44\nsamples = 2\nvalue = [2, 1]", fillcolor="#e581397f"] ;
62 -> 78 ;
79 [label="gini = 0.0\nsamples = 1\nvalue = [2, 0]", fillcolor="#e58139ff"] ;
78 -> 79 ;
80 [label="gini = 0.0\nsamples = 1\nvalue = [0, 1]", fillcolor="#399de5ff"] ;
78 -> 80 ;
81 [label="gini = 0.0\nsamples = 8\nvalue = [0, 14]", fillcolor="#399de5ff"] ;
61 -> 81 ;
82 [label="gini = 0.0\nsamples = 1\nvalue = [1, 0]", fillcolor="#e58139ff"] ;
60 -> 82 ;
83 [label="gini = 0.0\nsamples = 1\nvalue = [1, 0]", fillcolor="#e58139ff"] ;
29 -> 83 ;
84 [label="european <= 0.5\ngini = 0.38\nsamples = 8\nvalue = [3, 9]", fillcolor="#399de5aa"] ;
28 -> 84 ;
85 [label="senior <= 0.5\ngini = 0.18\nsamples = 7\nvalue = [1, 9]", fillcolor="#399de5e3"] ;
84 -> 85 ;
86 [label="gini = 0.0\nsamples = 6\nvalue = [0, 9]", fillcolor="#399de5ff"] ;
85 -> 86 ;
87 [label="gini = 0.0\nsamples = 1\nvalue = [1, 0]", fillcolor="#e58139ff"] ;
85 -> 87 ;
88 [label="gini = 0.0\nsamples = 1\nvalue = [2, 0]", fillcolor="#e58139ff"] ;
84 -> 88 ;
89 [label="gini = 0.0\nsamples = 1\nvalue = [1, 0]", fillcolor="#e58139ff"] ;
27 -> 89 ;
90 [label="gini = 0.0\nsamples = 1\nvalue = [1, 0]", fillcolor="#e58139ff"] ;
26 -> 90 ;
91 [label="gini = 0.0\nsamples = 1\nvalue = [1, 0]", fillcolor="#e58139ff"] ;
25 -> 91 ;
92 [label="gini = 0.0\nsamples = 1\nvalue = [1, 0]", fillcolor="#e58139ff"] ;
24 -> 92 ;
93 [label="gini = 0.0\nsamples = 1\nvalue = [1, 0]", fillcolor="#e58139ff"] ;
23 -> 93 ;
94 [label="gini = 0.0\nsamples = 1\nvalue = [1, 0]", fillcolor="#e58139ff"] ;
22 -> 94 ;
95 [label="gini = 0.0\nsamples = 1\nvalue = [3, 0]", fillcolor="#e58139ff"] ;
21 -> 95 ;
96 [label="gini = 0.0\nsamples = 1\nvalue = [2, 0]", fillcolor="#e58139ff"] ;
20 -> 96 ;
97 [label="gini = 0.0\nsamples = 1\nvalue = [1, 0]", fillcolor="#e58139ff"] ;
19 -> 97 ;
98 [label="gini = 0.0\nsamples = 1\nvalue = [2, 0]", fillcolor="#e58139ff"] ;
18 -> 98 ;
99 [label="gini = 0.0\nsamples = 1\nvalue = [2, 0]", fillcolor="#e58139ff"] ;
17 -> 99 ;
100 [label="gini = 0.0\nsamples = 1\nvalue = [1, 0]", fillcolor="#e58139ff"] ;
16 -> 100 ;
101 [label="gini = 0.0\nsamples = 1\nvalue = [3, 0]", fillcolor="#e58139ff"] ;
15 -> 101 ;
102 [label="russia <= 7.0\ngini = 0.38\nsamples = 2\nvalue = [3, 1]", fillcolor="#e58139aa"] ;
14 -> 102 ;
103 [label="gini = 0.0\nsamples = 1\nvalue = [3, 0]", fillcolor="#e58139ff"] ;
102 -> 103 ;
104 [label="gini = 0.0\nsamples = 1\nvalue = [0, 1]", fillcolor="#399de5ff"] ;
102 -> 104 ;
105 [label="gini = 0.0\nsamples = 2\nvalue = [2, 0]", fillcolor="#e58139ff"] ;
13 -> 105 ;
106 [label="gini = 0.0\nsamples = 2\nvalue = [6, 0]", fillcolor="#e58139ff"] ;
12 -> 106 ;
107 [label="gini = 0.0\nsamples = 1\nvalue = [1, 0]", fillcolor="#e58139ff"] ;
11 -> 107 ;
108 [label="involved <= 0.5\ngini = 0.5\nsamples = 8\nvalue = [7, 6]", fillcolor="#e5813924"] ;
10 -> 108 ;
109 [label="ban <= 0.5\ngini = 0.46\nsamples = 7\nvalue = [7, 4]", fillcolor="#e581396d"] ;
108 -> 109 ;
110 [label="came <= 0.5\ngini = 0.5\nsamples = 6\nvalue = [4, 4]", fillcolor="#e5813900"] ;
109 -> 110 ;
111 [label="images <= 0.5\ngini = 0.44\nsamples = 5\nvalue = [4, 2]", fillcolor="#e581397f"] ;
110 -> 111 ;
112 [label="gini = 0.0\nsamples = 3\nvalue = [4, 0]", fillcolor="#e58139ff"] ;
111 -> 112 ;
113 [label="gini = 0.0\nsamples = 2\nvalue = [0, 2]", fillcolor="#399de5ff"] ;
111 -> 113 ;
114 [label="gini = 0.0\nsamples = 1\nvalue = [0, 2]", fillcolor="#399de5ff"] ;
110 -> 114 ;
115 [label="gini = 0.0\nsamples = 1\nvalue = [3, 0]", fillcolor="#e58139ff"] ;
109 -> 115 ;
116 [label="gini = 0.0\nsamples = 1\nvalue = [0, 2]", fillcolor="#399de5ff"] ;
108 -> 116 ;
117 [label="said <= 3.0\ngini = 0.5\nsamples = 7\nvalue = [5, 5]", fillcolor="#e5813900"] ;
9 -> 117 ;
118 [label="leaving <= 0.5\ngini = 0.41\nsamples = 5\nvalue = [2, 5]", fillcolor="#399de599"] ;
117 -> 118 ;
119 [label="gini = 0.0\nsamples = 4\nvalue = [0, 5]", fillcolor="#399de5ff"] ;
118 -> 119 ;
120 [label="gini = 0.0\nsamples = 1\nvalue = [2, 0]", fillcolor="#e58139ff"] ;
118 -> 120 ;
121 [label="gini = 0.0\nsamples = 2\nvalue = [3, 0]", fillcolor="#e58139ff"] ;
117 -> 121 ;
122 [label="gini = 0.0\nsamples = 1\nvalue = [2, 0]", fillcolor="#e58139ff"] ;
8 -> 122 ;
123 [label="take <= 0.5\ngini = 0.5\nsamples = 8\nvalue = [6, 7]", fillcolor="#399de524"] ;
7 -> 123 ;
124 [label="already <= 0.5\ngini = 0.38\nsamples = 4\nvalue = [6, 2]", fillcolor="#e58139aa"] ;
123 -> 124 ;
125 [label="money <= 2.5\ngini = 0.24\nsamples = 3\nvalue = [6, 1]", fillcolor="#e58139d4"] ;
124 -> 125 ;
126 [label="gini = 0.0\nsamples = 2\nvalue = [6, 0]", fillcolor="#e58139ff"] ;
125 -> 126 ;
127 [label="gini = 0.0\nsamples = 1\nvalue = [0, 1]", fillcolor="#399de5ff"] ;
125 -> 127 ;
128 [label="gini = 0.0\nsamples = 1\nvalue = [0, 1]", fillcolor="#399de5ff"] ;
124 -> 128 ;
129 [label="gini = 0.0\nsamples = 4\nvalue = [0, 5]", fillcolor="#399de5ff"] ;
123 -> 129 ;
130 [label="gini = 0.0\nsamples = 2\nvalue = [3, 0]", fillcolor="#e58139ff"] ;
6 -> 130 ;
131 [label="cannot <= 0.5\ngini = 0.45\nsamples = 42\nvalue = [39, 21]", fillcolor="#e5813976"] ;
5 -> 131 ;
132 [label="opinions <= 0.5\ngini = 0.38\nsamples = 35\nvalue = [37, 13]", fillcolor="#e58139a5"] ;
131 -> 132 ;
133 [label="nothing <= 1.5\ngini = 0.35\nsamples = 34\nvalue = [37, 11]", fillcolor="#e58139b3"] ;
132 -> 133 ;
134 [label="even <= 0.5\ngini = 0.31\nsamples = 33\nvalue = [37, 9]", fillcolor="#e58139c1"] ;
133 -> 134 ;
135 [label="us <= 0.5\ngini = 0.5\nsamples = 13\nvalue = [10, 9]", fillcolor="#e5813919"] ;
134 -> 135 ;
136 [label="email <= 0.5\ngini = 0.36\nsamples = 9\nvalue = [10, 3]", fillcolor="#e58139b3"] ;
135 -> 136 ;
137 [label="gini = 0.0\nsamples = 8\nvalue = [10, 0]", fillcolor="#e58139ff"] ;
136 -> 137 ;
138 [label="gini = 0.0\nsamples = 1\nvalue = [0, 3]", fillcolor="#399de5ff"] ;
136 -> 138 ;
139 [label="gini = 0.0\nsamples = 4\nvalue = [0, 6]", fillcolor="#399de5ff"] ;
135 -> 139 ;
140 [label="gini = 0.0\nsamples = 20\nvalue = [27, 0]", fillcolor="#e58139ff"] ;
134 -> 140 ;
141 [label="gini = 0.0\nsamples = 1\nvalue = [0, 2]", fillcolor="#399de5ff"] ;
133 -> 141 ;
142 [label="gini = 0.0\nsamples = 1\nvalue = [0, 2]", fillcolor="#399de5ff"] ;
132 -> 142 ;
143 [label="become <= 0.5\ngini = 0.32\nsamples = 7\nvalue = [2, 8]", fillcolor="#399de5bf"] ;
131 -> 143 ;
144 [label="throw <= 0.5\ngini = 0.44\nsamples = 3\nvalue = [2, 1]", fillcolor="#e581397f"] ;
143 -> 144 ;
145 [label="gini = 0.0\nsamples = 2\nvalue = [2, 0]", fillcolor="#e58139ff"] ;
144 -> 145 ;
146 [label="gini = 0.0\nsamples = 1\nvalue = [0, 1]", fillcolor="#399de5ff"] ;
144 -> 146 ;
147 [label="gini = 0.0\nsamples = 4\nvalue = [0, 7]", fillcolor="#399de5ff"] ;
143 -> 147 ;
148 [label="speaker <= 0.5\ngini = 0.47\nsamples = 106\nvalue = [60, 96]", fillcolor="#399de560"] ;
4 -> 148 ;
149 [label="ms <= 0.5\ngini = 0.46\nsamples = 101\nvalue = [52, 95]", fillcolor="#399de573"] ;
148 -> 149 ;
150 [label="diplomatic <= 0.5\ngini = 0.41\nsamples = 92\nvalue = [38, 94]", fillcolor="#399de598"] ;
149 -> 150 ;
151 [label="voted <= 4.0\ngini = 0.38\nsamples = 88\nvalue = [33, 94]", fillcolor="#399de5a5"] ;
150 -> 151 ;
152 [label="two <= 0.5\ngini = 0.37\nsamples = 87\nvalue = [31, 94]", fillcolor="#399de5ab"] ;
151 -> 152 ;
153 [label="wonder <= 0.5\ngini = 0.48\nsamples = 37\nvalue = [21, 30]", fillcolor="#399de54d"] ;
152 -> 153 ;
154 [label="senior <= 0.5\ngini = 0.47\nsamples = 36\nvalue = [18, 30]", fillcolor="#399de566"] ;
153 -> 154 ;
155 [label="follow <= 0.5\ngini = 0.43\nsamples = 32\nvalue = [14, 30]", fillcolor="#399de588"] ;
154 -> 155 ;
156 [label="unable <= 0.5\ngini = 0.23\nsamples = 23\nvalue = [4, 26]", fillcolor="#399de5d8"] ;
155 -> 156 ;
157 [label="touched <= 0.5\ngini = 0.19\nsamples = 22\nvalue = [3, 26]", fillcolor="#399de5e2"] ;
156 -> 157 ;
158 [label="voice <= 0.5\ngini = 0.13\nsamples = 21\nvalue = [2, 26]", fillcolor="#399de5eb"] ;
157 -> 158 ;
159 [label="officials <= 0.5\ngini = 0.07\nsamples = 20\nvalue = [1, 26]", fillcolor="#399de5f5"] ;
158 -> 159 ;
160 [label="well <= 0.5\ngini = 0.09\nsamples = 16\nvalue = [1, 20]", fillcolor="#399de5f2"] ;
159 -> 160 ;
161 [label="gini = 0.0\nsamples = 12\nvalue = [0, 16]", fillcolor="#399de5ff"] ;
160 -> 161 ;
162 [label="tiny <= 1.0\ngini = 0.32\nsamples = 4\nvalue = [1, 4]", fillcolor="#399de5bf"] ;
160 -> 162 ;
163 [label="gini = 0.0\nsamples = 3\nvalue = [0, 4]", fillcolor="#399de5ff"] ;
162 -> 163 ;
164 [label="gini = 0.0\nsamples = 1\nvalue = [1, 0]", fillcolor="#e58139ff"] ;
162 -> 164 ;
165 [label="gini = 0.0\nsamples = 4\nvalue = [0, 6]", fillcolor="#399de5ff"] ;
159 -> 165 ;
166 [label="gini = 0.0\nsamples = 1\nvalue = [1, 0]", fillcolor="#e58139ff"] ;
158 -> 166 ;
167 [label="gini = 0.0\nsamples = 1\nvalue = [1, 0]", fillcolor="#e58139ff"] ;
157 -> 167 ;
168 [label="gini = 0.0\nsamples = 1\nvalue = [1, 0]", fillcolor="#e58139ff"] ;
156 -> 168 ;
169 [label="suppress <= 1.0\ngini = 0.41\nsamples = 9\nvalue = [10, 4]", fillcolor="#e5813999"] ;
155 -> 169 ;
170 [label="support <= 1.5\ngini = 0.28\nsamples = 8\nvalue = [10, 2]", fillcolor="#e58139cc"] ;
169 -> 170 ;
171 [label="paper <= 0.5\ngini = 0.17\nsamples = 7\nvalue = [10, 1]", fillcolor="#e58139e6"] ;
170 -> 171 ;
172 [label="gini = 0.0\nsamples = 6\nvalue = [10, 0]", fillcolor="#e58139ff"] ;
171 -> 172 ;
173 [label="gini = 0.0\nsamples = 1\nvalue = [0, 1]", fillcolor="#399de5ff"] ;
171 -> 173 ;
174 [label="gini = 0.0\nsamples = 1\nvalue = [0, 1]", fillcolor="#399de5ff"] ;
170 -> 174 ;
175 [label="gini = 0.0\nsamples = 1\nvalue = [0, 2]", fillcolor="#399de5ff"] ;
169 -> 175 ;
176 [label="gini = 0.0\nsamples = 4\nvalue = [4, 0]", fillcolor="#e58139ff"] ;
154 -> 176 ;
177 [label="gini = 0.0\nsamples = 1\nvalue = [3, 0]", fillcolor="#e58139ff"] ;
153 -> 177 ;
178 [label="instance <= 0.5\ngini = 0.23\nsamples = 50\nvalue = [10, 64]", fillcolor="#399de5d7"] ;
152 -> 178 ;
179 [label="delay <= 0.5\ngini = 0.22\nsamples = 49\nvalue = [9, 64]", fillcolor="#399de5db"] ;
178 -> 179 ;
180 [label="civil <= 0.5\ngini = 0.18\nsamples = 48\nvalue = [7, 64]", fillcolor="#399de5e3"] ;
179 -> 180 ;
181 [label="count <= 0.5\ngini = 0.12\nsamples = 44\nvalue = [4, 61]", fillcolor="#399de5ee"] ;
180 -> 181 ;
182 [label="relatives <= 0.5\ngini = 0.09\nsamples = 43\nvalue = [3, 61]", fillcolor="#399de5f2"] ;
181 -> 182 ;
183 [label="sons <= 0.5\ngini = 0.06\nsamples = 42\nvalue = [2, 61]", fillcolor="#399de5f7"] ;
182 -> 183 ;
184 [label="night <= 2.0\ngini = 0.03\nsamples = 41\nvalue = [1, 61]", fillcolor="#399de5fb"] ;
183 -> 184 ;
185 [label="gini = 0.0\nsamples = 39\nvalue = [0, 59]", fillcolor="#399de5ff"] ;
184 -> 185 ;
186 [label="class <= 0.5\ngini = 0.44\nsamples = 2\nvalue = [1, 2]", fillcolor="#399de57f"] ;
184 -> 186 ;
187 [label="gini = 0.0\nsamples = 1\nvalue = [0, 2]", fillcolor="#399de5ff"] ;
186 -> 187 ;
188 [label="gini = 0.0\nsamples = 1\nvalue = [1, 0]", fillcolor="#e58139ff"] ;
186 -> 188 ;
189 [label="gini = 0.0\nsamples = 1\nvalue = [1, 0]", fillcolor="#e58139ff"] ;
183 -> 189 ;
190 [label="gini = 0.0\nsamples = 1\nvalue = [1, 0]", fillcolor="#e58139ff"] ;
182 -> 190 ;
191 [label="gini = 0.0\nsamples = 1\nvalue = [1, 0]", fillcolor="#e58139ff"] ;
181 -> 191 ;
192 [label="given <= 0.5\ngini = 0.5\nsamples = 4\nvalue = [3, 3]", fillcolor="#e5813900"] ;
180 -> 192 ;
193 [label="gini = 0.0\nsamples = 2\nvalue = [3, 0]", fillcolor="#e58139ff"] ;
192 -> 193 ;
194 [label="gini = 0.0\nsamples = 2\nvalue = [0, 3]", fillcolor="#399de5ff"] ;
192 -> 194 ;
195 [label="gini = 0.0\nsamples = 1\nvalue = [2, 0]", fillcolor="#e58139ff"] ;
179 -> 195 ;
196 [label="gini = 0.0\nsamples = 1\nvalue = [1, 0]", fillcolor="#e58139ff"] ;
178 -> 196 ;
197 [label="gini = 0.0\nsamples = 1\nvalue = [2, 0]", fillcolor="#e58139ff"] ;
151 -> 197 ;
198 [label="gini = 0.0\nsamples = 4\nvalue = [5, 0]", fillcolor="#e58139ff"] ;
150 -> 198 ;
199 [label="wall <= 1.0\ngini = 0.12\nsamples = 9\nvalue = [14, 1]", fillcolor="#e58139ed"] ;
149 -> 199 ;
200 [label="gini = 0.0\nsamples = 8\nvalue = [14, 0]", fillcolor="#e58139ff"] ;
199 -> 200 ;
201 [label="gini = 0.0\nsamples = 1\nvalue = [0, 1]", fillcolor="#399de5ff"] ;
199 -> 201 ;
202 [label="manufacturing <= 0.5\ngini = 0.2\nsamples = 5\nvalue = [8, 1]", fillcolor="#e58139df"] ;
148 -> 202 ;
203 [label="gini = 0.0\nsamples = 4\nvalue = [8, 0]", fillcolor="#e58139ff"] ;
202 -> 203 ;
204 [label="gini = 0.0\nsamples = 1\nvalue = [0, 1]", fillcolor="#399de5ff"] ;
202 -> 204 ;
205 [label="gini = 0.0\nsamples = 4\nvalue = [8, 0]", fillcolor="#e58139ff"] ;
3 -> 205 ;
206 [label="currency <= 3.5\ngini = 0.47\nsamples = 10\nvalue = [12, 7]", fillcolor="#e581396a"] ;
2 -> 206 ;
207 [label="wake <= 0.5\ngini = 0.38\nsamples = 9\nvalue = [12, 4]", fillcolor="#e58139aa"] ;
206 -> 207 ;
208 [label="block <= 0.5\ngini = 0.14\nsamples = 7\nvalue = [12, 1]", fillcolor="#e58139ea"] ;
207 -> 208 ;
209 [label="position <= 0.5\ngini = 0.24\nsamples = 5\nvalue = [6, 1]", fillcolor="#e58139d4"] ;
208 -> 209 ;
210 [label="found <= 0.5\ngini = 0.32\nsamples = 4\nvalue = [4, 1]", fillcolor="#e58139bf"] ;
209 -> 210 ;
211 [label="honor <= 0.5\ngini = 0.44\nsamples = 2\nvalue = [2, 1]", fillcolor="#e581397f"] ;
210 -> 211 ;
212 [label="gini = 0.0\nsamples = 1\nvalue = [0, 1]", fillcolor="#399de5ff"] ;
211 -> 212 ;
213 [label="gini = 0.0\nsamples = 1\nvalue = [2, 0]", fillcolor="#e58139ff"] ;
211 -> 213 ;
214 [label="gini = 0.0\nsamples = 2\nvalue = [2, 0]", fillcolor="#e58139ff"] ;
210 -> 214 ;
215 [label="gini = 0.0\nsamples = 1\nvalue = [2, 0]", fillcolor="#e58139ff"] ;
209 -> 215 ;
216 [label="gini = 0.0\nsamples = 2\nvalue = [6, 0]", fillcolor="#e58139ff"] ;
208 -> 216 ;
217 [label="gini = 0.0\nsamples = 2\nvalue = [0, 3]", fillcolor="#399de5ff"] ;
207 -> 217 ;
218 [label="gini = 0.0\nsamples = 1\nvalue = [0, 3]", fillcolor="#399de5ff"] ;
206 -> 218 ;
219 [label="honest <= 0.5\ngini = 0.33\nsamples = 17\nvalue = [19, 5]", fillcolor="#e58139bc"] ;
1 -> 219 ;
220 [label="inside <= 1.0\ngini = 0.24\nsamples = 15\nvalue = [18, 3]", fillcolor="#e58139d4"] ;
219 -> 220 ;
221 [label="spring <= 0.5\ngini = 0.18\nsamples = 14\nvalue = [18, 2]", fillcolor="#e58139e3"] ;
220 -> 221 ;
222 [label="spot <= 1.0\ngini = 0.1\nsamples = 13\nvalue = [18, 1]", fillcolor="#e58139f1"] ;
221 -> 222 ;
223 [label="gini = 0.0\nsamples = 12\nvalue = [18, 0]", fillcolor="#e58139ff"] ;
222 -> 223 ;
224 [label="gini = 0.0\nsamples = 1\nvalue = [0, 1]", fillcolor="#399de5ff"] ;
222 -> 224 ;
225 [label="gini = 0.0\nsamples = 1\nvalue = [0, 1]", fillcolor="#399de5ff"] ;
221 -> 225 ;
226 [label="gini = 0.0\nsamples = 1\nvalue = [0, 1]", fillcolor="#399de5ff"] ;
220 -> 226 ;
227 [label="appointment <= 0.5\ngini = 0.44\nsamples = 2\nvalue = [1, 2]", fillcolor="#399de57f"] ;
219 -> 227 ;
228 [label="gini = 0.0\nsamples = 1\nvalue = [0, 2]", fillcolor="#399de5ff"] ;
227 -> 228 ;
229 [label="gini = 0.0\nsamples = 1\nvalue = [1, 0]", fillcolor="#e58139ff"] ;
227 -> 229 ;
230 [label="possession <= 0.5\ngini = 0.49\nsamples = 24\nvalue = [19, 15]", fillcolor="#e5813936"] ;
0 -> 230 [labeldistance=2.5, labelangle=-45, headlabel="False"] ;
231 [label="russians <= 0.5\ngini = 0.42\nsamples = 21\nvalue = [19, 8]", fillcolor="#e5813994"] ;
230 -> 231 ;
232 [label="like <= 1.5\ngini = 0.36\nsamples = 19\nvalue = [19, 6]", fillcolor="#e58139ae"] ;
231 -> 232 ;
233 [label="learn <= 0.5\ngini = 0.5\nsamples = 8\nvalue = [6, 6]", fillcolor="#e5813900"] ;
232 -> 233 ;
234 [label="director <= 0.5\ngini = 0.48\nsamples = 6\nvalue = [6, 4]", fillcolor="#e5813955"] ;
233 -> 234 ;
235 [label="gini = 0.0\nsamples = 4\nvalue = [0, 4]", fillcolor="#399de5ff"] ;
234 -> 235 ;
236 [label="gini = 0.0\nsamples = 2\nvalue = [6, 0]", fillcolor="#e58139ff"] ;
234 -> 236 ;
237 [label="gini = 0.0\nsamples = 2\nvalue = [0, 2]", fillcolor="#399de5ff"] ;
233 -> 237 ;
238 [label="gini = 0.0\nsamples = 11\nvalue = [13, 0]", fillcolor="#e58139ff"] ;
232 -> 238 ;
239 [label="gini = 0.0\nsamples = 2\nvalue = [0, 2]", fillcolor="#399de5ff"] ;
231 -> 239 ;
240 [label="gini = 0.0\nsamples = 3\nvalue = [0, 7]", fillcolor="#399de5ff"] ;
230 -> 240 ;
}