digraph Tree {
node [shape=box, style="filled, rounded", color="black", fontname=helvetica] ;
edge [fontname=helvetica] ;
0 [label="school <= 0.5\ngini = 0.38\nsamples = 649\nvalue = [748, 252]", fillcolor="#e58139a9"] ;
1 [label="official <= 3.5\ngini = 0.4\nsamples = 563\nvalue = [627, 242]", fillcolor="#e581399d"] ;
0 -> 1 [labeldistance=2.5, labelangle=45, headlabel="True"] ;
2 [label="http <= 0.5\ngini = 0.39\nsamples = 555\nvalue = [624, 231]", fillcolor="#e58139a1"] ;
1 -> 2 ;
3 [label="mr <= 0.5\ngini = 0.38\nsamples = 547\nvalue = [624, 216]", fillcolor="#e58139a7"] ;
2 -> 3 ;
4 [label="near <= 0.5\ngini = 0.48\nsamples = 340\nvalue = [318, 203]", fillcolor="#e581395c"] ;
3 -> 4 ;
5 [label="tuesday <= 0.5\ngini = 0.47\nsamples = 314\nvalue = [304, 180]", fillcolor="#e5813968"] ;
4 -> 5 ;
6 [label="oil <= 0.5\ngini = 0.48\nsamples = 288\nvalue = [266, 175]", fillcolor="#e5813957"] ;
5 -> 6 ;
7 [label="rigged <= 0.5\ngini = 0.47\nsamples = 284\nvalue = [266, 166]", fillcolor="#e5813960"] ;
6 -> 7 ;
8 [label="conference <= 0.5\ngini = 0.47\nsamples = 277\nvalue = [265, 158]", fillcolor="#e5813967"] ;
7 -> 8 ;
9 [label="renewed <= 0.5\ngini = 0.48\nsamples = 266\nvalue = [249, 158]", fillcolor="#e581395d"] ;
8 -> 9 ;
10 [label="pic <= 0.5\ngini = 0.47\nsamples = 263\nvalue = [249, 148]", fillcolor="#e5813967"] ;
9 -> 10 ;
11 [label="share <= 0.5\ngini = 0.48\nsamples = 248\nvalue = [224, 148]", fillcolor="#e5813957"] ;
10 -> 11 ;
12 [label="motion <= 0.5\ngini = 0.46\nsamples = 227\nvalue = [214, 123]", fillcolor="#e581396c"] ;
11 -> 12 ;
13 [label="act <= 3.5\ngini = 0.46\nsamples = 223\nvalue = [213, 116]", fillcolor="#e5813974"] ;
12 -> 13 ;
14 [label="progressive <= 0.5\ngini = 0.45\nsamples = 221\nvalue = [213, 111]", fillcolor="#e581397a"] ;
13 -> 14 ;
15 [label="vaccine <= 4.5\ngini = 0.44\nsamples = 214\nvalue = [212, 104]", fillcolor="#e5813982"] ;
14 -> 15 ;
16 [label="twitter <= 0.5\ngini = 0.44\nsamples = 212\nvalue = [212, 101]", fillcolor="#e5813986"] ;
15 -> 16 ;
17 [label="big <= 0.5\ngini = 0.5\nsamples = 135\nvalue = [102, 99]", fillcolor="#e5813908"] ;
16 -> 17 ;
18 [label="replacement <= 0.5\ngini = 0.5\nsamples = 122\nvalue = [86, 95]", fillcolor="#399de518"] ;
17 -> 18 ;
19 [label="felt <= 0.5\ngini = 0.5\nsamples = 118\nvalue = [79, 95]", fillcolor="#399de52b"] ;
18 -> 19 ;
20 [label="university <= 1.5\ngini = 0.49\nsamples = 108\nvalue = [65, 90]", fillcolor="#399de547"] ;
19 -> 20 ;
21 [label="based <= 0.5\ngini = 0.47\nsamples = 104\nvalue = [57, 90]", fillcolor="#399de55e"] ;
20 -> 21 ;
22 [label="working <= 0.5\ngini = 0.46\nsamples = 98\nvalue = [50, 88]", fillcolor="#399de56e"] ;
21 -> 22 ;
23 [label="vehicles <= 0.5\ngini = 0.43\nsamples = 89\nvalue = [39, 83]", fillcolor="#399de587"] ;
22 -> 23 ;
24 [label="temporarily <= 0.5\ngini = 0.42\nsamples = 87\nvalue = [35, 83]", fillcolor="#399de593"] ;
23 -> 24 ;
25 [label="political <= 0.5\ngini = 0.4\nsamples = 85\nvalue = [32, 83]", fillcolor="#399de59d"] ;
24 -> 25 ;
26 [label="everyone <= 0.5\ngini = 0.37\nsamples = 76\nvalue = [25, 79]", fillcolor="#399de5ae"] ;
25 -> 26 ;
27 [label="minor <= 0.5\ngini = 0.31\nsamples = 69\nvalue = [18, 76]", fillcolor="#399de5c3"] ;
26 -> 27 ;
28 [label="maybe <= 0.5\ngini = 0.28\nsamples = 68\nvalue = [15, 76]", fillcolor="#399de5cd"] ;
27 -> 28 ;
29 [label="describing <= 0.5\ngini = 0.25\nsamples = 66\nvalue = [13, 76]", fillcolor="#399de5d3"] ;
28 -> 29 ;
30 [label="appeal <= 1.0\ngini = 0.22\nsamples = 65\nvalue = [11, 76]", fillcolor="#399de5da"] ;
29 -> 30 ;
31 [label="subsidies <= 0.5\ngini = 0.19\nsamples = 63\nvalue = [9, 75]", fillcolor="#399de5e0"] ;
30 -> 31 ;
32 [label="impact <= 0.5\ngini = 0.16\nsamples = 61\nvalue = [7, 75]", fillcolor="#399de5e7"] ;
31 -> 32 ;
33 [label="london <= 0.5\ngini = 0.12\nsamples = 59\nvalue = [5, 74]", fillcolor="#399de5ee"] ;
32 -> 33 ;
34 [label="quite <= 0.5\ngini = 0.1\nsamples = 58\nvalue = [4, 74]", fillcolor="#399de5f1"] ;
33 -> 34 ;
35 [label="union <= 0.5\ngini = 0.05\nsamples = 55\nvalue = [2, 72]", fillcolor="#399de5f8"] ;
34 -> 35 ;
36 [label="photograph <= 0.5\ngini = 0.03\nsamples = 52\nvalue = [1, 69]", fillcolor="#399de5fb"] ;
35 -> 36 ;
37 [label="gini = 0.0\nsamples = 51\nvalue = [0, 69]", fillcolor="#399de5ff"] ;
36 -> 37 ;
38 [label="gini = 0.0\nsamples = 1\nvalue = [1, 0]", fillcolor="#e58139ff"] ;
36 -> 38 ;
39 [label="advertisement <= 0.5\ngini = 0.38\nsamples = 3\nvalue = [1, 3]", fillcolor="#399de5aa"] ;
35 -> 39 ;
40 [label="gini = 0.0\nsamples = 2\nvalue = [0, 3]", fillcolor="#399de5ff"] ;
39 -> 40 ;
41 [label="gini = 0.0\nsamples = 1\nvalue = [1, 0]", fillcolor="#e58139ff"] ;
39 -> 41 ;
42 [label="entire <= 0.5\ngini = 0.5\nsamples = 3\nvalue = [2, 2]", fillcolor="#e5813900"] ;
34 -> 42 ;
43 [label="gini = 0.0\nsamples = 2\nvalue = [2, 0]", fillcolor="#e58139ff"] ;
42 -> 43 ;
44 [label="gini = 0.0\nsamples = 1\nvalue = [0, 2]", fillcolor="#399de5ff"] ;
42 -> 44 ;
45 [label="gini = 0.0\nsamples = 1\nvalue = [1, 0]", fillcolor="#e58139ff"] ;
33 -> 45 ;
46 [label="tell <= 0.5\ngini = 0.44\nsamples = 2\nvalue = [2, 1]", fillcolor="#e581397f"] ;
32 -> 46 ;
47 [label="gini = 0.0\nsamples = 1\nvalue = [2, 0]", fillcolor="#e58139ff"] ;
46 -> 47 ;
48 [label="gini = 0.0\nsamples = 1\nvalue = [0, 1]", fillcolor="#399de5ff"] ;
46 -> 48 ;
49 [label="gini = 0.0\nsamples = 2\nvalue = [2, 0]", fillcolor="#e58139ff"] ;
31 -> 49 ;
50 [label="reasons <= 0.5\ngini = 0.44\nsamples = 2\nvalue = [2, 1]", fillcolor="#e581397f"] ;
30 -> 50 ;
51 [label="gini = 0.0\nsamples = 1\nvalue = [2, 0]", fillcolor="#e58139ff"] ;
50 -> 51 ;
52 [label="gini = 0.0\nsamples = 1\nvalue = [0, 1]", fillcolor="#399de5ff"] ;
50 -> 52 ;
53 [label="gini = 0.0\nsamples = 1\nvalue = [2, 0]", fillcolor="#e58139ff"] ;
29 -> 53 ;
54 [label="gini = 0.0\nsamples = 2\nvalue = [2, 0]", fillcolor="#e58139ff"] ;
28 -> 54 ;
55 [label="gini = 0.0\nsamples = 1\nvalue = [3, 0]", fillcolor="#e58139ff"] ;
27 -> 55 ;
56 [label="sovereignty <= 0.5\ngini = 0.42\nsamples = 7\nvalue = [7, 3]", fillcolor="#e5813992"] ;
26 -> 56 ;
57 [label="nearly <= 0.5\ngini = 0.35\nsamples = 6\nvalue = [7, 2]", fillcolor="#e58139b6"] ;
56 -> 57 ;
58 [label="see <= 0.5\ngini = 0.22\nsamples = 5\nvalue = [7, 1]", fillcolor="#e58139db"] ;
57 -> 58 ;
59 [label="gini = 0.0\nsamples = 2\nvalue = [3, 0]", fillcolor="#e58139ff"] ;
58 -> 59 ;
60 [label="guardian <= 0.5\ngini = 0.32\nsamples = 3\nvalue = [4, 1]", fillcolor="#e58139bf"] ;
58 -> 60 ;
61 [label="gini = 0.0\nsamples = 2\nvalue = [4, 0]", fillcolor="#e58139ff"] ;
60 -> 61 ;
62 [label="gini = 0.0\nsamples = 1\nvalue = [0, 1]", fillcolor="#399de5ff"] ;
60 -> 62 ;
63 [label="gini = 0.0\nsamples = 1\nvalue = [0, 1]", fillcolor="#399de5ff"] ;
57 -> 63 ;
64 [label="gini = 0.0\nsamples = 1\nvalue = [0, 1]", fillcolor="#399de5ff"] ;
56 -> 64 ;
65 [label="promises <= 0.5\ngini = 0.46\nsamples = 9\nvalue = [7, 4]", fillcolor="#e581396d"] ;
25 -> 65 ;
66 [label="invited <= 0.5\ngini = 0.5\nsamples = 7\nvalue = [4, 4]", fillcolor="#e5813900"] ;
65 -> 66 ;
67 [label="advisers <= 1.0\ngini = 0.32\nsamples = 5\nvalue = [1, 4]", fillcolor="#399de5bf"] ;
66 -> 67 ;
68 [label="gini = 0.0\nsamples = 4\nvalue = [0, 4]", fillcolor="#399de5ff"] ;
67 -> 68 ;
69 [label="gini = 0.0\nsamples = 1\nvalue = [1, 0]", fillcolor="#e58139ff"] ;
67 -> 69 ;
70 [label="gini = 0.0\nsamples = 2\nvalue = [3, 0]", fillcolor="#e58139ff"] ;
66 -> 70 ;
71 [label="gini = 0.0\nsamples = 2\nvalue = [3, 0]", fillcolor="#e58139ff"] ;
65 -> 71 ;
72 [label="gini = 0.0\nsamples = 2\nvalue = [3, 0]", fillcolor="#e58139ff"] ;
24 -> 72 ;
73 [label="gini = 0.0\nsamples = 2\nvalue = [4, 0]", fillcolor="#e58139ff"] ;
23 -> 73 ;
74 [label="country <= 0.5\ngini = 0.43\nsamples = 9\nvalue = [11, 5]", fillcolor="#e581398b"] ;
22 -> 74 ;
75 [label="smith <= 0.5\ngini = 0.49\nsamples = 6\nvalue = [4, 5]", fillcolor="#399de533"] ;
74 -> 75 ;
76 [label="issued <= 0.5\ngini = 0.41\nsamples = 5\nvalue = [2, 5]", fillcolor="#399de599"] ;
75 -> 76 ;
77 [label="end <= 0.5\ngini = 0.28\nsamples = 4\nvalue = [1, 5]", fillcolor="#399de5cc"] ;
76 -> 77 ;
78 [label="gini = 0.0\nsamples = 3\nvalue = [0, 5]", fillcolor="#399de5ff"] ;
77 -> 78 ;
79 [label="gini = 0.0\nsamples = 1\nvalue = [1, 0]", fillcolor="#e58139ff"] ;
77 -> 79 ;
80 [label="gini = 0.0\nsamples = 1\nvalue = [1, 0]", fillcolor="#e58139ff"] ;
76 -> 80 ;
81 [label="gini = 0.0\nsamples = 1\nvalue = [2, 0]", fillcolor="#e58139ff"] ;
75 -> 81 ;
82 [label="gini = 0.0\nsamples = 3\nvalue = [7, 0]", fillcolor="#e58139ff"] ;
74 -> 82 ;
83 [label="lives <= 0.5\ngini = 0.35\nsamples = 6\nvalue = [7, 2]", fillcolor="#e58139b6"] ;
21 -> 83 ;
84 [label="involved <= 0.5\ngini = 0.22\nsamples = 5\nvalue = [7, 1]", fillcolor="#e58139db"] ;
83 -> 84 ;
85 [label="gini = 0.0\nsamples = 4\nvalue = [7, 0]", fillcolor="#e58139ff"] ;
84 -> 85 ;
86 [label="gini = 0.0\nsamples = 1\nvalue = [0, 1]", fillcolor="#399de5ff"] ;
84 -> 86 ;
87 [label="gini = 0.0\nsamples = 1\nvalue = [0, 1]", fillcolor="#399de5ff"] ;
83 -> 87 ;
88 [label="gini = 0.0\nsamples = 4\nvalue = [8, 0]", fillcolor="#e58139ff"] ;
20 -> 88 ;
89 [label="chair <= 0.5\ngini = 0.39\nsamples = 10\nvalue = [14, 5]", fillcolor="#e58139a4"] ;
19 -> 89 ;
90 [label="therefore <= 0.5\ngini = 0.12\nsamples = 9\nvalue = [14, 1]", fillcolor="#e58139ed"] ;
89 -> 90 ;
91 [label="gini = 0.0\nsamples = 8\nvalue = [14, 0]", fillcolor="#e58139ff"] ;
90 -> 91 ;
92 [label="gini = 0.0\nsamples = 1\nvalue = [0, 1]", fillcolor="#399de5ff"] ;
90 -> 92 ;
93 [label="gini = 0.0\nsamples = 1\nvalue = [0, 4]", fillcolor="#399de5ff"] ;
89 -> 93 ;
94 [label="gini = 0.0\nsamples = 4\nvalue = [7, 0]", fillcolor="#e58139ff"] ;
18 -> 94 ;
95 [label="four <= 0.5\ngini = 0.32\nsamples = 13\nvalue = [16, 4]", fillcolor="#e58139bf"] ;
17 -> 95 ;
96 [label="fighting <= 0.5\ngini = 0.46\nsamples = 9\nvalue = [7, 4]", fillcolor="#e581396d"] ;
95 -> 96 ;
97 [label="power <= 0.5\ngini = 0.42\nsamples = 8\nvalue = [7, 3]", fillcolor="#e5813992"] ;
96 -> 97 ;
98 [label="gini = 0.0\nsamples = 6\nvalue = [7, 0]", fillcolor="#e58139ff"] ;
97 -> 98 ;
99 [label="gini = 0.0\nsamples = 2\nvalue = [0, 3]", fillcolor="#399de5ff"] ;
97 -> 99 ;
100 [label="gini = 0.0\nsamples = 1\nvalue = [0, 1]", fillcolor="#399de5ff"] ;
96 -> 100 ;
101 [label="gini = 0.0\nsamples = 4\nvalue = [9, 0]", fillcolor="#e58139ff"] ;
95 -> 101 ;
102 [label="offended <= 0.5\ngini = 0.04\nsamples = 77\nvalue = [110, 2]", fillcolor="#e58139fa"] ;
16 -> 102 ;
103 [label="private <= 0.5\ngini = 0.02\nsamples = 75\nvalue = [109, 1]", fillcolor="#e58139fd"] ;
102 -> 103 ;
104 [label="gini = 0.0\nsamples = 73\nvalue = [108, 0]", fillcolor="#e58139ff"] ;
103 -> 104 ;
105 [label="political <= 0.5\ngini = 0.5\nsamples = 2\nvalue = [1, 1]", fillcolor="#e5813900"] ;
103 -> 105 ;
106 [label="gini = 0.0\nsamples = 1\nvalue = [0, 1]", fillcolor="#399de5ff"] ;
105 -> 106 ;
107 [label="gini = 0.0\nsamples = 1\nvalue = [1, 0]", fillcolor="#e58139ff"] ;
105 -> 107 ;
108 [label="trump <= 5.5\ngini = 0.5\nsamples = 2\nvalue = [1, 1]", fillcolor="#e5813900"] ;
102 -> 108 ;
109 [label="gini = 0.0\nsamples = 1\nvalue = [1, 0]", fillcolor="#e58139ff"] ;
108 -> 109 ;
110 [label="gini = 0.0\nsamples = 1\nvalue = [0, 1]", fillcolor="#399de5ff"] ;
108 -> 110 ;
111 [label="gini = 0.0\nsamples = 2\nvalue = [0, 3]", fillcolor="#399de5ff"] ;
15 -> 111 ;
112 [label="soros <= 1.0\ngini = 0.22\nsamples = 7\nvalue = [1, 7]", fillcolor="#399de5db"] ;
14 -> 112 ;
113 [label="gini = 0.0\nsamples = 6\nvalue = [0, 7]", fillcolor="#399de5ff"] ;
112 -> 113 ;
114 [label="gini = 0.0\nsamples = 1\nvalue = [1, 0]", fillcolor="#e58139ff"] ;
112 -> 114 ;
115 [label="gini = 0.0\nsamples = 2\nvalue = [0, 5]", fillcolor="#399de5ff"] ;
13 -> 115 ;
116 [label="detention <= 4.0\ngini = 0.22\nsamples = 4\nvalue = [1, 7]", fillcolor="#399de5db"] ;
12 -> 116 ;
117 [label="gini = 0.0\nsamples = 3\nvalue = [0, 7]", fillcolor="#399de5ff"] ;
116 -> 117 ;
118 [label="gini = 0.0\nsamples = 1\nvalue = [1, 0]", fillcolor="#e58139ff"] ;
116 -> 118 ;
119 [label="command <= 1.0\ngini = 0.41\nsamples = 21\nvalue = [10, 25]", fillcolor="#399de599"] ;
11 -> 119 ;
120 [label="percent <= 10.5\ngini = 0.34\nsamples = 20\nvalue = [7, 25]", fillcolor="#399de5b8"] ;
119 -> 120 ;
121 [label="campaign <= 0.5\ngini = 0.28\nsamples = 19\nvalue = [5, 25]", fillcolor="#399de5cc"] ;
120 -> 121 ;
122 [label="answered <= 1.0\ngini = 0.42\nsamples = 12\nvalue = [5, 12]", fillcolor="#399de595"] ;
121 -> 122 ;
123 [label="citizenship <= 0.5\ngini = 0.32\nsamples = 11\nvalue = [3, 12]", fillcolor="#399de5bf"] ;
122 -> 123 ;
124 [label="singer <= 0.5\ngini = 0.14\nsamples = 10\nvalue = [1, 12]", fillcolor="#399de5ea"] ;
123 -> 124 ;
125 [label="gini = 0.0\nsamples = 9\nvalue = [0, 12]", fillcolor="#399de5ff"] ;
124 -> 125 ;
126 [label="gini = 0.0\nsamples = 1\nvalue = [1, 0]", fillcolor="#e58139ff"] ;
124 -> 126 ;
127 [label="gini = 0.0\nsamples = 1\nvalue = [2, 0]", fillcolor="#e58139ff"] ;
123 -> 127 ;
128 [label="gini = 0.0\nsamples = 1\nvalue = [2, 0]", fillcolor="#e58139ff"] ;
122 -> 128 ;
129 [label="gini = 0.0\nsamples = 7\nvalue = [0, 13]", fillcolor="#399de5ff"] ;
121 -> 129 ;
130 [label="gini = 0.0\nsamples = 1\nvalue = [2, 0]", fillcolor="#e58139ff"] ;
120 -> 130 ;
131 [label="gini = 0.0\nsamples = 1\nvalue = [3, 0]", fillcolor="#e58139ff"] ;
119 -> 131 ;
132 [label="gini = 0.0\nsamples = 15\nvalue = [25, 0]", fillcolor="#e58139ff"] ;
10 -> 132 ;
133 [label="gini = 0.0\nsamples = 3\nvalue = [0, 10]", fillcolor="#399de5ff"] ;
9 -> 133 ;
134 [label="gini = 0.0\nsamples = 11\nvalue = [16, 0]", fillcolor="#e58139ff"] ;
8 -> 134 ;
135 [label="simply <= 0.5\ngini = 0.2\nsamples = 7\nvalue = [1, 8]", fillcolor="#399de5df"] ;
7 -> 135 ;
136 [label="gini = 0.0\nsamples = 6\nvalue = [0, 8]", fillcolor="#399de5ff"] ;
135 -> 136 ;
137 [label="gini = 0.0\nsamples = 1\nvalue = [1, 0]", fillcolor="#e58139ff"] ;
135 -> 137 ;
138 [label="gini = 0.0\nsamples = 4\nvalue = [0, 9]", fillcolor="#399de5ff"] ;
6 -> 138 ;
139 [label="share <= 0.5\ngini = 0.21\nsamples = 26\nvalue = [38, 5]", fillcolor="#e58139dd"] ;
5 -> 139 ;
140 [label="despite <= 0.5\ngini = 0.05\nsamples = 24\nvalue = [36, 1]", fillcolor="#e58139f8"] ;
139 -> 140 ;
141 [label="gini = 0.0\nsamples = 21\nvalue = [33, 0]", fillcolor="#e58139ff"] ;
140 -> 141 ;
142 [label="example <= 0.5\ngini = 0.38\nsamples = 3\nvalue = [3, 1]", fillcolor="#e58139aa"] ;
140 -> 142 ;
143 [label="gini = 0.0\nsamples = 2\nvalue = [3, 0]", fillcolor="#e58139ff"] ;
142 -> 143 ;
144 [label="gini = 0.0\nsamples = 1\nvalue = [0, 1]", fillcolor="#399de5ff"] ;
142 -> 144 ;
145 [label="group <= 0.5\ngini = 0.44\nsamples = 2\nvalue = [2, 4]", fillcolor="#399de57f"] ;
139 -> 145 ;
146 [label="gini = 0.0\nsamples = 1\nvalue = [0, 4]", fillcolor="#399de5ff"] ;
145 -> 146 ;
147 [label="gini = 0.0\nsamples = 1\nvalue = [2, 0]", fillcolor="#e58139ff"] ;
145 -> 147 ;
148 [label="floor <= 0.5\ngini = 0.47\nsamples = 26\nvalue = [14, 23]", fillcolor="#399de564"] ;
4 -> 148 ;
149 [label="threatening <= 0.5\ngini = 0.44\nsamples = 23\nvalue = [11, 23]", fillcolor="#399de585"] ;
148 -> 149 ;
150 [label="give <= 0.5\ngini = 0.4\nsamples = 22\nvalue = [9, 23]", fillcolor="#399de59b"] ;
149 -> 150 ;
151 [label="israeli <= 1.5\ngini = 0.33\nsamples = 19\nvalue = [6, 23]", fillcolor="#399de5bc"] ;
150 -> 151 ;
152 [label="april <= 0.5\ngini = 0.29\nsamples = 18\nvalue = [5, 23]", fillcolor="#399de5c8"] ;
151 -> 152 ;
153 [label="strong <= 0.5\ngini = 0.15\nsamples = 16\nvalue = [2, 23]", fillcolor="#399de5e9"] ;
152 -> 153 ;
154 [label="federal <= 0.5\ngini = 0.08\nsamples = 14\nvalue = [1, 22]", fillcolor="#399de5f3"] ;
153 -> 154 ;
155 [label="gini = 0.0\nsamples = 12\nvalue = [0, 20]", fillcolor="#399de5ff"] ;
154 -> 155 ;
156 [label="card <= 0.5\ngini = 0.44\nsamples = 2\nvalue = [1, 2]", fillcolor="#399de57f"] ;
154 -> 156 ;
157 [label="gini = 0.0\nsamples = 1\nvalue = [1, 0]", fillcolor="#e58139ff"] ;
156 -> 157 ;
158 [label="gini = 0.0\nsamples = 1\nvalue = [0, 2]", fillcolor="#399de5ff"] ;
156 -> 158 ;
159 [label="gain <= 1.0\ngini = 0.5\nsamples = 2\nvalue = [1, 1]", fillcolor="#e5813900"] ;
153 -> 159 ;
160 [label="gini = 0.0\nsamples = 1\nvalue = [1, 0]", fillcolor="#e58139ff"] ;
159 -> 160 ;
161 [label="gini = 0.0\nsamples = 1\nvalue = [0, 1]", fillcolor="#399de5ff"] ;
159 -> 161 ;
162 [label="gini = 0.0\nsamples = 2\nvalue = [3, 0]", fillcolor="#e58139ff"] ;
152 -> 162 ;
163 [label="gini = 0.0\nsamples = 1\nvalue = [1, 0]", fillcolor="#e58139ff"] ;
151 -> 163 ;
164 [label="gini = 0.0\nsamples = 3\nvalue = [3, 0]", fillcolor="#e58139ff"] ;
150 -> 164 ;
165 [label="gini = 0.0\nsamples = 1\nvalue = [2, 0]", fillcolor="#e58139ff"] ;
149 -> 165 ;
166 [label="gini = 0.0\nsamples = 3\nvalue = [3, 0]", fillcolor="#e58139ff"] ;
148 -> 166 ;
167 [label="challenged <= 0.5\ngini = 0.08\nsamples = 207\nvalue = [306, 13]", fillcolor="#e58139f4"] ;
3 -> 167 ;
168 [label="revealing <= 0.5\ngini = 0.06\nsamples = 204\nvalue = [303, 10]", fillcolor="#e58139f7"] ;
167 -> 168 ;
169 [label="anthony <= 2.0\ngini = 0.04\nsamples = 200\nvalue = [301, 7]", fillcolor="#e58139f9"] ;
168 -> 169 ;
170 [label="water <= 0.5\ngini = 0.04\nsamples = 199\nvalue = [301, 6]", fillcolor="#e58139fa"] ;
169 -> 170 ;
171 [label="faith <= 1.5\ngini = 0.03\nsamples = 185\nvalue = [284, 4]", fillcolor="#e58139fb"] ;
170 -> 171 ;
172 [label="record <= 1.5\ngini = 0.02\nsamples = 184\nvalue = [284, 3]", fillcolor="#e58139fc"] ;
171 -> 172 ;
173 [label="often <= 0.5\ngini = 0.01\nsamples = 181\nvalue = [281, 2]", fillcolor="#e58139fd"] ;
172 -> 173 ;
174 [label="notice <= 0.5\ngini = 0.02\nsamples = 122\nvalue = [178, 2]", fillcolor="#e58139fc"] ;
173 -> 174 ;
175 [label="ever <= 0.5\ngini = 0.01\nsamples = 120\nvalue = [177, 1]", fillcolor="#e58139fe"] ;
174 -> 175 ;
176 [label="gini = 0.0\nsamples = 98\nvalue = [150, 0]", fillcolor="#e58139ff"] ;
175 -> 176 ;
177 [label="every <= 1.5\ngini = 0.07\nsamples = 22\nvalue = [27, 1]", fillcolor="#e58139f6"] ;
175 -> 177 ;
178 [label="gini = 0.0\nsamples = 17\nvalue = [23, 0]", fillcolor="#e58139ff"] ;
177 -> 178 ;
179 [label="became <= 1.0\ngini = 0.32\nsamples = 5\nvalue = [4, 1]", fillcolor="#e58139bf"] ;
177 -> 179 ;
180 [label="set <= 1.0\ngini = 0.44\nsamples = 3\nvalue = [2, 1]", fillcolor="#e581397f"] ;
179 -> 180 ;
181 [label="gini = 0.0\nsamples = 1\nvalue = [0, 1]", fillcolor="#399de5ff"] ;
180 -> 181 ;
182 [label="gini = 0.0\nsamples = 2\nvalue = [2, 0]", fillcolor="#e58139ff"] ;
180 -> 182 ;
183 [label="gini = 0.0\nsamples = 2\nvalue = [2, 0]", fillcolor="#e58139ff"] ;
179 -> 183 ;
184 [label="english <= 0.5\ngini = 0.5\nsamples = 2\nvalue = [1, 1]", fillcolor="#e5813900"] ;
174 -> 184 ;
185 [label="gini = 0.0\nsamples = 1\nvalue = [0, 1]", fillcolor="#399de5ff"] ;
184 -> 185 ;
186 [label="gini = 0.0\nsamples = 1\nvalue = [1, 0]", fillcolor="#e58139ff"] ;
184 -> 186 ;
187 [label="gini = 0.0\nsamples = 59\nvalue = [103, 0]", fillcolor="#e58139ff"] ;
173 -> 187 ;
188 [label="article <= 0.5\ngini = 0.38\nsamples = 3\nvalue = [3, 1]", fillcolor="#e58139aa"] ;
172 -> 188 ;
189 [label="gini = 0.0\nsamples = 2\nvalue = [3, 0]", fillcolor="#e58139ff"] ;
188 -> 189 ;
190 [label="gini = 0.0\nsamples = 1\nvalue = [0, 1]", fillcolor="#399de5ff"] ;
188 -> 190 ;
191 [label="gini = 0.0\nsamples = 1\nvalue = [0, 1]", fillcolor="#399de5ff"] ;
171 -> 191 ;
192 [label="shown <= 0.5\ngini = 0.19\nsamples = 14\nvalue = [17, 2]", fillcolor="#e58139e1"] ;
170 -> 192 ;
193 [label="joining <= 0.5\ngini = 0.1\nsamples = 13\nvalue = [17, 1]", fillcolor="#e58139f0"] ;
192 -> 193 ;
194 [label="gini = 0.0\nsamples = 12\nvalue = [17, 0]", fillcolor="#e58139ff"] ;
193 -> 194 ;
195 [label="gini = 0.0\nsamples = 1\nvalue = [0, 1]", fillcolor="#399de5ff"] ;
193 -> 195 ;
196 [label="gini = 0.0\nsamples = 1\nvalue = [0, 1]", fillcolor="#399de5ff"] ;
192 -> 196 ;
197 [label="gini = 0.0\nsamples = 1\nvalue = [0, 1]", fillcolor="#399de5ff"] ;
169 -> 197 ;
198 [label="also <= 0.5\ngini = 0.48\nsamples = 4\nvalue = [2, 3]", fillcolor="#399de555"] ;
168 -> 198 ;
199 [label="gini = 0.0\nsamples = 1\nvalue = [1, 0]", fillcolor="#e58139ff"] ;
198 -> 199 ;
200 [label="demonstrate <= 0.5\ngini = 0.38\nsamples = 3\nvalue = [1, 3]", fillcolor="#399de5aa"] ;
198 -> 200 ;
201 [label="gini = 0.0\nsamples = 2\nvalue = [0, 3]", fillcolor="#399de5ff"] ;
200 -> 201 ;
202 [label="gini = 0.0\nsamples = 1\nvalue = [1, 0]", fillcolor="#e58139ff"] ;
200 -> 202 ;
203 [label="standards <= 0.5\ngini = 0.5\nsamples = 3\nvalue = [3, 3]", fillcolor="#e5813900"] ;
167 -> 203 ;
204 [label="gini = 0.0\nsamples = 2\nvalue = [3, 0]", fillcolor="#e58139ff"] ;
203 -> 204 ;
205 [label="gini = 0.0\nsamples = 1\nvalue = [0, 3]", fillcolor="#399de5ff"] ;
203 -> 205 ;
206 [label="gini = 0.0\nsamples = 8\nvalue = [0, 15]", fillcolor="#399de5ff"] ;
2 -> 206 ;
207 [label="immediately <= 0.5\ngini = 0.34\nsamples = 8\nvalue = [3, 11]", fillcolor="#399de5b9"] ;
1 -> 207 ;
208 [label="moves <= 0.5\ngini = 0.15\nsamples = 6\nvalue = [1, 11]", fillcolor="#399de5e8"] ;
207 -> 208 ;
209 [label="gini = 0.0\nsamples = 5\nvalue = [0, 11]", fillcolor="#399de5ff"] ;
208 -> 209 ;
210 [label="gini = 0.0\nsamples = 1\nvalue = [1, 0]", fillcolor="#e58139ff"] ;
208 -> 210 ;
211 [label="gini = 0.0\nsamples = 2\nvalue = [2, 0]", fillcolor="#e58139ff"] ;
207 -> 211 ;
212 [label="nigeria <= 0.5\ngini = 0.14\nsamples = 86\nvalue = [121, 10]", fillcolor="#e58139ea"] ;
0 -> 212 [labeldistance=2.5, labelangle=-45, headlabel="False"] ;
213 [label="morning <= 3.5\ngini = 0.13\nsamples = 85\nvalue = [121, 9]", fillcolor="#e58139ec"] ;
212 -> 213 ;
214 [label="former <= 0.5\ngini = 0.12\nsamples = 84\nvalue = [121, 8]", fillcolor="#e58139ee"] ;
213 -> 214 ;
215 [label="contained <= 0.5\ngini = 0.19\nsamples = 47\nvalue = [68, 8]", fillcolor="#e58139e1"] ;
214 -> 215 ;
216 [label="rhetoric <= 0.5\ngini = 0.17\nsamples = 46\nvalue = [68, 7]", fillcolor="#e58139e5"] ;
215 -> 216 ;
217 [label="huma <= 0.5\ngini = 0.13\nsamples = 44\nvalue = [68, 5]", fillcolor="#e58139ec"] ;
216 -> 217 ;
218 [label="also <= 0.5\ngini = 0.06\nsamples = 43\nvalue = [68, 2]", fillcolor="#e58139f8"] ;
217 -> 218 ;
219 [label="medicine <= 0.5\ngini = 0.18\nsamples = 13\nvalue = [18, 2]", fillcolor="#e58139e3"] ;
218 -> 219 ;
220 [label="gini = 0.0\nsamples = 11\nvalue = [16, 0]", fillcolor="#e58139ff"] ;
219 -> 220 ;
221 [label="men <= 1.0\ngini = 0.5\nsamples = 2\nvalue = [2, 2]", fillcolor="#e5813900"] ;
219 -> 221 ;
222 [label="gini = 0.0\nsamples = 1\nvalue = [2, 0]", fillcolor="#e58139ff"] ;
221 -> 222 ;
223 [label="gini = 0.0\nsamples = 1\nvalue = [0, 2]", fillcolor="#399de5ff"] ;
221 -> 223 ;
224 [label="gini = 0.0\nsamples = 30\nvalue = [50, 0]", fillcolor="#e58139ff"] ;
218 -> 224 ;
225 [label="gini = 0.0\nsamples = 1\nvalue = [0, 3]", fillcolor="#399de5ff"] ;
217 -> 225 ;
226 [label="gini = 0.0\nsamples = 2\nvalue = [0, 2]", fillcolor="#399de5ff"] ;
216 -> 226 ;
227 [label="gini = 0.0\nsamples = 1\nvalue = [0, 1]", fillcolor="#399de5ff"] ;
215 -> 227 ;
228 [label="gini = 0.0\nsamples = 37\nvalue = [53, 0]", fillcolor="#e58139ff"] ;
214 -> 228 ;
229 [label="gini = 0.0\nsamples = 1\nvalue = [0, 1]", fillcolor="#399de5ff"] ;
213 -> 229 ;
230 [label="gini = 0.0\nsamples = 1\nvalue = [0, 1]", fillcolor="#399de5ff"] ;
212 -> 230 ;
}