digraph Tree {
node [shape=box, style="filled, rounded", color="black", fontname=helvetica] ;
edge [fontname=helvetica] ;
0 [label="questions <= 0.5\ngini = 0.39\nsamples = 627\nvalue = [263, 737]", fillcolor="#399de5a4"] ;
1 [label="question <= 0.5\ngini = 0.37\nsamples = 570\nvalue = [223, 693]", fillcolor="#399de5ad"] ;
0 -> 1 [labeldistance=2.5, labelangle=45, headlabel="True"] ;
2 [label="competing <= 0.5\ngini = 0.34\nsamples = 514\nvalue = [179, 644]", fillcolor="#399de5b8"] ;
1 -> 2 ;
3 [label="force <= 0.5\ngini = 0.33\nsamples = 508\nvalue = [168, 642]", fillcolor="#399de5bc"] ;
2 -> 3 ;
4 [label="final <= 1.5\ngini = 0.3\nsamples = 464\nvalue = [137, 603]", fillcolor="#399de5c5"] ;
3 -> 4 ;
5 [label="speaker <= 0.5\ngini = 0.29\nsamples = 460\nvalue = [131, 602]", fillcolor="#399de5c8"] ;
4 -> 5 ;
6 [label="mr <= 1.5\ngini = 0.28\nsamples = 449\nvalue = [119, 599]", fillcolor="#399de5cc"] ;
5 -> 6 ;
7 [label="news <= 2.5\ngini = 0.2\nsamples = 413\nvalue = [75, 580]", fillcolor="#399de5de"] ;
6 -> 7 ;
8 [label="ms <= 3.5\ngini = 0.18\nsamples = 394\nvalue = [61, 559]", fillcolor="#399de5e3"] ;
7 -> 8 ;
9 [label="sports <= 1.5\ngini = 0.17\nsamples = 390\nvalue = [57, 559]", fillcolor="#399de5e5"] ;
8 -> 9 ;
10 [label="whole <= 2.5\ngini = 0.16\nsamples = 387\nvalue = [54, 559]", fillcolor="#399de5e6"] ;
9 -> 10 ;
11 [label="foster <= 1.0\ngini = 0.15\nsamples = 386\nvalue = [51, 559]", fillcolor="#399de5e8"] ;
10 -> 11 ;
12 [label="jan <= 0.5\ngini = 0.15\nsamples = 385\nvalue = [49, 559]", fillcolor="#399de5e9"] ;
11 -> 12 ;
13 [label="promise <= 1.5\ngini = 0.14\nsamples = 381\nvalue = [45, 558]", fillcolor="#399de5ea"] ;
12 -> 13 ;
14 [label="finished <= 0.5\ngini = 0.13\nsamples = 379\nvalue = [43, 557]", fillcolor="#399de5eb"] ;
13 -> 14 ;
15 [label="discrimination <= 1.5\ngini = 0.12\nsamples = 375\nvalue = [39, 555]", fillcolor="#399de5ed"] ;
14 -> 15 ;
16 [label="regulations <= 0.5\ngini = 0.12\nsamples = 374\nvalue = [38, 555]", fillcolor="#399de5ee"] ;
15 -> 16 ;
17 [label="march <= 2.5\ngini = 0.11\nsamples = 372\nvalue = [36, 554]", fillcolor="#399de5ee"] ;
16 -> 17 ;
18 [label="crew <= 0.5\ngini = 0.11\nsamples = 370\nvalue = [34, 554]", fillcolor="#399de5ef"] ;
17 -> 18 ;
19 [label="positions <= 2.0\ngini = 0.1\nsamples = 369\nvalue = [32, 554]", fillcolor="#399de5f0"] ;
18 -> 19 ;
20 [label="select <= 0.5\ngini = 0.1\nsamples = 368\nvalue = [30, 554]", fillcolor="#399de5f1"] ;
19 -> 20 ;
21 [label="twitter <= 0.5\ngini = 0.09\nsamples = 365\nvalue = [28, 553]", fillcolor="#399de5f2"] ;
20 -> 21 ;
22 [label="tweeted <= 1.5\ngini = 0.04\nsamples = 317\nvalue = [10, 506]", fillcolor="#399de5fa"] ;
21 -> 22 ;
23 [label="three <= 4.0\ngini = 0.03\nsamples = 316\nvalue = [9, 506]", fillcolor="#399de5fa"] ;
22 -> 23 ;
24 [label="early <= 2.5\ngini = 0.03\nsamples = 315\nvalue = [8, 506]", fillcolor="#399de5fb"] ;
23 -> 24 ;
25 [label="jihadists <= 0.5\ngini = 0.03\nsamples = 314\nvalue = [7, 506]", fillcolor="#399de5fb"] ;
24 -> 25 ;
26 [label="promised <= 0.5\ngini = 0.02\nsamples = 312\nvalue = [6, 505]", fillcolor="#399de5fc"] ;
25 -> 26 ;
27 [label="adults <= 0.5\ngini = 0.02\nsamples = 306\nvalue = [4, 498]", fillcolor="#399de5fd"] ;
26 -> 27 ;
28 [label="legs <= 0.5\ngini = 0.01\nsamples = 303\nvalue = [3, 495]", fillcolor="#399de5fd"] ;
27 -> 28 ;
29 [label="work <= 0.5\ngini = 0.01\nsamples = 300\nvalue = [2, 493]", fillcolor="#399de5fe"] ;
28 -> 29 ;
30 [label="annual <= 0.5\ngini = 0.01\nsamples = 246\nvalue = [2, 407]", fillcolor="#399de5fe"] ;
29 -> 30 ;
31 [label="gini = 0.0\nsamples = 240\nvalue = [0, 397]", fillcolor="#399de5ff"] ;
30 -> 31 ;
32 [label="recently <= 0.5\ngini = 0.28\nsamples = 6\nvalue = [2, 10]", fillcolor="#399de5cc"] ;
30 -> 32 ;
33 [label="said <= 1.5\ngini = 0.5\nsamples = 2\nvalue = [2, 2]", fillcolor="#e5813900"] ;
32 -> 33 ;
34 [label="gini = 0.0\nsamples = 1\nvalue = [2, 0]", fillcolor="#e58139ff"] ;
33 -> 34 ;
35 [label="gini = 0.0\nsamples = 1\nvalue = [0, 2]", fillcolor="#399de5ff"] ;
33 -> 35 ;
36 [label="gini = 0.0\nsamples = 4\nvalue = [0, 8]", fillcolor="#399de5ff"] ;
32 -> 36 ;
37 [label="gini = 0.0\nsamples = 54\nvalue = [0, 86]", fillcolor="#399de5ff"] ;
29 -> 37 ;
38 [label="tiny <= 1.0\ngini = 0.44\nsamples = 3\nvalue = [1, 2]", fillcolor="#399de57f"] ;
28 -> 38 ;
39 [label="gini = 0.0\nsamples = 2\nvalue = [0, 2]", fillcolor="#399de5ff"] ;
38 -> 39 ;
40 [label="gini = 0.0\nsamples = 1\nvalue = [1, 0]", fillcolor="#e58139ff"] ;
38 -> 40 ;
41 [label="experts <= 0.5\ngini = 0.38\nsamples = 3\nvalue = [1, 3]", fillcolor="#399de5aa"] ;
27 -> 41 ;
42 [label="gini = 0.0\nsamples = 1\nvalue = [1, 0]", fillcolor="#e58139ff"] ;
41 -> 42 ;
43 [label="gini = 0.0\nsamples = 2\nvalue = [0, 3]", fillcolor="#399de5ff"] ;
41 -> 43 ;
44 [label="time <= 1.0\ngini = 0.35\nsamples = 6\nvalue = [2, 7]", fillcolor="#399de5b6"] ;
26 -> 44 ;
45 [label="gini = 0.0\nsamples = 3\nvalue = [0, 6]", fillcolor="#399de5ff"] ;
44 -> 45 ;
46 [label="profit <= 0.5\ngini = 0.44\nsamples = 3\nvalue = [2, 1]", fillcolor="#e581397f"] ;
44 -> 46 ;
47 [label="gini = 0.0\nsamples = 2\nvalue = [2, 0]", fillcolor="#e58139ff"] ;
46 -> 47 ;
48 [label="gini = 0.0\nsamples = 1\nvalue = [0, 1]", fillcolor="#399de5ff"] ;
46 -> 48 ;
49 [label="large <= 0.5\ngini = 0.5\nsamples = 2\nvalue = [1, 1]", fillcolor="#e5813900"] ;
25 -> 49 ;
50 [label="gini = 0.0\nsamples = 1\nvalue = [1, 0]", fillcolor="#e58139ff"] ;
49 -> 50 ;
51 [label="gini = 0.0\nsamples = 1\nvalue = [0, 1]", fillcolor="#399de5ff"] ;
49 -> 51 ;
52 [label="gini = 0.0\nsamples = 1\nvalue = [1, 0]", fillcolor="#e58139ff"] ;
24 -> 52 ;
53 [label="gini = 0.0\nsamples = 1\nvalue = [1, 0]", fillcolor="#e58139ff"] ;
23 -> 53 ;
54 [label="gini = 0.0\nsamples = 1\nvalue = [1, 0]", fillcolor="#e58139ff"] ;
22 -> 54 ;
55 [label="laws <= 0.5\ngini = 0.4\nsamples = 48\nvalue = [18, 47]", fillcolor="#399de59d"] ;
21 -> 55 ;
56 [label="threat <= 0.5\ngini = 0.34\nsamples = 43\nvalue = [13, 46]", fillcolor="#399de5b7"] ;
55 -> 56 ;
57 [label="bigger <= 0.5\ngini = 0.33\nsamples = 42\nvalue = [12, 46]", fillcolor="#399de5bc"] ;
56 -> 57 ;
58 [label="peace <= 0.5\ngini = 0.29\nsamples = 40\nvalue = [10, 46]", fillcolor="#399de5c8"] ;
57 -> 58 ;
59 [label="joy <= 0.5\ngini = 0.26\nsamples = 38\nvalue = [8, 45]", fillcolor="#399de5d2"] ;
58 -> 59 ;
60 [label="number <= 0.5\ngini = 0.21\nsamples = 36\nvalue = [6, 45]", fillcolor="#399de5dd"] ;
59 -> 60 ;
61 [label="system <= 5.0\ngini = 0.18\nsamples = 35\nvalue = [5, 45]", fillcolor="#399de5e3"] ;
60 -> 61 ;
62 [label="https <= 0.5\ngini = 0.15\nsamples = 34\nvalue = [4, 45]", fillcolor="#399de5e8"] ;
61 -> 62 ;
63 [label="hang <= 0.5\ngini = 0.18\nsamples = 28\nvalue = [4, 37]", fillcolor="#399de5e3"] ;
62 -> 63 ;
64 [label="refugee <= 0.5\ngini = 0.14\nsamples = 27\nvalue = [3, 37]", fillcolor="#399de5ea"] ;
63 -> 64 ;
65 [label="fear <= 4.5\ngini = 0.1\nsamples = 26\nvalue = [2, 37]", fillcolor="#399de5f1"] ;
64 -> 65 ;
66 [label="russia <= 1.5\ngini = 0.05\nsamples = 25\nvalue = [1, 37]", fillcolor="#399de5f8"] ;
65 -> 66 ;
67 [label="gini = 0.0\nsamples = 24\nvalue = [0, 37]", fillcolor="#399de5ff"] ;
66 -> 67 ;
68 [label="gini = 0.0\nsamples = 1\nvalue = [1, 0]", fillcolor="#e58139ff"] ;
66 -> 68 ;
69 [label="gini = 0.0\nsamples = 1\nvalue = [1, 0]", fillcolor="#e58139ff"] ;
65 -> 69 ;
70 [label="gini = 0.0\nsamples = 1\nvalue = [1, 0]", fillcolor="#e58139ff"] ;
64 -> 70 ;
71 [label="gini = 0.0\nsamples = 1\nvalue = [1, 0]", fillcolor="#e58139ff"] ;
63 -> 71 ;
72 [label="gini = 0.0\nsamples = 6\nvalue = [0, 8]", fillcolor="#399de5ff"] ;
62 -> 72 ;
73 [label="gini = 0.0\nsamples = 1\nvalue = [1, 0]", fillcolor="#e58139ff"] ;
61 -> 73 ;
74 [label="gini = 0.0\nsamples = 1\nvalue = [1, 0]", fillcolor="#e58139ff"] ;
60 -> 74 ;
75 [label="gini = 0.0\nsamples = 2\nvalue = [2, 0]", fillcolor="#e58139ff"] ;
59 -> 75 ;
76 [label="air <= 0.5\ngini = 0.44\nsamples = 2\nvalue = [2, 1]", fillcolor="#e581397f"] ;
58 -> 76 ;
77 [label="gini = 0.0\nsamples = 1\nvalue = [0, 1]", fillcolor="#399de5ff"] ;
76 -> 77 ;
78 [label="gini = 0.0\nsamples = 1\nvalue = [2, 0]", fillcolor="#e58139ff"] ;
76 -> 78 ;
79 [label="gini = 0.0\nsamples = 2\nvalue = [2, 0]", fillcolor="#e58139ff"] ;
57 -> 79 ;
80 [label="gini = 0.0\nsamples = 1\nvalue = [1, 0]", fillcolor="#e58139ff"] ;
56 -> 80 ;
81 [label="willing <= 0.5\ngini = 0.28\nsamples = 5\nvalue = [5, 1]", fillcolor="#e58139cc"] ;
55 -> 81 ;
82 [label="gini = 0.0\nsamples = 4\nvalue = [5, 0]", fillcolor="#e58139ff"] ;
81 -> 82 ;
83 [label="gini = 0.0\nsamples = 1\nvalue = [0, 1]", fillcolor="#399de5ff"] ;
81 -> 83 ;
84 [label="example <= 0.5\ngini = 0.44\nsamples = 3\nvalue = [2, 1]", fillcolor="#e581397f"] ;
20 -> 84 ;
85 [label="repeal <= 0.5\ngini = 0.5\nsamples = 2\nvalue = [1, 1]", fillcolor="#e5813900"] ;
84 -> 85 ;
86 [label="gini = 0.0\nsamples = 1\nvalue = [0, 1]", fillcolor="#399de5ff"] ;
85 -> 86 ;
87 [label="gini = 0.0\nsamples = 1\nvalue = [1, 0]", fillcolor="#e58139ff"] ;
85 -> 87 ;
88 [label="gini = 0.0\nsamples = 1\nvalue = [1, 0]", fillcolor="#e58139ff"] ;
84 -> 88 ;
89 [label="gini = 0.0\nsamples = 1\nvalue = [2, 0]", fillcolor="#e58139ff"] ;
19 -> 89 ;
90 [label="gini = 0.0\nsamples = 1\nvalue = [2, 0]", fillcolor="#e58139ff"] ;
18 -> 90 ;
91 [label="gini = 0.0\nsamples = 2\nvalue = [2, 0]", fillcolor="#e58139ff"] ;
17 -> 91 ;
92 [label="barely <= 0.5\ngini = 0.44\nsamples = 2\nvalue = [2, 1]", fillcolor="#e581397f"] ;
16 -> 92 ;
93 [label="gini = 0.0\nsamples = 1\nvalue = [2, 0]", fillcolor="#e58139ff"] ;
92 -> 93 ;
94 [label="gini = 0.0\nsamples = 1\nvalue = [0, 1]", fillcolor="#399de5ff"] ;
92 -> 94 ;
95 [label="gini = 0.0\nsamples = 1\nvalue = [1, 0]", fillcolor="#e58139ff"] ;
15 -> 95 ;
96 [label="https <= 0.5\ngini = 0.44\nsamples = 4\nvalue = [4, 2]", fillcolor="#e581397f"] ;
14 -> 96 ;
97 [label="small <= 0.5\ngini = 0.32\nsamples = 3\nvalue = [4, 1]", fillcolor="#e58139bf"] ;
96 -> 97 ;
98 [label="gini = 0.0\nsamples = 2\nvalue = [4, 0]", fillcolor="#e58139ff"] ;
97 -> 98 ;
99 [label="gini = 0.0\nsamples = 1\nvalue = [0, 1]", fillcolor="#399de5ff"] ;
97 -> 99 ;
100 [label="gini = 0.0\nsamples = 1\nvalue = [0, 1]", fillcolor="#399de5ff"] ;
96 -> 100 ;
101 [label="past <= 0.5\ngini = 0.44\nsamples = 2\nvalue = [2, 1]", fillcolor="#e581397f"] ;
13 -> 101 ;
102 [label="gini = 0.0\nsamples = 1\nvalue = [0, 1]", fillcolor="#399de5ff"] ;
101 -> 102 ;
103 [label="gini = 0.0\nsamples = 1\nvalue = [2, 0]", fillcolor="#e58139ff"] ;
101 -> 103 ;
104 [label="informed <= 0.5\ngini = 0.32\nsamples = 4\nvalue = [4, 1]", fillcolor="#e58139bf"] ;
12 -> 104 ;
105 [label="gini = 0.0\nsamples = 3\nvalue = [4, 0]", fillcolor="#e58139ff"] ;
104 -> 105 ;
106 [label="gini = 0.0\nsamples = 1\nvalue = [0, 1]", fillcolor="#399de5ff"] ;
104 -> 106 ;
107 [label="gini = 0.0\nsamples = 1\nvalue = [2, 0]", fillcolor="#e58139ff"] ;
11 -> 107 ;
108 [label="gini = 0.0\nsamples = 1\nvalue = [3, 0]", fillcolor="#e58139ff"] ;
10 -> 108 ;
109 [label="gini = 0.0\nsamples = 3\nvalue = [3, 0]", fillcolor="#e58139ff"] ;
9 -> 109 ;
110 [label="gini = 0.0\nsamples = 4\nvalue = [4, 0]", fillcolor="#e58139ff"] ;
8 -> 110 ;
111 [label="son <= 0.5\ngini = 0.48\nsamples = 19\nvalue = [14, 21]", fillcolor="#399de555"] ;
7 -> 111 ;
112 [label="well <= 0.5\ngini = 0.45\nsamples = 18\nvalue = [11, 21]", fillcolor="#399de579"] ;
111 -> 112 ;
113 [label="join <= 0.5\ngini = 0.38\nsamples = 6\nvalue = [9, 3]", fillcolor="#e58139aa"] ;
112 -> 113 ;
114 [label="unless <= 0.5\ngini = 0.18\nsamples = 5\nvalue = [9, 1]", fillcolor="#e58139e3"] ;
113 -> 114 ;
115 [label="gini = 0.0\nsamples = 4\nvalue = [9, 0]", fillcolor="#e58139ff"] ;
114 -> 115 ;
116 [label="gini = 0.0\nsamples = 1\nvalue = [0, 1]", fillcolor="#399de5ff"] ;
114 -> 116 ;
117 [label="gini = 0.0\nsamples = 1\nvalue = [0, 2]", fillcolor="#399de5ff"] ;
113 -> 117 ;
118 [label="look <= 0.5\ngini = 0.18\nsamples = 12\nvalue = [2, 18]", fillcolor="#399de5e3"] ;
112 -> 118 ;
119 [label="parents <= 0.5\ngini = 0.44\nsamples = 4\nvalue = [2, 4]", fillcolor="#399de57f"] ;
118 -> 119 ;
120 [label="gini = 0.0\nsamples = 3\nvalue = [0, 4]", fillcolor="#399de5ff"] ;
119 -> 120 ;
121 [label="gini = 0.0\nsamples = 1\nvalue = [2, 0]", fillcolor="#e58139ff"] ;
119 -> 121 ;
122 [label="gini = 0.0\nsamples = 8\nvalue = [0, 14]", fillcolor="#399de5ff"] ;
118 -> 122 ;
123 [label="gini = 0.0\nsamples = 1\nvalue = [3, 0]", fillcolor="#e58139ff"] ;
111 -> 123 ;
124 [label="stay <= 0.5\ngini = 0.42\nsamples = 36\nvalue = [44, 19]", fillcolor="#e5813991"] ;
6 -> 124 ;
125 [label="would <= 0.5\ngini = 0.34\nsamples = 32\nvalue = [43, 12]", fillcolor="#e58139b8"] ;
124 -> 125 ;
126 [label="technology <= 0.5\ngini = 0.48\nsamples = 7\nvalue = [4, 6]", fillcolor="#399de555"] ;
125 -> 126 ;
127 [label="gini = 0.0\nsamples = 5\nvalue = [0, 6]", fillcolor="#399de5ff"] ;
126 -> 127 ;
128 [label="gini = 0.0\nsamples = 2\nvalue = [4, 0]", fillcolor="#e58139ff"] ;
126 -> 128 ;
129 [label="server <= 0.5\ngini = 0.23\nsamples = 25\nvalue = [39, 6]", fillcolor="#e58139d8"] ;
125 -> 129 ;
130 [label="right <= 1.5\ngini = 0.13\nsamples = 24\nvalue = [39, 3]", fillcolor="#e58139eb"] ;
129 -> 130 ;
131 [label="video <= 0.5\ngini = 0.09\nsamples = 22\nvalue = [38, 2]", fillcolor="#e58139f2"] ;
130 -> 131 ;
132 [label="gini = 0.0\nsamples = 20\nvalue = [38, 0]", fillcolor="#e58139ff"] ;
131 -> 132 ;
133 [label="gini = 0.0\nsamples = 2\nvalue = [0, 2]", fillcolor="#399de5ff"] ;
131 -> 133 ;
134 [label="words <= 1.5\ngini = 0.5\nsamples = 2\nvalue = [1, 1]", fillcolor="#e5813900"] ;
130 -> 134 ;
135 [label="gini = 0.0\nsamples = 1\nvalue = [0, 1]", fillcolor="#399de5ff"] ;
134 -> 135 ;
136 [label="gini = 0.0\nsamples = 1\nvalue = [1, 0]", fillcolor="#e58139ff"] ;
134 -> 136 ;
137 [label="gini = 0.0\nsamples = 1\nvalue = [0, 3]", fillcolor="#399de5ff"] ;
129 -> 137 ;
138 [label="asked <= 0.5\ngini = 0.22\nsamples = 4\nvalue = [1, 7]", fillcolor="#399de5db"] ;
124 -> 138 ;
139 [label="gini = 0.0\nsamples = 1\nvalue = [1, 0]", fillcolor="#e58139ff"] ;
138 -> 139 ;
140 [label="gini = 0.0\nsamples = 3\nvalue = [0, 7]", fillcolor="#399de5ff"] ;
138 -> 140 ;
141 [label="making <= 0.5\ngini = 0.32\nsamples = 11\nvalue = [12, 3]", fillcolor="#e58139bf"] ;
5 -> 141 ;
142 [label="models <= 0.5\ngini = 0.14\nsamples = 9\nvalue = [12, 1]", fillcolor="#e58139ea"] ;
141 -> 142 ;
143 [label="gini = 0.0\nsamples = 8\nvalue = [12, 0]", fillcolor="#e58139ff"] ;
142 -> 143 ;
144 [label="gini = 0.0\nsamples = 1\nvalue = [0, 1]", fillcolor="#399de5ff"] ;
142 -> 144 ;
145 [label="gini = 0.0\nsamples = 2\nvalue = [0, 2]", fillcolor="#399de5ff"] ;
141 -> 145 ;
146 [label="better <= 0.5\ngini = 0.24\nsamples = 4\nvalue = [6, 1]", fillcolor="#e58139d4"] ;
4 -> 146 ;
147 [label="think <= 1.0\ngini = 0.5\nsamples = 2\nvalue = [1, 1]", fillcolor="#e5813900"] ;
146 -> 147 ;
148 [label="gini = 0.0\nsamples = 1\nvalue = [0, 1]", fillcolor="#399de5ff"] ;
147 -> 148 ;
149 [label="gini = 0.0\nsamples = 1\nvalue = [1, 0]", fillcolor="#e58139ff"] ;
147 -> 149 ;
150 [label="gini = 0.0\nsamples = 2\nvalue = [5, 0]", fillcolor="#e58139ff"] ;
146 -> 150 ;
151 [label="liberals <= 0.5\ngini = 0.49\nsamples = 44\nvalue = [31, 39]", fillcolor="#399de534"] ;
3 -> 151 ;
152 [label="yet <= 0.5\ngini = 0.46\nsamples = 41\nvalue = [22, 39]", fillcolor="#399de56f"] ;
151 -> 152 ;
153 [label="friday <= 0.5\ngini = 0.5\nsamples = 27\nvalue = [20, 20]", fillcolor="#e5813900"] ;
152 -> 153 ;
154 [label="news <= 0.5\ngini = 0.48\nsamples = 24\nvalue = [14, 20]", fillcolor="#399de54d"] ;
153 -> 154 ;
155 [label="historic <= 0.5\ngini = 0.33\nsamples = 13\nvalue = [4, 15]", fillcolor="#399de5bb"] ;
154 -> 155 ;
156 [label="poised <= 0.5\ngini = 0.28\nsamples = 12\nvalue = [3, 15]", fillcolor="#399de5cc"] ;
155 -> 156 ;
157 [label="ray <= 1.0\ngini = 0.21\nsamples = 11\nvalue = [2, 15]", fillcolor="#399de5dd"] ;
156 -> 157 ;
158 [label="gini = 0.0\nsamples = 10\nvalue = [0, 15]", fillcolor="#399de5ff"] ;
157 -> 158 ;
159 [label="gini = 0.0\nsamples = 1\nvalue = [2, 0]", fillcolor="#e58139ff"] ;
157 -> 159 ;
160 [label="gini = 0.0\nsamples = 1\nvalue = [1, 0]", fillcolor="#e58139ff"] ;
156 -> 160 ;
161 [label="gini = 0.0\nsamples = 1\nvalue = [1, 0]", fillcolor="#e58139ff"] ;
155 -> 161 ;
162 [label="fired <= 0.5\ngini = 0.44\nsamples = 11\nvalue = [10, 5]", fillcolor="#e581397f"] ;
154 -> 162 ;
163 [label="toward <= 0.5\ngini = 0.49\nsamples = 8\nvalue = [4, 5]", fillcolor="#399de533"] ;
162 -> 163 ;
164 [label="gini = 0.0\nsamples = 4\nvalue = [0, 4]", fillcolor="#399de5ff"] ;
163 -> 164 ;
165 [label="predicted <= 0.5\ngini = 0.32\nsamples = 4\nvalue = [4, 1]", fillcolor="#e58139bf"] ;
163 -> 165 ;
166 [label="importance <= 0.5\ngini = 0.5\nsamples = 2\nvalue = [1, 1]", fillcolor="#e5813900"] ;
165 -> 166 ;
167 [label="gini = 0.0\nsamples = 1\nvalue = [1, 0]", fillcolor="#e58139ff"] ;
166 -> 167 ;
168 [label="gini = 0.0\nsamples = 1\nvalue = [0, 1]", fillcolor="#399de5ff"] ;
166 -> 168 ;
169 [label="gini = 0.0\nsamples = 2\nvalue = [3, 0]", fillcolor="#e58139ff"] ;
165 -> 169 ;
170 [label="gini = 0.0\nsamples = 3\nvalue = [6, 0]", fillcolor="#e58139ff"] ;
162 -> 170 ;
171 [label="gini = 0.0\nsamples = 3\nvalue = [6, 0]", fillcolor="#e58139ff"] ;
153 -> 171 ;
172 [label="personality <= 0.5\ngini = 0.17\nsamples = 14\nvalue = [2, 19]", fillcolor="#399de5e4"] ;
152 -> 172 ;
173 [label="group <= 1.5\ngini = 0.09\nsamples = 13\nvalue = [1, 19]", fillcolor="#399de5f2"] ;
172 -> 173 ;
174 [label="gini = 0.0\nsamples = 11\nvalue = [0, 17]", fillcolor="#399de5ff"] ;
173 -> 174 ;
175 [label="true <= 0.5\ngini = 0.44\nsamples = 2\nvalue = [1, 2]", fillcolor="#399de57f"] ;
173 -> 175 ;
176 [label="gini = 0.0\nsamples = 1\nvalue = [1, 0]", fillcolor="#e58139ff"] ;
175 -> 176 ;
177 [label="gini = 0.0\nsamples = 1\nvalue = [0, 2]", fillcolor="#399de5ff"] ;
175 -> 177 ;
178 [label="gini = 0.0\nsamples = 1\nvalue = [1, 0]", fillcolor="#e58139ff"] ;
172 -> 178 ;
179 [label="gini = 0.0\nsamples = 3\nvalue = [9, 0]", fillcolor="#e58139ff"] ;
151 -> 179 ;
180 [label="agreeing <= 0.5\ngini = 0.26\nsamples = 6\nvalue = [11, 2]", fillcolor="#e58139d1"] ;
2 -> 180 ;
181 [label="wing <= 0.5\ngini = 0.15\nsamples = 5\nvalue = [11, 1]", fillcolor="#e58139e8"] ;
180 -> 181 ;
182 [label="gini = 0.0\nsamples = 4\nvalue = [11, 0]", fillcolor="#e58139ff"] ;
181 -> 182 ;
183 [label="gini = 0.0\nsamples = 1\nvalue = [0, 1]", fillcolor="#399de5ff"] ;
181 -> 183 ;
184 [label="gini = 0.0\nsamples = 1\nvalue = [0, 1]", fillcolor="#399de5ff"] ;
180 -> 184 ;
185 [label="related <= 0.5\ngini = 0.5\nsamples = 56\nvalue = [44, 49]", fillcolor="#399de51a"] ;
1 -> 185 ;
186 [label="american <= 3.5\ngini = 0.5\nsamples = 49\nvalue = [44, 37]", fillcolor="#e5813929"] ;
185 -> 186 ;
187 [label="regime <= 0.5\ngini = 0.46\nsamples = 43\nvalue = [44, 25]", fillcolor="#e581396e"] ;
186 -> 187 ;
188 [label="mr <= 2.5\ngini = 0.44\nsamples = 40\nvalue = [44, 21]", fillcolor="#e5813985"] ;
187 -> 188 ;
189 [label="members <= 0.5\ngini = 0.48\nsamples = 23\nvalue = [14, 21]", fillcolor="#399de555"] ;
188 -> 189 ;
190 [label="called <= 2.5\ngini = 0.41\nsamples = 19\nvalue = [8, 20]", fillcolor="#399de599"] ;
189 -> 190 ;
191 [label="breitbart <= 0.5\ngini = 0.36\nsamples = 18\nvalue = [6, 20]", fillcolor="#399de5b3"] ;
190 -> 191 ;
192 [label="convention <= 0.5\ngini = 0.23\nsamples = 16\nvalue = [3, 20]", fillcolor="#399de5d9"] ;
191 -> 192 ;
193 [label="gini = 0.0\nsamples = 15\nvalue = [0, 20]", fillcolor="#399de5ff"] ;
192 -> 193 ;
194 [label="gini = 0.0\nsamples = 1\nvalue = [3, 0]", fillcolor="#e58139ff"] ;
192 -> 194 ;
195 [label="gini = 0.0\nsamples = 2\nvalue = [3, 0]", fillcolor="#e58139ff"] ;
191 -> 195 ;
196 [label="gini = 0.0\nsamples = 1\nvalue = [2, 0]", fillcolor="#e58139ff"] ;
190 -> 196 ;
197 [label="voice <= 0.5\ngini = 0.24\nsamples = 4\nvalue = [6, 1]", fillcolor="#e58139d4"] ;
189 -> 197 ;
198 [label="gini = 0.0\nsamples = 3\nvalue = [6, 0]", fillcolor="#e58139ff"] ;
197 -> 198 ;
199 [label="gini = 0.0\nsamples = 1\nvalue = [0, 1]", fillcolor="#399de5ff"] ;
197 -> 199 ;
200 [label="gini = 0.0\nsamples = 17\nvalue = [30, 0]", fillcolor="#e58139ff"] ;
188 -> 200 ;
201 [label="gini = 0.0\nsamples = 3\nvalue = [0, 4]", fillcolor="#399de5ff"] ;
187 -> 201 ;
202 [label="gini = 0.0\nsamples = 6\nvalue = [0, 12]", fillcolor="#399de5ff"] ;
186 -> 202 ;
203 [label="gini = 0.0\nsamples = 7\nvalue = [0, 12]", fillcolor="#399de5ff"] ;
185 -> 203 ;
204 [label="self <= 0.5\ngini = 0.5\nsamples = 57\nvalue = [40, 44]", fillcolor="#399de517"] ;
0 -> 204 [labeldistance=2.5, labelangle=-45, headlabel="False"] ;
205 [label="city <= 0.5\ngini = 0.49\nsamples = 49\nvalue = [40, 32]", fillcolor="#e5813933"] ;
204 -> 205 ;
206 [label="called <= 0.5\ngini = 0.5\nsamples = 43\nvalue = [32, 32]", fillcolor="#e5813900"] ;
205 -> 206 ;
207 [label="connecticut <= 0.5\ngini = 0.4\nsamples = 25\nvalue = [11, 28]", fillcolor="#399de59b"] ;
206 -> 207 ;
208 [label="february <= 0.5\ngini = 0.29\nsamples = 23\nvalue = [6, 28]", fillcolor="#399de5c8"] ;
207 -> 208 ;
209 [label="wages <= 0.5\ngini = 0.22\nsamples = 21\nvalue = [4, 28]", fillcolor="#399de5db"] ;
208 -> 209 ;
210 [label="increases <= 1.0\ngini = 0.17\nsamples = 20\nvalue = [3, 28]", fillcolor="#399de5e4"] ;
209 -> 210 ;
211 [label="statements <= 0.5\ngini = 0.12\nsamples = 19\nvalue = [2, 28]", fillcolor="#399de5ed"] ;
210 -> 211 ;
212 [label="secretary <= 0.5\ngini = 0.07\nsamples = 18\nvalue = [1, 28]", fillcolor="#399de5f6"] ;
211 -> 212 ;
213 [label="travel <= 1.0\ngini = 0.08\nsamples = 14\nvalue = [1, 22]", fillcolor="#399de5f3"] ;
212 -> 213 ;
214 [label="gini = 0.0\nsamples = 13\nvalue = [0, 22]", fillcolor="#399de5ff"] ;
213 -> 214 ;
215 [label="gini = 0.0\nsamples = 1\nvalue = [1, 0]", fillcolor="#e58139ff"] ;
213 -> 215 ;
216 [label="gini = 0.0\nsamples = 4\nvalue = [0, 6]", fillcolor="#399de5ff"] ;
212 -> 216 ;
217 [label="gini = 0.0\nsamples = 1\nvalue = [1, 0]", fillcolor="#e58139ff"] ;
211 -> 217 ;
218 [label="gini = 0.0\nsamples = 1\nvalue = [1, 0]", fillcolor="#e58139ff"] ;
210 -> 218 ;
219 [label="gini = 0.0\nsamples = 1\nvalue = [1, 0]", fillcolor="#e58139ff"] ;
209 -> 219 ;
220 [label="gini = 0.0\nsamples = 2\nvalue = [2, 0]", fillcolor="#e58139ff"] ;
208 -> 220 ;
221 [label="gini = 0.0\nsamples = 2\nvalue = [5, 0]", fillcolor="#e58139ff"] ;
207 -> 221 ;
222 [label="ill <= 0.5\ngini = 0.27\nsamples = 18\nvalue = [21, 4]", fillcolor="#e58139ce"] ;
206 -> 222 ;
223 [label="could <= 5.5\ngini = 0.22\nsamples = 17\nvalue = [21, 3]", fillcolor="#e58139db"] ;
222 -> 223 ;
224 [label="residents <= 0.5\ngini = 0.16\nsamples = 16\nvalue = [21, 2]", fillcolor="#e58139e7"] ;
223 -> 224 ;
225 [label="telling <= 0.5\ngini = 0.09\nsamples = 15\nvalue = [21, 1]", fillcolor="#e58139f3"] ;
224 -> 225 ;
226 [label="gini = 0.0\nsamples = 13\nvalue = [20, 0]", fillcolor="#e58139ff"] ;
225 -> 226 ;
227 [label="trail <= 1.0\ngini = 0.5\nsamples = 2\nvalue = [1, 1]", fillcolor="#e5813900"] ;
225 -> 227 ;
228 [label="gini = 0.0\nsamples = 1\nvalue = [0, 1]", fillcolor="#399de5ff"] ;
227 -> 228 ;
229 [label="gini = 0.0\nsamples = 1\nvalue = [1, 0]", fillcolor="#e58139ff"] ;
227 -> 229 ;
230 [label="gini = 0.0\nsamples = 1\nvalue = [0, 1]", fillcolor="#399de5ff"] ;
224 -> 230 ;
231 [label="gini = 0.0\nsamples = 1\nvalue = [0, 1]", fillcolor="#399de5ff"] ;
223 -> 231 ;
232 [label="gini = 0.0\nsamples = 1\nvalue = [0, 1]", fillcolor="#399de5ff"] ;
222 -> 232 ;
233 [label="gini = 0.0\nsamples = 6\nvalue = [8, 0]", fillcolor="#e58139ff"] ;
205 -> 233 ;
234 [label="gini = 0.0\nsamples = 8\nvalue = [0, 12]", fillcolor="#399de5ff"] ;
204 -> 234 ;
}