digraph Tree {
node [shape=box, style="filled, rounded", color="black", fontname=helvetica] ;
edge [fontname=helvetica] ;
0 [label="inauguration <= 0.5\ngini = 0.38\nsamples = 639\nvalue = [256, 744]", fillcolor="#399de5a7"] ;
1 [label="new <= 0.5\ngini = 0.37\nsamples = 625\nvalue = [238, 741]", fillcolor="#399de5ad"] ;
0 -> 1 [labeldistance=2.5, labelangle=45, headlabel="True"] ;
2 [label="germany <= 4.0\ngini = 0.24\nsamples = 355\nvalue = [75, 476]", fillcolor="#399de5d7"] ;
1 -> 2 ;
3 [label="strategic <= 0.5\ngini = 0.23\nsamples = 353\nvalue = [72, 476]", fillcolor="#399de5d8"] ;
2 -> 3 ;
4 [label="mr <= 2.5\ngini = 0.22\nsamples = 350\nvalue = [68, 476]", fillcolor="#399de5db"] ;
3 -> 4 ;
5 [label="key <= 0.5\ngini = 0.16\nsamples = 332\nvalue = [44, 472]", fillcolor="#399de5e7"] ;
4 -> 5 ;
6 [label="complicated <= 0.5\ngini = 0.14\nsamples = 320\nvalue = [37, 463]", fillcolor="#399de5eb"] ;
5 -> 6 ;
7 [label="podcast <= 0.5\ngini = 0.13\nsamples = 318\nvalue = [35, 462]", fillcolor="#399de5ec"] ;
6 -> 7 ;
8 [label="jan <= 0.5\ngini = 0.12\nsamples = 316\nvalue = [33, 462]", fillcolor="#399de5ed"] ;
7 -> 8 ;
9 [label="survey <= 1.5\ngini = 0.11\nsamples = 314\nvalue = [29, 462]", fillcolor="#399de5ef"] ;
8 -> 9 ;
10 [label="seven <= 2.5\ngini = 0.1\nsamples = 313\nvalue = [27, 462]", fillcolor="#399de5f0"] ;
9 -> 10 ;
11 [label="wall <= 3.5\ngini = 0.09\nsamples = 311\nvalue = [24, 462]", fillcolor="#399de5f2"] ;
10 -> 11 ;
12 [label="explains <= 1.5\ngini = 0.09\nsamples = 308\nvalue = [22, 461]", fillcolor="#399de5f3"] ;
11 -> 12 ;
13 [label="johnson <= 1.5\ngini = 0.08\nsamples = 307\nvalue = [19, 461]", fillcolor="#399de5f4"] ;
12 -> 13 ;
14 [label="mouth <= 1.5\ngini = 0.07\nsamples = 305\nvalue = [17, 461]", fillcolor="#399de5f6"] ;
13 -> 14 ;
15 [label="sovereign <= 2.0\ngini = 0.06\nsamples = 304\nvalue = [16, 461]", fillcolor="#399de5f6"] ;
14 -> 15 ;
16 [label="arena <= 1.0\ngini = 0.06\nsamples = 303\nvalue = [14, 461]", fillcolor="#399de5f7"] ;
15 -> 16 ;
17 [label="broadcast <= 0.5\ngini = 0.05\nsamples = 302\nvalue = [13, 461]", fillcolor="#399de5f8"] ;
16 -> 17 ;
18 [label="reid <= 0.5\ngini = 0.05\nsamples = 298\nvalue = [11, 458]", fillcolor="#399de5f9"] ;
17 -> 18 ;
19 [label="speak <= 0.5\ngini = 0.04\nsamples = 296\nvalue = [9, 457]", fillcolor="#399de5fa"] ;
18 -> 19 ;
20 [label="besides <= 0.5\ngini = 0.03\nsamples = 284\nvalue = [6, 446]", fillcolor="#399de5fc"] ;
19 -> 20 ;
21 [label="champion <= 0.5\ngini = 0.02\nsamples = 282\nvalue = [5, 445]", fillcolor="#399de5fc"] ;
20 -> 21 ;
22 [label="rice <= 1.0\ngini = 0.02\nsamples = 279\nvalue = [4, 443]", fillcolor="#399de5fd"] ;
21 -> 22 ;
23 [label="iraqi <= 3.5\ngini = 0.01\nsamples = 275\nvalue = [3, 437]", fillcolor="#399de5fd"] ;
22 -> 23 ;
24 [label="school <= 5.5\ngini = 0.01\nsamples = 273\nvalue = [2, 434]", fillcolor="#399de5fe"] ;
23 -> 24 ;
25 [label="donald <= 0.5\ngini = 0.0\nsamples = 271\nvalue = [1, 433]", fillcolor="#399de5fe"] ;
24 -> 25 ;
26 [label="november <= 0.5\ngini = 0.01\nsamples = 225\nvalue = [1, 354]", fillcolor="#399de5fe"] ;
25 -> 26 ;
27 [label="use <= 0.5\ngini = 0.01\nsamples = 182\nvalue = [1, 291]", fillcolor="#399de5fe"] ;
26 -> 27 ;
28 [label="free <= 0.5\ngini = 0.01\nsamples = 158\nvalue = [1, 255]", fillcolor="#399de5fe"] ;
27 -> 28 ;
29 [label="vehicles <= 0.5\ngini = 0.01\nsamples = 144\nvalue = [1, 236]", fillcolor="#399de5fe"] ;
28 -> 29 ;
30 [label="gini = 0.0\nsamples = 142\nvalue = [0, 235]", fillcolor="#399de5ff"] ;
29 -> 30 ;
31 [label="department <= 1.5\ngini = 0.5\nsamples = 2\nvalue = [1, 1]", fillcolor="#e5813900"] ;
29 -> 31 ;
32 [label="gini = 0.0\nsamples = 1\nvalue = [1, 0]", fillcolor="#e58139ff"] ;
31 -> 32 ;
33 [label="gini = 0.0\nsamples = 1\nvalue = [0, 1]", fillcolor="#399de5ff"] ;
31 -> 33 ;
34 [label="gini = 0.0\nsamples = 14\nvalue = [0, 19]", fillcolor="#399de5ff"] ;
28 -> 34 ;
35 [label="gini = 0.0\nsamples = 24\nvalue = [0, 36]", fillcolor="#399de5ff"] ;
27 -> 35 ;
36 [label="gini = 0.0\nsamples = 43\nvalue = [0, 63]", fillcolor="#399de5ff"] ;
26 -> 36 ;
37 [label="gini = 0.0\nsamples = 46\nvalue = [0, 79]", fillcolor="#399de5ff"] ;
25 -> 37 ;
38 [label="diversity <= 0.5\ngini = 0.5\nsamples = 2\nvalue = [1, 1]", fillcolor="#e5813900"] ;
24 -> 38 ;
39 [label="gini = 0.0\nsamples = 1\nvalue = [1, 0]", fillcolor="#e58139ff"] ;
38 -> 39 ;
40 [label="gini = 0.0\nsamples = 1\nvalue = [0, 1]", fillcolor="#399de5ff"] ;
38 -> 40 ;
41 [label="mosul <= 10.0\ngini = 0.38\nsamples = 2\nvalue = [1, 3]", fillcolor="#399de5aa"] ;
23 -> 41 ;
42 [label="gini = 0.0\nsamples = 1\nvalue = [1, 0]", fillcolor="#e58139ff"] ;
41 -> 42 ;
43 [label="gini = 0.0\nsamples = 1\nvalue = [0, 3]", fillcolor="#399de5ff"] ;
41 -> 43 ;
44 [label="selection <= 0.5\ngini = 0.24\nsamples = 4\nvalue = [1, 6]", fillcolor="#399de5d4"] ;
22 -> 44 ;
45 [label="gini = 0.0\nsamples = 3\nvalue = [0, 6]", fillcolor="#399de5ff"] ;
44 -> 45 ;
46 [label="gini = 0.0\nsamples = 1\nvalue = [1, 0]", fillcolor="#e58139ff"] ;
44 -> 46 ;
47 [label="elected <= 0.5\ngini = 0.44\nsamples = 3\nvalue = [1, 2]", fillcolor="#399de57f"] ;
21 -> 47 ;
48 [label="gini = 0.0\nsamples = 2\nvalue = [0, 2]", fillcolor="#399de5ff"] ;
47 -> 48 ;
49 [label="gini = 0.0\nsamples = 1\nvalue = [1, 0]", fillcolor="#e58139ff"] ;
47 -> 49 ;
50 [label="differently <= 0.5\ngini = 0.5\nsamples = 2\nvalue = [1, 1]", fillcolor="#e5813900"] ;
20 -> 50 ;
51 [label="gini = 0.0\nsamples = 1\nvalue = [0, 1]", fillcolor="#399de5ff"] ;
50 -> 51 ;
52 [label="gini = 0.0\nsamples = 1\nvalue = [1, 0]", fillcolor="#e58139ff"] ;
50 -> 52 ;
53 [label="including <= 2.0\ngini = 0.34\nsamples = 12\nvalue = [3, 11]", fillcolor="#399de5b9"] ;
19 -> 53 ;
54 [label="asked <= 0.5\ngini = 0.26\nsamples = 11\nvalue = [2, 11]", fillcolor="#399de5d1"] ;
53 -> 54 ;
55 [label="gini = 0.0\nsamples = 10\nvalue = [0, 11]", fillcolor="#399de5ff"] ;
54 -> 55 ;
56 [label="gini = 0.0\nsamples = 1\nvalue = [2, 0]", fillcolor="#e58139ff"] ;
54 -> 56 ;
57 [label="gini = 0.0\nsamples = 1\nvalue = [1, 0]", fillcolor="#e58139ff"] ;
53 -> 57 ;
58 [label="officials <= 0.5\ngini = 0.44\nsamples = 2\nvalue = [2, 1]", fillcolor="#e581397f"] ;
18 -> 58 ;
59 [label="gini = 0.0\nsamples = 1\nvalue = [2, 0]", fillcolor="#e58139ff"] ;
58 -> 59 ;
60 [label="gini = 0.0\nsamples = 1\nvalue = [0, 1]", fillcolor="#399de5ff"] ;
58 -> 60 ;
61 [label="says <= 0.5\ngini = 0.48\nsamples = 4\nvalue = [2, 3]", fillcolor="#399de555"] ;
17 -> 61 ;
62 [label="tool <= 1.0\ngini = 0.44\nsamples = 2\nvalue = [2, 1]", fillcolor="#e581397f"] ;
61 -> 62 ;
63 [label="gini = 0.0\nsamples = 1\nvalue = [2, 0]", fillcolor="#e58139ff"] ;
62 -> 63 ;
64 [label="gini = 0.0\nsamples = 1\nvalue = [0, 1]", fillcolor="#399de5ff"] ;
62 -> 64 ;
65 [label="gini = 0.0\nsamples = 2\nvalue = [0, 2]", fillcolor="#399de5ff"] ;
61 -> 65 ;
66 [label="gini = 0.0\nsamples = 1\nvalue = [1, 0]", fillcolor="#e58139ff"] ;
16 -> 66 ;
67 [label="gini = 0.0\nsamples = 1\nvalue = [2, 0]", fillcolor="#e58139ff"] ;
15 -> 67 ;
68 [label="gini = 0.0\nsamples = 1\nvalue = [1, 0]", fillcolor="#e58139ff"] ;
14 -> 68 ;
69 [label="gini = 0.0\nsamples = 2\nvalue = [2, 0]", fillcolor="#e58139ff"] ;
13 -> 69 ;
70 [label="gini = 0.0\nsamples = 1\nvalue = [3, 0]", fillcolor="#e58139ff"] ;
12 -> 70 ;
71 [label="trump <= 4.0\ngini = 0.44\nsamples = 3\nvalue = [2, 1]", fillcolor="#e581397f"] ;
11 -> 71 ;
72 [label="gini = 0.0\nsamples = 1\nvalue = [0, 1]", fillcolor="#399de5ff"] ;
71 -> 72 ;
73 [label="gini = 0.0\nsamples = 2\nvalue = [2, 0]", fillcolor="#e58139ff"] ;
71 -> 73 ;
74 [label="gini = 0.0\nsamples = 2\nvalue = [3, 0]", fillcolor="#e58139ff"] ;
10 -> 74 ;
75 [label="gini = 0.0\nsamples = 1\nvalue = [2, 0]", fillcolor="#e58139ff"] ;
9 -> 75 ;
76 [label="gini = 0.0\nsamples = 2\nvalue = [4, 0]", fillcolor="#e58139ff"] ;
8 -> 76 ;
77 [label="gini = 0.0\nsamples = 2\nvalue = [2, 0]", fillcolor="#e58139ff"] ;
7 -> 77 ;
78 [label="state <= 1.0\ngini = 0.44\nsamples = 2\nvalue = [2, 1]", fillcolor="#e581397f"] ;
6 -> 78 ;
79 [label="gini = 0.0\nsamples = 1\nvalue = [2, 0]", fillcolor="#e58139ff"] ;
78 -> 79 ;
80 [label="gini = 0.0\nsamples = 1\nvalue = [0, 1]", fillcolor="#399de5ff"] ;
78 -> 80 ;
81 [label="statement <= 4.5\ngini = 0.49\nsamples = 12\nvalue = [7, 9]", fillcolor="#399de539"] ;
5 -> 81 ;
82 [label="along <= 0.5\ngini = 0.46\nsamples = 11\nvalue = [5, 9]", fillcolor="#399de571"] ;
81 -> 82 ;
83 [label="debt <= 0.5\ngini = 0.49\nsamples = 8\nvalue = [5, 4]", fillcolor="#e5813933"] ;
82 -> 83 ;
84 [label="respect <= 0.5\ngini = 0.47\nsamples = 7\nvalue = [5, 3]", fillcolor="#e5813966"] ;
83 -> 84 ;
85 [label="names <= 0.5\ngini = 0.28\nsamples = 6\nvalue = [5, 1]", fillcolor="#e58139cc"] ;
84 -> 85 ;
86 [label="gini = 0.0\nsamples = 5\nvalue = [5, 0]", fillcolor="#e58139ff"] ;
85 -> 86 ;
87 [label="gini = 0.0\nsamples = 1\nvalue = [0, 1]", fillcolor="#399de5ff"] ;
85 -> 87 ;
88 [label="gini = 0.0\nsamples = 1\nvalue = [0, 2]", fillcolor="#399de5ff"] ;
84 -> 88 ;
89 [label="gini = 0.0\nsamples = 1\nvalue = [0, 1]", fillcolor="#399de5ff"] ;
83 -> 89 ;
90 [label="gini = 0.0\nsamples = 3\nvalue = [0, 5]", fillcolor="#399de5ff"] ;
82 -> 90 ;
91 [label="gini = 0.0\nsamples = 1\nvalue = [2, 0]", fillcolor="#e58139ff"] ;
81 -> 91 ;
92 [label="required <= 0.5\ngini = 0.24\nsamples = 18\nvalue = [24, 4]", fillcolor="#e58139d4"] ;
4 -> 92 ;
93 [label="pretty <= 1.0\ngini = 0.14\nsamples = 17\nvalue = [24, 2]", fillcolor="#e58139ea"] ;
92 -> 93 ;
94 [label="gini = 0.0\nsamples = 16\nvalue = [24, 0]", fillcolor="#e58139ff"] ;
93 -> 94 ;
95 [label="gini = 0.0\nsamples = 1\nvalue = [0, 2]", fillcolor="#399de5ff"] ;
93 -> 95 ;
96 [label="gini = 0.0\nsamples = 1\nvalue = [0, 2]", fillcolor="#399de5ff"] ;
92 -> 96 ;
97 [label="gini = 0.0\nsamples = 3\nvalue = [4, 0]", fillcolor="#e58139ff"] ;
3 -> 97 ;
98 [label="gini = 0.0\nsamples = 2\nvalue = [3, 0]", fillcolor="#e58139ff"] ;
2 -> 98 ;
99 [label="connecticut <= 0.5\ngini = 0.47\nsamples = 270\nvalue = [163, 265]", fillcolor="#399de562"] ;
1 -> 99 ;
100 [label="last <= 1.5\ngini = 0.46\nsamples = 261\nvalue = [145, 265]", fillcolor="#399de573"] ;
99 -> 100 ;
101 [label="worst <= 0.5\ngini = 0.41\nsamples = 205\nvalue = [93, 233]", fillcolor="#399de599"] ;
100 -> 101 ;
102 [label="sharply <= 0.5\ngini = 0.43\nsamples = 194\nvalue = [92, 208]", fillcolor="#399de58e"] ;
101 -> 102 ;
103 [label="free <= 0.5\ngini = 0.41\nsamples = 190\nvalue = [84, 208]", fillcolor="#399de598"] ;
102 -> 103 ;
104 [label="mothers <= 2.0\ngini = 0.44\nsamples = 155\nvalue = [80, 162]", fillcolor="#399de581"] ;
103 -> 104 ;
105 [label="analyst <= 0.5\ngini = 0.43\nsamples = 153\nvalue = [76, 162]", fillcolor="#399de587"] ;
104 -> 105 ;
106 [label="supreme <= 0.5\ngini = 0.42\nsamples = 146\nvalue = [68, 158]", fillcolor="#399de591"] ;
105 -> 106 ;
107 [label="anti <= 0.5\ngini = 0.41\nsamples = 141\nvalue = [63, 157]", fillcolor="#399de599"] ;
106 -> 107 ;
108 [label="grant <= 0.5\ngini = 0.44\nsamples = 127\nvalue = [63, 132]", fillcolor="#399de585"] ;
107 -> 108 ;
109 [label="contract <= 0.5\ngini = 0.42\nsamples = 125\nvalue = [58, 132]", fillcolor="#399de58f"] ;
108 -> 109 ;
110 [label="nearly <= 0.5\ngini = 0.4\nsamples = 122\nvalue = [51, 132]", fillcolor="#399de59c"] ;
109 -> 110 ;
111 [label="mr <= 2.5\ngini = 0.36\nsamples = 107\nvalue = [38, 125]", fillcolor="#399de5b1"] ;
110 -> 111 ;
112 [label="heavy <= 0.5\ngini = 0.3\nsamples = 98\nvalue = [28, 125]", fillcolor="#399de5c6"] ;
111 -> 112 ;
113 [label="uk <= 2.5\ngini = 0.26\nsamples = 94\nvalue = [22, 124]", fillcolor="#399de5d2"] ;
112 -> 113 ;
114 [label="isis <= 6.0\ngini = 0.23\nsamples = 92\nvalue = [19, 124]", fillcolor="#399de5d8"] ;
113 -> 114 ;
115 [label="regulations <= 0.5\ngini = 0.22\nsamples = 91\nvalue = [18, 124]", fillcolor="#399de5da"] ;
114 -> 115 ;
116 [label="press <= 1.5\ngini = 0.2\nsamples = 89\nvalue = [16, 123]", fillcolor="#399de5de"] ;
115 -> 116 ;
117 [label="met <= 1.5\ngini = 0.16\nsamples = 85\nvalue = [12, 122]", fillcolor="#399de5e6"] ;
116 -> 117 ;
118 [label="improve <= 0.5\ngini = 0.14\nsamples = 83\nvalue = [10, 122]", fillcolor="#399de5ea"] ;
117 -> 118 ;
119 [label="ap <= 1.5\ngini = 0.12\nsamples = 80\nvalue = [8, 118]", fillcolor="#399de5ee"] ;
118 -> 119 ;
120 [label="guy <= 0.5\ngini = 0.09\nsamples = 79\nvalue = [6, 118]", fillcolor="#399de5f2"] ;
119 -> 120 ;
121 [label="attempting <= 0.5\ngini = 0.05\nsamples = 74\nvalue = [3, 115]", fillcolor="#399de5f8"] ;
120 -> 121 ;
122 [label="formed <= 0.5\ngini = 0.03\nsamples = 72\nvalue = [2, 112]", fillcolor="#399de5fa"] ;
121 -> 122 ;
123 [label="website <= 0.5\ngini = 0.02\nsamples = 70\nvalue = [1, 111]", fillcolor="#399de5fd"] ;
122 -> 123 ;
124 [label="gini = 0.0\nsamples = 65\nvalue = [0, 106]", fillcolor="#399de5ff"] ;
123 -> 124 ;
125 [label="coming <= 0.5\ngini = 0.28\nsamples = 5\nvalue = [1, 5]", fillcolor="#399de5cc"] ;
123 -> 125 ;
126 [label="sense <= 1.5\ngini = 0.38\nsamples = 3\nvalue = [1, 3]", fillcolor="#399de5aa"] ;
125 -> 126 ;
127 [label="usa <= 0.5\ngini = 0.44\nsamples = 2\nvalue = [1, 2]", fillcolor="#399de57f"] ;
126 -> 127 ;
128 [label="gini = 0.0\nsamples = 1\nvalue = [1, 0]", fillcolor="#e58139ff"] ;
127 -> 128 ;
129 [label="gini = 0.0\nsamples = 1\nvalue = [0, 2]", fillcolor="#399de5ff"] ;
127 -> 129 ;
130 [label="gini = 0.0\nsamples = 1\nvalue = [0, 1]", fillcolor="#399de5ff"] ;
126 -> 130 ;
131 [label="gini = 0.0\nsamples = 2\nvalue = [0, 2]", fillcolor="#399de5ff"] ;
125 -> 131 ;
132 [label="society <= 0.5\ngini = 0.5\nsamples = 2\nvalue = [1, 1]", fillcolor="#e5813900"] ;
122 -> 132 ;
133 [label="gini = 0.0\nsamples = 1\nvalue = [1, 0]", fillcolor="#e58139ff"] ;
132 -> 133 ;
134 [label="gini = 0.0\nsamples = 1\nvalue = [0, 1]", fillcolor="#399de5ff"] ;
132 -> 134 ;
135 [label="issue <= 1.0\ngini = 0.38\nsamples = 2\nvalue = [1, 3]", fillcolor="#399de5aa"] ;
121 -> 135 ;
136 [label="gini = 0.0\nsamples = 1\nvalue = [0, 3]", fillcolor="#399de5ff"] ;
135 -> 136 ;
137 [label="gini = 0.0\nsamples = 1\nvalue = [1, 0]", fillcolor="#e58139ff"] ;
135 -> 137 ;
138 [label="going <= 0.5\ngini = 0.5\nsamples = 5\nvalue = [3, 3]", fillcolor="#e5813900"] ;
120 -> 138 ;
139 [label="gini = 0.0\nsamples = 2\nvalue = [0, 2]", fillcolor="#399de5ff"] ;
138 -> 139 ;
140 [label="stops <= 0.5\ngini = 0.38\nsamples = 3\nvalue = [3, 1]", fillcolor="#e58139aa"] ;
138 -> 140 ;
141 [label="citizen <= 0.5\ngini = 0.44\nsamples = 2\nvalue = [2, 1]", fillcolor="#e581397f"] ;
140 -> 141 ;
142 [label="gini = 0.0\nsamples = 1\nvalue = [0, 1]", fillcolor="#399de5ff"] ;
141 -> 142 ;
143 [label="gini = 0.0\nsamples = 1\nvalue = [2, 0]", fillcolor="#e58139ff"] ;
141 -> 143 ;
144 [label="gini = 0.0\nsamples = 1\nvalue = [1, 0]", fillcolor="#e58139ff"] ;
140 -> 144 ;
145 [label="gini = 0.0\nsamples = 1\nvalue = [2, 0]", fillcolor="#e58139ff"] ;
119 -> 145 ;
146 [label="public <= 0.5\ngini = 0.44\nsamples = 3\nvalue = [2, 4]", fillcolor="#399de57f"] ;
118 -> 146 ;
147 [label="gini = 0.0\nsamples = 2\nvalue = [0, 4]", fillcolor="#399de5ff"] ;
146 -> 147 ;
148 [label="gini = 0.0\nsamples = 1\nvalue = [2, 0]", fillcolor="#e58139ff"] ;
146 -> 148 ;
149 [label="gini = 0.0\nsamples = 2\nvalue = [2, 0]", fillcolor="#e58139ff"] ;
117 -> 149 ;
150 [label="met <= 0.5\ngini = 0.32\nsamples = 4\nvalue = [4, 1]", fillcolor="#e58139bf"] ;
116 -> 150 ;
151 [label="existence <= 0.5\ngini = 0.38\nsamples = 3\nvalue = [3, 1]", fillcolor="#e58139aa"] ;
150 -> 151 ;
152 [label="gini = 0.0\nsamples = 2\nvalue = [3, 0]", fillcolor="#e58139ff"] ;
151 -> 152 ;
153 [label="gini = 0.0\nsamples = 1\nvalue = [0, 1]", fillcolor="#399de5ff"] ;
151 -> 153 ;
154 [label="gini = 0.0\nsamples = 1\nvalue = [1, 0]", fillcolor="#e58139ff"] ;
150 -> 154 ;
155 [label="ongoing <= 0.5\ngini = 0.44\nsamples = 2\nvalue = [2, 1]", fillcolor="#e581397f"] ;
115 -> 155 ;
156 [label="gini = 0.0\nsamples = 1\nvalue = [2, 0]", fillcolor="#e58139ff"] ;
155 -> 156 ;
157 [label="gini = 0.0\nsamples = 1\nvalue = [0, 1]", fillcolor="#399de5ff"] ;
155 -> 157 ;
158 [label="gini = 0.0\nsamples = 1\nvalue = [1, 0]", fillcolor="#e58139ff"] ;
114 -> 158 ;
159 [label="gini = 0.0\nsamples = 2\nvalue = [3, 0]", fillcolor="#e58139ff"] ;
113 -> 159 ;
160 [label="took <= 0.5\ngini = 0.24\nsamples = 4\nvalue = [6, 1]", fillcolor="#e58139d4"] ;
112 -> 160 ;
161 [label="gini = 0.0\nsamples = 3\nvalue = [6, 0]", fillcolor="#e58139ff"] ;
160 -> 161 ;
162 [label="gini = 0.0\nsamples = 1\nvalue = [0, 1]", fillcolor="#399de5ff"] ;
160 -> 162 ;
163 [label="gini = 0.0\nsamples = 9\nvalue = [10, 0]", fillcolor="#e58139ff"] ;
111 -> 163 ;
164 [label="mr <= 0.5\ngini = 0.45\nsamples = 15\nvalue = [13, 7]", fillcolor="#e5813976"] ;
110 -> 164 ;
165 [label="raise <= 0.5\ngini = 0.35\nsamples = 7\nvalue = [2, 7]", fillcolor="#399de5b6"] ;
164 -> 165 ;
166 [label="two <= 3.0\ngini = 0.22\nsamples = 6\nvalue = [1, 7]", fillcolor="#399de5db"] ;
165 -> 166 ;
167 [label="gini = 0.0\nsamples = 5\nvalue = [0, 7]", fillcolor="#399de5ff"] ;
166 -> 167 ;
168 [label="gini = 0.0\nsamples = 1\nvalue = [1, 0]", fillcolor="#e58139ff"] ;
166 -> 168 ;
169 [label="gini = 0.0\nsamples = 1\nvalue = [1, 0]", fillcolor="#e58139ff"] ;
165 -> 169 ;
170 [label="gini = 0.0\nsamples = 8\nvalue = [11, 0]", fillcolor="#e58139ff"] ;
164 -> 170 ;
171 [label="gini = 0.0\nsamples = 3\nvalue = [7, 0]", fillcolor="#e58139ff"] ;
109 -> 171 ;
172 [label="gini = 0.0\nsamples = 2\nvalue = [5, 0]", fillcolor="#e58139ff"] ;
108 -> 172 ;
173 [label="gini = 0.0\nsamples = 14\nvalue = [0, 25]", fillcolor="#399de5ff"] ;
107 -> 173 ;
174 [label="get <= 2.5\ngini = 0.28\nsamples = 5\nvalue = [5, 1]", fillcolor="#e58139cc"] ;
106 -> 174 ;
175 [label="gini = 0.0\nsamples = 4\nvalue = [5, 0]", fillcolor="#e58139ff"] ;
174 -> 175 ;
176 [label="gini = 0.0\nsamples = 1\nvalue = [0, 1]", fillcolor="#399de5ff"] ;
174 -> 176 ;
177 [label="human <= 0.5\ngini = 0.44\nsamples = 7\nvalue = [8, 4]", fillcolor="#e581397f"] ;
105 -> 177 ;
178 [label="bob <= 0.5\ngini = 0.32\nsamples = 6\nvalue = [8, 2]", fillcolor="#e58139bf"] ;
177 -> 178 ;
179 [label="gini = 0.0\nsamples = 5\nvalue = [8, 0]", fillcolor="#e58139ff"] ;
178 -> 179 ;
180 [label="gini = 0.0\nsamples = 1\nvalue = [0, 2]", fillcolor="#399de5ff"] ;
178 -> 180 ;
181 [label="gini = 0.0\nsamples = 1\nvalue = [0, 2]", fillcolor="#399de5ff"] ;
177 -> 181 ;
182 [label="gini = 0.0\nsamples = 2\nvalue = [4, 0]", fillcolor="#e58139ff"] ;
104 -> 182 ;
183 [label="view <= 0.5\ngini = 0.15\nsamples = 35\nvalue = [4, 46]", fillcolor="#399de5e9"] ;
103 -> 183 ;
184 [label="gini = 0.0\nsamples = 29\nvalue = [0, 40]", fillcolor="#399de5ff"] ;
183 -> 184 ;
185 [label="still <= 0.5\ngini = 0.48\nsamples = 6\nvalue = [4, 6]", fillcolor="#399de555"] ;
183 -> 185 ;
186 [label="removing <= 0.5\ngini = 0.32\nsamples = 3\nvalue = [4, 1]", fillcolor="#e58139bf"] ;
185 -> 186 ;
187 [label="gini = 0.0\nsamples = 2\nvalue = [4, 0]", fillcolor="#e58139ff"] ;
186 -> 187 ;
188 [label="gini = 0.0\nsamples = 1\nvalue = [0, 1]", fillcolor="#399de5ff"] ;
186 -> 188 ;
189 [label="gini = 0.0\nsamples = 3\nvalue = [0, 5]", fillcolor="#399de5ff"] ;
185 -> 189 ;
190 [label="gini = 0.0\nsamples = 4\nvalue = [8, 0]", fillcolor="#e58139ff"] ;
102 -> 190 ;
191 [label="girl <= 0.5\ngini = 0.07\nsamples = 11\nvalue = [1, 25]", fillcolor="#399de5f5"] ;
101 -> 191 ;
192 [label="gini = 0.0\nsamples = 10\nvalue = [0, 25]", fillcolor="#399de5ff"] ;
191 -> 192 ;
193 [label="gini = 0.0\nsamples = 1\nvalue = [1, 0]", fillcolor="#e58139ff"] ;
191 -> 193 ;
194 [label="believe <= 0.5\ngini = 0.47\nsamples = 56\nvalue = [52, 32]", fillcolor="#e5813962"] ;
100 -> 194 ;
195 [label="hundreds <= 0.5\ngini = 0.41\nsamples = 45\nvalue = [49, 20]", fillcolor="#e5813997"] ;
194 -> 195 ;
196 [label="compare <= 1.0\ngini = 0.38\nsamples = 43\nvalue = [49, 17]", fillcolor="#e58139a7"] ;
195 -> 196 ;
197 [label="command <= 2.5\ngini = 0.35\nsamples = 42\nvalue = [49, 14]", fillcolor="#e58139b6"] ;
196 -> 197 ;
198 [label="emails <= 1.0\ngini = 0.32\nsamples = 41\nvalue = [49, 12]", fillcolor="#e58139c1"] ;
197 -> 198 ;
199 [label="happens <= 0.5\ngini = 0.26\nsamples = 38\nvalue = [49, 9]", fillcolor="#e58139d0"] ;
198 -> 199 ;
200 [label="victims <= 0.5\ngini = 0.22\nsamples = 36\nvalue = [48, 7]", fillcolor="#e58139da"] ;
199 -> 200 ;
201 [label="former <= 0.5\ngini = 0.2\nsamples = 35\nvalue = [48, 6]", fillcolor="#e58139df"] ;
200 -> 201 ;
202 [label="voting <= 0.5\ngini = 0.34\nsamples = 17\nvalue = [22, 6]", fillcolor="#e58139b9"] ;
201 -> 202 ;
203 [label="economic <= 0.5\ngini = 0.22\nsamples = 14\nvalue = [21, 3]", fillcolor="#e58139db"] ;
202 -> 203 ;
204 [label="separated <= 0.5\ngini = 0.16\nsamples = 13\nvalue = [21, 2]", fillcolor="#e58139e7"] ;
203 -> 204 ;
205 [label="various <= 0.5\ngini = 0.09\nsamples = 12\nvalue = [21, 1]", fillcolor="#e58139f3"] ;
204 -> 205 ;
206 [label="gini = 0.0\nsamples = 11\nvalue = [21, 0]", fillcolor="#e58139ff"] ;
205 -> 206 ;
207 [label="gini = 0.0\nsamples = 1\nvalue = [0, 1]", fillcolor="#399de5ff"] ;
205 -> 207 ;
208 [label="gini = 0.0\nsamples = 1\nvalue = [0, 1]", fillcolor="#399de5ff"] ;
204 -> 208 ;
209 [label="gini = 0.0\nsamples = 1\nvalue = [0, 1]", fillcolor="#399de5ff"] ;
203 -> 209 ;
210 [label="county <= 1.0\ngini = 0.38\nsamples = 3\nvalue = [1, 3]", fillcolor="#399de5aa"] ;
202 -> 210 ;
211 [label="gini = 0.0\nsamples = 2\nvalue = [0, 3]", fillcolor="#399de5ff"] ;
210 -> 211 ;
212 [label="gini = 0.0\nsamples = 1\nvalue = [1, 0]", fillcolor="#e58139ff"] ;
210 -> 212 ;
213 [label="gini = 0.0\nsamples = 18\nvalue = [26, 0]", fillcolor="#e58139ff"] ;
201 -> 213 ;
214 [label="gini = 0.0\nsamples = 1\nvalue = [0, 1]", fillcolor="#399de5ff"] ;
200 -> 214 ;
215 [label="note <= 0.5\ngini = 0.44\nsamples = 2\nvalue = [1, 2]", fillcolor="#399de57f"] ;
199 -> 215 ;
216 [label="gini = 0.0\nsamples = 1\nvalue = [0, 2]", fillcolor="#399de5ff"] ;
215 -> 216 ;
217 [label="gini = 0.0\nsamples = 1\nvalue = [1, 0]", fillcolor="#e58139ff"] ;
215 -> 217 ;
218 [label="gini = 0.0\nsamples = 3\nvalue = [0, 3]", fillcolor="#399de5ff"] ;
198 -> 218 ;
219 [label="gini = 0.0\nsamples = 1\nvalue = [0, 2]", fillcolor="#399de5ff"] ;
197 -> 219 ;
220 [label="gini = 0.0\nsamples = 1\nvalue = [0, 3]", fillcolor="#399de5ff"] ;
196 -> 220 ;
221 [label="gini = 0.0\nsamples = 2\nvalue = [0, 3]", fillcolor="#399de5ff"] ;
195 -> 221 ;
222 [label="trump <= 0.5\ngini = 0.32\nsamples = 11\nvalue = [3, 12]", fillcolor="#399de5bf"] ;
194 -> 222 ;
223 [label="gini = 0.0\nsamples = 2\nvalue = [2, 0]", fillcolor="#e58139ff"] ;
222 -> 223 ;
224 [label="standards <= 1.5\ngini = 0.14\nsamples = 9\nvalue = [1, 12]", fillcolor="#399de5ea"] ;
222 -> 224 ;
225 [label="gini = 0.0\nsamples = 8\nvalue = [0, 12]", fillcolor="#399de5ff"] ;
224 -> 225 ;
226 [label="gini = 0.0\nsamples = 1\nvalue = [1, 0]", fillcolor="#e58139ff"] ;
224 -> 226 ;
227 [label="gini = 0.0\nsamples = 9\nvalue = [18, 0]", fillcolor="#e58139ff"] ;
99 -> 227 ;
228 [label="road <= 0.5\ngini = 0.24\nsamples = 14\nvalue = [18, 3]", fillcolor="#e58139d4"] ;
0 -> 228 [labeldistance=2.5, labelangle=-45, headlabel="False"] ;
229 [label="adults <= 0.5\ngini = 0.18\nsamples = 13\nvalue = [18, 2]", fillcolor="#e58139e3"] ;
228 -> 229 ;
230 [label="prospects <= 0.5\ngini = 0.1\nsamples = 12\nvalue = [18, 1]", fillcolor="#e58139f1"] ;
229 -> 230 ;
231 [label="gini = 0.0\nsamples = 11\nvalue = [18, 0]", fillcolor="#e58139ff"] ;
230 -> 231 ;
232 [label="gini = 0.0\nsamples = 1\nvalue = [0, 1]", fillcolor="#399de5ff"] ;
230 -> 232 ;
233 [label="gini = 0.0\nsamples = 1\nvalue = [0, 1]", fillcolor="#399de5ff"] ;
229 -> 233 ;
234 [label="gini = 0.0\nsamples = 1\nvalue = [0, 1]", fillcolor="#399de5ff"] ;
228 -> 234 ;
}